svm_type epsilon_svr
kernel_type rbf
gamma 0.0147059
nr_class 2
total_sv 5183
rho -5.82515
SV
-1 1:-0.958129 2:-0 3:0 4:0.286337 5:-0.299417 6:0.161674 7:0.0865 8:-0.998119 9:-0 10:0 11:0.0613008 12:0.285209 13:0.347481 14:0.0865 15:-0.97116 16:0 17:-0 18:-0.238427 19:-0.157848 20:0.375089 21:0.0865 22:0 23:0 24:0 25:0 26:0 27:0 28:0 29:0 30:0 31:0 32:0 33:0 34:0 35:0 36:0 37:0 38:0 39:0 40:0 41:0 42:0 43:0 44:0 45:0 46:0 47:0 48:0 49:1 50:2 51:0 52:0 53:0 54:1 55:0 56:2.58176 57:-2.61625 58:-2.70177 59:0.15708 60:-0.380482 61:0.174533 62:-2.02633 63:-1.05839 64:-0.430947 65:-0.884982 66:-0.403137 67:1.88164 68:-1.52623 
1 1:-0.958129 2:-0 3:0 4:0.286337 5:-0.299417 6:0.161674 7:0.0865 8:-0.998119 9:-0 10:0 11:0.0613008 12:0.285209 13:0.347481 14:0.0865 15:-0.97116 16:0 17:-0 18:-0.238427 19:-0.157848 20:0.375089 21:0.0865 22:0 23:0 24:0 25:0 26:0 27:0 28:0 29:0 30:0 31:0 32:0 33:0 34:0 35:0 36:0 37:0 38:0 39:0 40:0 41:0 42:0 43:0 44:0 45:0 46:0 47:0 48:0 49:1 50:2 51:0 52:0 53:0 54:1 55:0 56:2.96706 57:-2.61625 58:-2.70177 59:0.15708 60:-0.380482 61:0.174533 62:-2.02633 63:-1.80384 64:0.449352 65:-0.601088 66:0.233735 67:-1.93913 68:1.71165 
1 1:-0.958129 2:-0 3:0 4:0.286337 5:-0.299417 6:0.161674 7:0.0865 8:-0.998119 9:-0 10:0 11:0.0613008 12:0.285209 13:0.347481 14:0.0865 15:-0.97116 16:0 17:-0 18:-0.238427 19:-0.157848 20:0.375089 21:0.0865 22:0 23:0 24:0 25:0 26:0 27:0 28:0 29:0 30:0 31:0 32:0 33:0 34:0 35:0 36:0 37:0 38:0 39:0 40:0 41:3 42:0 43:0 44:0 45:6 46:0 47:0 48:0 49:1 50:2 51:4 52:0 53:5 54:1 55:0 56:2.96706 57:-2.61625 58:-2.70177 59:0.15708 60:-0.380482 61:0.174533 62:-2.02633 63:-1.80384 64:0.449352 65:-0.601088 66:0.233735 67:-1.93913 68:1.71165 
-1 1:-0.958129 2:-0 3:0 4:0.286337 5:-0.299417 6:0.161674 7:0.0865 8:-0.998119 9:-0 10:0 11:0.0613008 12:0.285209 13:0.347481 14:0.0865 15:-0.97116 16:0 17:-0 18:-0.238427 19:-0.157848 20:0.375089 21:0.0865 22:0 23:0 24:0 25:0 26:0 27:0 28:0 29:0 30:0 31:0 32:0 33:0 34:0 35:0 36:0 37:0 38:0 39:0 40:0 41:3 42:0 43:0 44:6 45:0 46:0 47:0 48:0 49:1 50:2 51:4 52:0 53:5 54:1 55:0 56:1.74092 57:-2.61625 58:-2.70177 59:0.15708 60:-0.380482 61:0.174533 62:-2.02633 63:-1.11842 64:-0.139057 65:0.178757 66:-0.59651 67:-1.88123 68:2.01782 
-1 1:-0.958129 2:-0 3:0 4:0.286337 5:-0.299417 6:0.161674 7:0.0865 8:-0.998119 9:-0 10:0 11:0.0613008 12:0.285209 13:0.347481 14:0.0865 15:-0.97116 16:0 17:-0 18:-0.238427 19:-0.157848 20:0.375089 21:0.0865 22:0 23:0 24:0 25:0 26:0 27:0 28:0 29:0 30:0 31:0 32:0 33:0 34:0 35:0 36:0 37:0 38:0 39:0 40:0 41:4 42:0 43:0 44:0 45:1 46:0 47:0 48:0 49:0 50:3 51:0 52:0 53:0 54:2 55:0 56:1.74092 57:-2.61625 58:-2.70177 59:0.15708 60:-0.380482 61:0.174533 62:-2.02633 63:-1.42797 64:-0.0587514 65:-0.578793 66:-0.750787 67:-1.87919 68:2.00896 
-1 1:-0.958129 2:-0 3:0 4:0.286337 5:-0.299417 6:0.161674 7:0.0865 8:-0.998119 9:-0 10:0 11:0.0613008 12:0.285209 13:0.347481 14:0.0865 15:-0.97116 16:0 17:-0 18:-0.238427 19:-0.157848 20:0.375089 21:0.0865 22:0 23:0 24:0 25:0 26:0 27:0 28:0 29:0 30:0 31:0 32:0 33:0 34:0 35:0 36:0 37:0 38:0 39:0 40:0 41:4 42:0 43:0 44:0 45:1 46:0 47:0 48:0 49:1 50:3 51:5 52:0 53:6 54:2 55:0 56:1.74092 57:-2.61625 58:-2.70177 59:0.15708 60:-0.380482 61:0.174533 62:-2.02633 63:-1.42797 64:-0.0587514 65:-0.578793 66:-0.750787 67:-1.87919 68:2.00896 
1 1:-0.958129 2:-0 3:0 4:0.286337 5:-0.299417 6:0.161674 7:0.0865 8:-0.998119 9:-0 10:0 11:0.0613008 12:0.285209 13:0.347481 14:0.0865 15:-0.97116 16:0 17:-0 18:-0.238427 19:-0.157848 20:0.375089 21:0.0865 22:0 23:0 24:0 25:0 26:0 27:0 28:0 29:0 30:0 31:0 32:0 33:0 34:0 35:0 36:0 37:0 38:0 39:0 40:0 41:4 42:0 43:0 44:1 45:0 46:0 47:0 48:0 49:0 50:3 51:0 52:0 53:0 54:2 55:0 56:2.96706 57:-2.61625 58:-2.70177 59:0.15708 60:-0.380482 61:0.174533 62:-2.02633 63:-0.943782 64:-0.376512 65:-0.231845 66:0.419886 67:1.90214 68:-1.16449 
1 1:-0.958129 2:-0 3:0 4:0.286337 5:-0.299417 6:0.161674 7:0.0865 8:-0.998119 9:-0 10:0 11:0.0613008 12:0.285209 13:0.347481 14:0.0865 15:-0.97116 16:0 17:-0 18:-0.238427 19:-0.157848 20:0.375089 21:0.0865 22:0 23:0 24:0 25:0 26:0 27:0 28:0 29:0 30:0 31:0 32:0 33:0 34:0 35:0 36:0 37:0 38:0 39:0 40:0 41:4 42:0 43:0 44:1 45:0 46:0 47:0 48:0 49:1 50:3 51:5 52:0 53:6 54:2 55:0 56:2.96706 57:-2.61625 58:-2.70177 59:0.15708 60:-0.380482 61:0.174533 62:-2.02633 63:-0.943782 64:-0.376512 65:-0.231845 66:0.419886 67:1.90214 68:-1.16449 
-1 1:-0.958129 2:-0 3:0 4:0.286337 5:-0.299417 6:0.161674 7:0.0865 8:-0.998119 9:-0 10:0 11:0.0613008 12:0.285209 13:0.347481 14:0.0865 15:-0.97116 16:0 17:-0 18:-0.238427 19:-0.157848 20:0.375089 21:0.0865 22:0 23:0 24:0 25:0 26:0 27:0 28:0 29:0 30:0 31:0 32:0 33:0 34:0 35:0 36:0 37:0 38:0 39:0 40:0 41:5 42:0 43:0 44:0 45:2 46:0 47:0 48:0 49:1 50:4 51:0 52:6 53:1 54:3 55:0 56:0 57:-2.61625 58:-2.70177 59:0.15708 60:-0.380482 61:0.174533 62:-2.02633 63:-2.61625 64:-2.70177 65:0.15708 66:-0.380482 67:0.174533 68:2.02633 
-1 1:-0.958129 2:-0 3:0 4:0.286337 5:-0.299417 6:0.161674 7:0.0865 8:-0.998119 9:-0 10:0 11:0.0613008 12:0.285209 13:0.347481 14:0.0865 15:-0.97116 16:0 17:-0 18:-0.238427 19:-0.157848 20:0.375089 21:0.0865 22:0 23:0 24:0 25:0 26:0 27:0 28:0 29:0 30:0 31:0 32:0 33:0 34:0 35:0 36:0 37:0 38:0 39:0 40:0 41:5 42:0 43:0 44:0 45:2 46:0 47:0 48:0 49:1 50:4 51:6 52:0 53:1 54:3 55:0 56:0 57:-2.61625 58:-2.70177 59:0.15708 60:-0.380482 61:0.174533 62:-2.02633 63:-2.61625 64:-2.70177 65:0.15708 66:-0.380482 67:0.174533 68:2.02633 
1 1:-0.958129 2:-0 3:0 4:0.286337 5:-0.299417 6:0.161674 7:0.0865 8:-0.998119 9:-0 10:0 11:0.0613008 12:0.285209 13:0.347481 14:0.0865 15:-0.97116 16:0 17:-0 18:-0.238427 19:-0.157848 20:0.375089 21:0.0865 22:0 23:0 24:0 25:0 26:0 27:0 28:0 29:0 30:0 31:0 32:0 33:0 34:0 35:0 36:0 37:0 38:0 39:0 40:0 41:5 42:0 43:0 44:2 45:0 46:0 47:0 48:0 49:1 50:4 51:0 52:6 53:1 54:3 55:0 56:0 57:-2.61625 58:-2.70177 59:0.15708 60:-0.380482 61:0.174533 62:-2.02633 63:-2.61625 64:-2.70177 65:0.15708 66:-0.380482 67:0.174533 68:2.02633 
1 1:-0.958129 2:-0 3:0 4:0.286337 5:-0.299417 6:0.161674 7:0.0865 8:-0.998119 9:-0 10:0 11:0.0613008 12:0.285209 13:0.347481 14:0.0865 15:-0.97116 16:0 17:-0 18:-0.238427 19:-0.157848 20:0.375089 21:0.0865 22:0 23:0 24:0 25:0 26:0 27:0 28:0 29:0 30:0 31:0 32:0 33:0 34:0 35:0 36:0 37:0 38:0 39:0 40:0 41:5 42:0 43:0 44:2 45:0 46:0 47:0 48:0 49:1 50:4 51:6 52:0 53:1 54:3 55:0 56:0 57:-2.61625 58:-2.70177 59:0.15708 60:-0.380482 61:0.174533 62:-2.02633 63:-2.61625 64:-2.70177 65:0.15708 66:-0.380482 67:0.174533 68:2.02633 
1 1:-0.958129 2:-0 3:0 4:0.286337 5:-0.299417 6:0.161674 7:0.0865 8:-0.998119 9:-0 10:0 11:0.0613008 12:0.285209 13:0.347481 14:0.0865 15:-0.97116 16:0 17:-0 18:-0.238427 19:-0.157848 20:0.375089 21:0.0865 22:0 23:0 24:0 25:0 26:0 27:0 28:0 29:0 30:0 31:0 32:0 33:0 34:0 35:0 36:0 37:0 38:0 39:0 40:3 41:0 42:0 43:0 44:6 45:0 46:0 47:0 48:0 49:1 50:2 51:4 52:0 53:5 54:1 55:0 56:2.58176 57:-2.61625 58:-2.70177 59:0.15708 60:-0.380482 61:0.174533 62:-2.02633 63:-1.05839 64:-0.430947 65:-0.884982 66:-0.403137 67:1.88164 68:-1.52623 
-0.4655831766098013 1:-0.958129 2:-0 3:0 4:0.286337 5:-0.299417 6:0.161674 7:0.0865 8:-0.998119 9:-0 10:0 11:0.0613008 12:0.285209 13:0.347481 14:0.0865 15:-0.97116 16:0 17:-0 18:-0.238427 19:-0.157848 20:0.375089 21:0.0865 22:0 23:0 24:0 25:0 26:0 27:0 28:0 29:0 30:0 31:0 32:0 33:0 34:0 35:0 36:0 37:0 38:0 39:0 40:4 41:0 42:0 43:0 44:0 45:0 46:1 47:0 48:0 49:0 50:3 51:0 52:0 53:0 54:2 55:0 56:2.96706 57:-2.61625 58:-2.70177 59:0.15708 60:-0.380482 61:0.174533 62:-2.02633 63:-1.34068 64:-0.180707 65:-0.920166 66:-0.112174 67:1.82865 68:-1.43754 
0.5225469703834152 1:-0.958129 2:-0 3:0 4:0.286337 5:-0.299417 6:0.161674 7:0.0865 8:-0.998119 9:-0 10:0 11:0.0613008 12:0.285209 13:0.347481 14:0.0865 15:-0.97116 16:0 17:-0 18:-0.238427 19:-0.157848 20:0.375089 21:0.0865 22:0 23:0 24:0 25:0 26:0 27:0 28:0 29:0 30:0 31:0 32:0 33:0 34:0 35:0 36:0 37:0 38:0 39:0 40:4 41:0 42:0 43:0 44:0 45:0 46:1 47:0 48:0 49:1 50:3 51:5 52:0 53:6 54:2 55:0 56:2.96706 57:-2.61625 58:-2.70177 59:0.15708 60:-0.380482 61:0.174533 62:-2.02633 63:-1.34068 64:-0.180707 65:-0.920166 66:-0.112174 67:1.82865 68:-1.43754 
0.7158244619138119 1:-0.958129 2:-0 3:0 4:0.286337 5:-0.299417 6:0.161674 7:0.0865 8:-0.998119 9:-0 10:0 11:0.0613008 12:0.285209 13:0.347481 14:0.0865 15:-0.97116 16:0 17:-0 18:-0.238427 19:-0.157848 20:0.375089 21:0.0865 22:0 23:0 24:0 25:0 26:0 27:0 28:0 29:0 30:0 31:0 32:0 33:0 34:0 35:0 36:0 37:0 38:0 39:0 40:4 41:0 42:0 43:0 44:1 45:0 46:0 47:0 48:0 49:0 50:3 51:0 52:0 53:0 54:2 55:0 56:2.96706 57:-2.61625 58:-2.70177 59:0.15708 60:-0.380482 61:0.174533 62:-2.02633 63:-0.943782 64:-0.376512 65:-0.231845 66:0.419886 67:1.90214 68:-1.16449 
0.7886484271749561 1:-0.958129 2:-0 3:0 4:0.286337 5:-0.299417 6:0.161674 7:0.0865 8:-0.998119 9:-0 10:0 11:0.0613008 12:0.285209 13:0.347481 14:0.0865 15:-0.97116 16:0 17:-0 18:-0.238427 19:-0.157848 20:0.375089 21:0.0865 22:0 23:0 24:0 25:0 26:0 27:0 28:0 29:0 30:0 31:0 32:0 33:0 34:0 35:0 36:0 37:0 38:0 39:0 40:5 41:0 42:0 43:0 44:0 45:0 46:2 47:0 48:0 49:1 50:4 51:0 52:6 53:1 54:3 55:0 56:0 57:-2.61625 58:-2.70177 59:0.15708 60:-0.380482 61:0.174533 62:-2.02633 63:-2.61625 64:-2.70177 65:0.15708 66:-0.380482 67:0.174533 68:2.02633 
1 1:-0.958129 2:-0 3:0 4:0.286337 5:-0.299417 6:0.161674 7:0.0865 8:-0.998119 9:-0 10:0 11:0.0613008 12:0.285209 13:0.347481 14:0.0865 15:-0.97116 16:0 17:-0 18:-0.238427 19:-0.157848 20:0.375089 21:0.0865 22:0 23:0 24:0 25:0 26:0 27:0 28:0 29:0 30:0 31:0 32:0 33:0 34:0 35:0 36:0 37:0 38:0 39:0 40:5 41:0 42:0 43:0 44:0 45:0 46:2 47:0 48:0 49:1 50:4 51:6 52:0 53:1 54:3 55:0 56:0 57:-2.61625 58:-2.70177 59:0.15708 60:-0.380482 61:0.174533 62:-2.02633 63:-2.61625 64:-2.70177 65:0.15708 66:-0.380482 67:0.174533 68:2.02633 
-0.9687043463009803 1:-0.958129 2:-0 3:0 4:0.286337 5:-0.299417 6:0.161674 7:0.0865 8:-0.998119 9:-0 10:0 11:0.0613008 12:0.285209 13:0.347481 14:0.0865 15:-0.97116 16:0 17:-0 18:-0.238427 19:-0.157848 20:0.375089 21:0.0865 22:0 23:0 24:0 25:0 26:0 27:0 28:0 29:0 30:0 31:0 32:0 33:0 34:0 35:0 36:0 37:0 38:0 39:3 40:0 41:0 42:0 43:0 44:0 45:6 46:0 47:0 48:0 49:1 50:2 51:4 52:0 53:5 54:1 55:0 56:2.58176 57:-2.61625 58:-2.70177 59:0.15708 60:-0.380482 61:0.174533 62:-2.02633 63:-1.05839 64:-0.430947 65:-0.884982 66:-0.403137 67:1.88164 68:-1.52623 
-1 1:-0.958129 2:-0 3:0 4:0.286337 5:-0.299417 6:0.161674 7:0.0865 8:-0.998119 9:-0 10:0 11:0.0613008 12:0.285209 13:0.347481 14:0.0865 15:-0.97116 16:0 17:-0 18:-0.238427 19:-0.157848 20:0.375089 21:0.0865 22:0 23:0 24:0 25:0 26:0 27:0 28:0 29:0 30:0 31:0 32:0 33:0 34:0 35:0 36:0 37:0 38:0 39:4 40:0 41:0 42:0 43:0 44:0 45:0 46:1 47:0 48:0 49:0 50:3 51:0 52:0 53:0 54:2 55:0 56:2.96706 57:-2.61625 58:-2.70177 59:0.15708 60:-0.380482 61:0.174533 62:-2.02633 63:-1.34068 64:-0.180707 65:-0.920166 66:-0.112174 67:1.82865 68:-1.43754 
-1 1:-0.958129 2:-0 3:0 4:0.286337 5:-0.299417 6:0.161674 7:0.0865 8:-0.998119 9:-0 10:0 11:0.0613008 12:0.285209 13:0.347481 14:0.0865 15:-0.97116 16:0 17:-0 18:-0.238427 19:-0.157848 20:0.375089 21:0.0865 22:0 23:0 24:0 25:0 26:0 27:0 28:0 29:0 30:0 31:0 32:0 33:0 34:0 35:0 36:0 37:0 38:0 39:4 40:0 41:0 42:0 43:0 44:0 45:0 46:1 47:0 48:0 49:1 50:3 51:5 52:0 53:6 54:2 55:0 56:2.96706 57:-2.61625 58:-2.70177 59:0.15708 60:-0.380482 61:0.174533 62:-2.02633 63:-1.34068 64:-0.180707 65:-0.920166 66:-0.112174 67:1.82865 68:-1.43754 
-1 1:-0.958129 2:-0 3:0 4:0.286337 5:-0.299417 6:0.161674 7:0.0865 8:-0.998119 9:-0 10:0 11:0.0613008 12:0.285209 13:0.347481 14:0.0865 15:-0.97116 16:0 17:-0 18:-0.238427 19:-0.157848 20:0.375089 21:0.0865 22:0 23:0 24:0 25:0 26:0 27:0 28:0 29:0 30:0 31:0 32:0 33:0 34:0 35:0 36:0 37:0 38:0 39:5 40:0 41:0 42:0 43:0 44:0 45:0 46:2 47:0 48:0 49:1 50:4 51:0 52:6 53:1 54:3 55:0 56:0 57:-2.61625 58:-2.70177 59:0.15708 60:-0.380482 61:0.174533 62:-2.02633 63:-2.61625 64:-2.70177 65:0.15708 66:-0.380482 67:0.174533 68:2.02633 
-1 1:-0.958129 2:-0 3:0 4:0.286337 5:-0.299417 6:0.161674 7:0.0865 8:-0.998119 9:-0 10:0 11:0.0613008 12:0.285209 13:0.347481 14:0.0865 15:-0.97116 16:0 17:-0 18:-0.238427 19:-0.157848 20:0.375089 21:0.0865 22:0 23:0 24:0 25:0 26:0 27:0 28:0 29:0 30:0 31:0 32:0 33:0 34:0 35:0 36:0 37:0 38:0 39:5 40:0 41:0 42:0 43:0 44:0 45:0 46:2 47:0 48:0 49:1 50:4 51:6 52:0 53:1 54:3 55:0 56:0 57:-2.61625 58:-2.70177 59:0.15708 60:-0.380482 61:0.174533 62:-2.02633 63:-2.61625 64:-2.70177 65:0.15708 66:-0.380482 67:0.174533 68:2.02633 
-1 1:-0.958129 2:-0 3:0 4:0.286337 5:-0.299417 6:0.161674 7:0.0865 8:-0.998119 9:-0 10:0 11:0.0613008 12:0.285209 13:0.347481 14:0.0865 15:-0.97116 16:0 17:-0 18:-0.238427 19:-0.157848 20:0.375089 21:0.0865 22:0 23:0 24:0 25:0 26:0 27:0 28:0 29:0 30:0 31:0 32:0 33:0 34:0 35:0 36:0 37:0 38:0 39:5 40:0 41:0 42:0 43:0 44:0 45:2 46:0 47:0 48:0 49:1 50:4 51:6 52:0 53:1 54:3 55:0 56:0 57:-2.61625 58:-2.70177 59:0.15708 60:-0.380482 61:0.174533 62:-2.02633 63:-2.61625 64:-2.70177 65:0.15708 66:-0.380482 67:0.174533 68:2.02633 
-1 1:-0.958129 2:-0 3:0 4:0.286337 5:-0.299417 6:0.161674 7:0.0865 8:-0.998119 9:-0 10:0 11:0.0613008 12:0.285209 13:0.347481 14:0.0865 15:-0.97116 16:0 17:-0 18:-0.238427 19:-0.157848 20:0.375089 21:0.0865 22:0 23:0 24:0 25:0 26:0 27:0 28:0 29:0 30:0 31:0 32:0 33:0 34:0 35:0 36:0 37:1 38:0 39:0 40:0 41:0 42:0 43:0 44:0 45:0 46:0 47:0 48:0 49:1 50:0 51:0 52:0 53:0 54:0 55:1 56:2.96706 57:-2.61625 58:-2.70177 59:0.15708 60:-0.380482 61:0.174533 62:-2.02633 63:-1.80384 64:0.449352 65:-0.601088 66:0.233735 67:-1.93913 68:1.71165 
1 1:-0.958129 2:-0 3:0 4:0.286337 5:-0.299417 6:0.161674 7:0.0865 8:-0.998119 9:-0 10:0 11:0.0613008 12:0.285209 13:0.347481 14:0.0865 15:-0.97116 16:0 17:-0 18:-0.238427 19:-0.157848 20:0.375089 21:0.0865 22:0 23:0 24:0 25:0 26:0 27:0 28:0 29:0 30:0 31:0 32:0 33:0 34:0 35:0 36:0 37:1 38:0 39:0 40:0 41:0 42:0 43:0 44:0 45:0 46:0 47:0 48:0 49:1 50:0 51:0 52:0 53:0 54:1 55:0 56:1.74092 57:-2.61625 58:-2.70177 59:0.15708 60:-0.380482 61:0.174533 62:-2.02633 63:-1.11842 64:-0.139057 65:0.178757 66:-0.59651 67:-1.88123 68:2.01782 
-1 1:-0.958129 2:-0 3:0 4:0.286337 5:-0.299417 6:0.161674 7:0.0865 8:-0.998119 9:-0 10:0 11:0.0613008 12:0.285209 13:0.347481 14:0.0865 15:-0.97116 16:0 17:-0 18:-0.238427 19:-0.157848 20:0.375089 21:0.0865 22:0 23:0 24:0 25:0 26:0 27:0 28:0 29:0 30:0 31:0 32:0 33:0 34:0 35:0 36:0 37:1 38:0 39:0 40:0 41:0 42:0 43:0 44:0 45:0 46:0 47:0 48:0 49:1 50:0 51:0 52:0 53:0 54:1 55:0 56:2.96706 57:-2.61625 58:-2.70177 59:0.15708 60:-0.380482 61:0.174533 62:-2.02633 63:-1.80384 64:0.449352 65:-0.601088 66:0.233735 67:-1.93913 68:1.71165 
1 1:-0.958129 2:-0 3:0 4:0.286337 5:-0.299417 6:0.161674 7:0.0865 8:-0.998119 9:-0 10:0 11:0.0613008 12:0.285209 13:0.347481 14:0.0865 15:-0.97116 16:0 17:-0 18:-0.238427 19:-0.157848 20:0.375089 21:0.0865 22:0 23:0 24:0 25:0 26:0 27:0 28:0 29:0 30:0 31:0 32:0 33:0 34:0 35:0 36:0 37:1 38:0 39:0 40:0 41:0 42:0 43:0 44:0 45:0 46:0 47:0 48:0 49:1 50:0 51:0 52:0 53:1 54:0 55:0 56:0 57:-2.61625 58:-2.70177 59:0.15708 60:-0.380482 61:0.174533 62:-2.02633 63:-2.61625 64:-2.70177 65:0.15708 66:-0.380482 67:0.174533 68:2.02633 
-1 1:-0.958129 2:-0 3:0 4:0.286337 5:-0.299417 6:0.161674 7:0.0865 8:-0.998119 9:-0 10:0 11:0.0613008 12:0.285209 13:0.347481 14:0.0865 15:-0.97116 16:0 17:-0 18:-0.238427 19:-0.157848 20:0.375089 21:0.0865 22:0 23:0 24:0 25:0 26:0 27:0 28:0 29:0 30:0 31:0 32:0 33:0 34:0 35:0 36:0 37:1 38:0 39:0 40:0 41:0 42:0 43:0 44:0 45:0 46:1 47:0 48:0 49:0 50:0 51:0 52:0 53:0 54:0 55:2 56:2.96706 57:-2.61625 58:-2.70177 59:0.15708 60:-0.380482 61:0.174533 62:-2.02633 63:-1.34068 64:-0.180707 65:-0.920166 66:-0.112174 67:1.82865 68:-1.43754 
-1 1:-0.958129 2:-0 3:0 4:0.286337 5:-0.299417 6:0.161674 7:0.0865 8:-0.998119 9:-0 10:0 11:0.0613008 12:0.285209 13:0.347481 14:0.0865 15:-0.97116 16:0 17:-0 18:-0.238427 19:-0.157848 20:0.375089 21:0.0865 22:0 23:0 24:0 25:0 26:0 27:0 28:0 29:0 30:0 31:0 32:0 33:0 34:0 35:0 36:0 37:1 38:0 39:0 40:0 41:0 42:0 43:0 44:0 45:0 46:1 47:0 48:0 49:1 50:3 51:0 52:0 53:0 54:2 55:0 56:2.96706 57:-2.61625 58:-2.70177 59:0.15708 60:-0.380482 61:0.174533 62:-2.02633 63:-1.34068 64:-0.180707 65:-0.920166 66:-0.112174 67:1.82865 68:-1.43754 
-0.591014350194714 1:-0.958129 2:-0 3:0 4:0.286337 5:-0.299417 6:0.161674 7:0.0865 8:-0.998119 9:-0 10:0 11:0.0613008 12:0.285209 13:0.347481 14:0.0865 15:-0.97116 16:0 17:-0 18:-0.238427 19:-0.157848 20:0.375089 21:0.0865 22:0 23:0 24:0 25:0 26:0 27:0 28:0 29:0 30:0 31:0 32:0 33:0 34:0 35:0 36:0 37:1 38:0 39:0 40:0 41:0 42:0 43:0 44:0 45:0 46:2 47:0 48:0 49:0 50:0 51:0 52:0 53:0 54:0 55:1 56:2.96706 57:-2.61625 58:-2.70177 59:0.15708 60:-0.380482 61:0.174533 62:-2.02633 63:-1.80384 64:0.449352 65:-0.601088 66:0.233735 67:-1.93913 68:1.71165 
1 1:-0.958129 2:-0 3:0 4:0.286337 5:-0.299417 6:0.161674 7:0.0865 8:-0.998119 9:-0 10:0 11:0.0613008 12:0.285209 13:0.347481 14:0.0865 15:-0.97116 16:0 17:-0 18:-0.238427 19:-0.157848 20:0.375089 21:0.0865 22:0 23:0 24:0 25:0 26:0 27:0 28:0 29:0 30:0 31:0 32:0 33:0 34:0 35:0 36:0 37:1 38:0 39:0 40:0 41:0 42:0 43:0 44:0 45:0 46:2 47:0 48:0 49:1 50:0 51:0 52:0 53:0 54:3 55:1 56:1.74092 57:-2.61625 58:-2.70177 59:0.15708 60:-0.380482 61:0.174533 62:-2.02633 63:-1.11842 64:-0.139057 65:0.178757 66:-0.59651 67:-1.88123 68:2.01782 
-0.7418498696634286 1:-0.958129 2:-0 3:0 4:0.286337 5:-0.299417 6:0.161674 7:0.0865 8:-0.998119 9:-0 10:0 11:0.0613008 12:0.285209 13:0.347481 14:0.0865 15:-0.97116 16:0 17:-0 18:-0.238427 19:-0.157848 20:0.375089 21:0.0865 22:0 23:0 24:0 25:0 26:0 27:0 28:0 29:0 30:0 31:0 32:0 33:0 34:0 35:0 36:0 37:1 38:0 39:0 40:0 41:0 42:0 43:0 44:0 45:0 46:2 47:0 48:0 49:1 50:0 51:0 52:0 53:1 54:0 55:3 56:0 57:-2.61625 58:-2.70177 59:0.15708 60:-0.380482 61:0.174533 62:-2.02633 63:-2.61625 64:-2.70177 65:0.15708 66:-0.380482 67:0.174533 68:2.02633 
-1 1:-0.958129 2:-0 3:0 4:0.286337 5:-0.299417 6:0.161674 7:0.0865 8:-0.998119 9:-0 10:0 11:0.0613008 12:0.285209 13:0.347481 14:0.0865 15:-0.97116 16:0 17:-0 18:-0.238427 19:-0.157848 20:0.375089 21:0.0865 22:0 23:0 24:0 25:0 26:0 27:0 28:0 29:0 30:0 31:0 32:0 33:0 34:0 35:0 36:0 37:1 38:0 39:0 40:0 41:0 42:0 43:0 44:0 45:0 46:2 47:0 48:0 49:1 50:4 51:0 52:0 53:1 54:3 55:0 56:0 57:-2.61625 58:-2.70177 59:0.15708 60:-0.380482 61:0.174533 62:-2.02633 63:-2.61625 64:-2.70177 65:0.15708 66:-0.380482 67:0.174533 68:2.02633 
1 1:-0.958129 2:-0 3:0 4:0.286337 5:-0.299417 6:0.161674 7:0.0865 8:-0.998119 9:-0 10:0 11:0.0613008 12:0.285209 13:0.347481 14:0.0865 15:-0.97116 16:0 17:-0 18:-0.238427 19:-0.157848 20:0.375089 21:0.0865 22:0 23:0 24:0 25:0 26:0 27:0 28:0 29:0 30:0 31:0 32:0 33:0 34:0 35:0 36:0 37:1 38:0 39:0 40:0 41:0 42:0 43:0 44:0 45:1 46:0 47:0 48:0 49:0 50:0 51:0 52:0 53:0 54:2 55:0 56:1.74092 57:-2.61625 58:-2.70177 59:0.15708 60:-0.380482 61:0.174533 62:-2.02633 63:-1.42797 64:-0.0587514 65:-0.578793 66:-0.750787 67:-1.87919 68:2.00896 
-1 1:-0.958129 2:-0 3:0 4:0.286337 5:-0.299417 6:0.161674 7:0.0865 8:-0.998119 9:-0 10:0 11:0.0613008 12:0.285209 13:0.347481 14:0.0865 15:-0.97116 16:0 17:-0 18:-0.238427 19:-0.157848 20:0.375089 21:0.0865 22:0 23:0 24:0 25:0 26:0 27:0 28:0 29:0 30:0 31:0 32:0 33:0 34:0 35:0 36:0 37:1 38:0 39:0 40:0 41:0 42:0 43:0 44:0 45:1 46:0 47:0 48:0 49:1 50:3 51:0 52:0 53:0 54:2 55:0 56:1.74092 57:-2.61625 58:-2.70177 59:0.15708 60:-0.380482 61:0.174533 62:-2.02633 63:-1.42797 64:-0.0587514 65:-0.578793 66:-0.750787 67:-1.87919 68:2.00896 
1 1:-0.958129 2:-0 3:0 4:0.286337 5:-0.299417 6:0.161674 7:0.0865 8:-0.998119 9:-0 10:0 11:0.0613008 12:0.285209 13:0.347481 14:0.0865 15:-0.97116 16:0 17:-0 18:-0.238427 19:-0.157848 20:0.375089 21:0.0865 22:0 23:0 24:0 25:0 26:0 27:0 28:0 29:0 30:0 31:0 32:0 33:0 34:0 35:0 36:0 37:1 38:0 39:0 40:0 41:0 42:0 43:0 44:0 45:2 46:0 47:0 48:0 49:0 50:0 51:0 52:0 53:0 54:0 55:1 56:2.58176 57:-2.61625 58:-2.70177 59:0.15708 60:-0.380482 61:0.174533 62:-2.02633 63:-1.05839 64:-0.430947 65:-0.884982 66:-0.403137 67:1.88164 68:-1.52623 
-1 1:-0.958129 2:-0 3:0 4:0.286337 5:-0.299417 6:0.161674 7:0.0865 8:-0.998119 9:-0 10:0 11:0.0613008 12:0.285209 13:0.347481 14:0.0865 15:-0.97116 16:0 17:-0 18:-0.238427 19:-0.157848 20:0.375089 21:0.0865 22:0 23:0 24:0 25:0 26:0 27:0 28:0 29:0 30:0 31:0 32:0 33:0 34:0 35:0 36:0 37:1 38:0 39:0 40:0 41:0 42:0 43:0 44:0 45:2 46:0 47:0 48:0 49:0 50:0 51:0 52:0 53:0 54:0 55:1 56:2.96706 57:-2.61625 58:-2.70177 59:0.15708 60:-0.380482 61:0.174533 62:-2.02633 63:-1.80384 64:0.449352 65:-0.601088 66:0.233735 67:-1.93913 68:1.71165 
-1 1:-0.958129 2:-0 3:0 4:0.286337 5:-0.299417 6:0.161674 7:0.0865 8:-0.998119 9:-0 10:0 11:0.0613008 12:0.285209 13:0.347481 14:0.0865 15:-0.97116 16:0 17:-0 18:-0.238427 19:-0.157848 20:0.375089 21:0.0865 22:0 23:0 24:0 25:0 26:0 27:0 28:0 29:0 30:0 31:0 32:0 33:0 34:0 35:0 36:0 37:1 38:0 39:0 40:0 41:0 42:0 43:0 44:0 45:2 46:0 47:0 48:0 49:0 50:0 51:0 52:0 53:1 54:0 55:0 56:0 57:-2.61625 58:-2.70177 59:0.15708 60:-0.380482 61:0.174533 62:-2.02633 63:-2.61625 64:-2.70177 65:0.15708 66:-0.380482 67:0.174533 68:2.02633 
1 1:-0.958129 2:-0 3:0 4:0.286337 5:-0.299417 6:0.161674 7:0.0865 8:-0.998119 9:-0 10:0 11:0.0613008 12:0.285209 13:0.347481 14:0.0865 15:-0.97116 16:0 17:-0 18:-0.238427 19:-0.157848 20:0.375089 21:0.0865 22:0 23:0 24:0 25:0 26:0 27:0 28:0 29:0 30:0 31:0 32:0 33:0 34:0 35:0 36:0 37:1 38:0 39:0 40:0 41:0 42:0 43:0 44:0 45:2 46:0 47:0 48:0 49:1 50:0 51:0 52:0 53:0 54:0 55:1 56:2.96706 57:-2.61625 58:-2.70177 59:0.15708 60:-0.380482 61:0.174533 62:-2.02633 63:-1.80384 64:0.449352 65:-0.601088 66:0.233735 67:-1.93913 68:1.71165 
1 1:-0.958129 2:-0 3:0 4:0.286337 5:-0.299417 6:0.161674 7:0.0865 8:-0.998119 9:-0 10:0 11:0.0613008 12:0.285209 13:0.347481 14:0.0865 15:-0.97116 16:0 17:-0 18:-0.238427 19:-0.157848 20:0.375089 21:0.0865 22:0 23:0 24:0 25:0 26:0 27:0 28:0 29:0 30:0 31:0 32:0 33:0 34:0 35:0 36:0 37:1 38:0 39:0 40:0 41:0 42:0 43:0 44:0 45:2 46:0 47:0 48:0 49:1 50:0 51:0 52:0 53:0 54:3 55:1 56:2.58176 57:-2.61625 58:-2.70177 59:0.15708 60:-0.380482 61:0.174533 62:-2.02633 63:-1.05839 64:-0.430947 65:-0.884982 66:-0.403137 67:1.88164 68:-1.52623 
-1 1:-0.958129 2:-0 3:0 4:0.286337 5:-0.299417 6:0.161674 7:0.0865 8:-0.998119 9:-0 10:0 11:0.0613008 12:0.285209 13:0.347481 14:0.0865 15:-0.97116 16:0 17:-0 18:-0.238427 19:-0.157848 20:0.375089 21:0.0865 22:0 23:0 24:0 25:0 26:0 27:0 28:0 29:0 30:0 31:0 32:0 33:0 34:0 35:0 36:0 37:1 38:0 39:0 40:0 41:0 42:0 43:0 44:0 45:2 46:0 47:0 48:0 49:1 50:0 51:0 52:0 53:0 54:3 55:1 56:2.96706 57:-2.61625 58:-2.70177 59:0.15708 60:-0.380482 61:0.174533 62:-2.02633 63:-1.80384 64:0.449352 65:-0.601088 66:0.233735 67:-1.93913 68:1.71165 
-1 1:-0.958129 2:-0 3:0 4:0.286337 5:-0.299417 6:0.161674 7:0.0865 8:-0.998119 9:-0 10:0 11:0.0613008 12:0.285209 13:0.347481 14:0.0865 15:-0.97116 16:0 17:-0 18:-0.238427 19:-0.157848 20:0.375089 21:0.0865 22:0 23:0 24:0 25:0 26:0 27:0 28:0 29:0 30:0 31:0 32:0 33:0 34:0 35:0 36:0 37:1 38:0 39:0 40:0 41:0 42:0 43:0 44:0 45:2 46:0 47:0 48:0 49:1 50:0 51:0 52:0 53:1 54:0 55:3 56:0 57:-2.61625 58:-2.70177 59:0.15708 60:-0.380482 61:0.174533 62:-2.02633 63:-2.61625 64:-2.70177 65:0.15708 66:-0.380482 67:0.174533 68:2.02633 
1 1:-0.958129 2:-0 3:0 4:0.286337 5:-0.299417 6:0.161674 7:0.0865 8:-0.998119 9:-0 10:0 11:0.0613008 12:0.285209 13:0.347481 14:0.0865 15:-0.97116 16:0 17:-0 18:-0.238427 19:-0.157848 20:0.375089 21:0.0865 22:0 23:0 24:0 25:0 26:0 27:0 28:0 29:0 30:0 31:0 32:0 33:0 34:0 35:0 36:0 37:1 38:0 39:0 40:0 41:0 42:0 43:0 44:0 45:2 46:0 47:0 48:0 49:1 50:0 51:0 52:0 53:1 54:3 55:0 56:0 57:-2.61625 58:-2.70177 59:0.15708 60:-0.380482 61:0.174533 62:-2.02633 63:-2.61625 64:-2.70177 65:0.15708 66:-0.380482 67:0.174533 68:2.02633 
-1 1:-0.958129 2:-0 3:0 4:0.286337 5:-0.299417 6:0.161674 7:0.0865 8:-0.998119 9:-0 10:0 11:0.0613008 12:0.285209 13:0.347481 14:0.0865 15:-0.97116 16:0 17:-0 18:-0.238427 19:-0.157848 20:0.375089 21:0.0865 22:0 23:0 24:0 25:0 26:0 27:0 28:0 29:0 30:0 31:0 32:0 33:0 34:0 35:0 36:0 37:1 38:0 39:0 40:0 41:0 42:0 43:0 44:0 45:2 46:0 47:0 48:0 49:1 50:4 51:0 52:0 53:1 54:3 55:0 56:0 57:-2.61625 58:-2.70177 59:0.15708 60:-0.380482 61:0.174533 62:-2.02633 63:-2.61625 64:-2.70177 65:0.15708 66:-0.380482 67:0.174533 68:2.02633 
-1 1:-0.958129 2:-0 3:0 4:0.286337 5:-0.299417 6:0.161674 7:0.0865 8:-0.998119 9:-0 10:0 11:0.0613008 12:0.285209 13:0.347481 14:0.0865 15:-0.97116 16:0 17:-0 18:-0.238427 19:-0.157848 20:0.375089 21:0.0865 22:0 23:0 24:0 25:0 26:0 27:0 28:0 29:0 30:0 31:0 32:0 33:0 34:0 35:0 36:0 37:1 38:0 39:0 40:0 41:0 42:0 43:0 44:0 45:2 46:4 47:0 48:0 49:0 50:0 51:0 52:0 53:1 54:0 55:3 56:0 57:-2.61625 58:-2.70177 59:0.15708 60:-0.380482 61:0.174533 62:-2.02633 63:-2.61625 64:-2.70177 65:0.15708 66:-0.380482 67:0.174533 68:2.02633 
1 1:-0.958129 2:-0 3:0 4:0.286337 5:-0.299417 6:0.161674 7:0.0865 8:-0.998119 9:-0 10:0 11:0.0613008 12:0.285209 13:0.347481 14:0.0865 15:-0.97116 16:0 17:-0 18:-0.238427 19:-0.157848 20:0.375089 21:0.0865 22:0 23:0 24:0 25:0 26:0 27:0 28:0 29:0 30:0 31:0 32:0 33:0 34:0 35:0 36:0 37:1 38:0 39:0 40:0 41:0 42:0 43:0 44:0 45:3 46:1 47:0 48:0 49:0 50:0 51:0 52:0 53:0 54:4 55:2 56:2.96706 57:-2.61625 58:-2.70177 59:0.15708 60:-0.380482 61:0.174533 62:-2.02633 63:-1.34068 64:-0.180707 65:-0.920166 66:-0.112174 67:1.82865 68:-1.43754 
1 1:-0.958129 2:-0 3:0 4:0.286337 5:-0.299417 6:0.161674 7:0.0865 8:-0.998119 9:-0 10:0 11:0.0613008 12:0.285209 13:0.347481 14:0.0865 15:-0.97116 16:0 17:-0 18:-0.238427 19:-0.157848 20:0.375089 21:0.0865 22:0 23:0 24:0 25:0 26:0 27:0 28:0 29:0 30:0 31:0 32:0 33:0 34:0 35:0 36:0 37:1 38:0 39:0 40:0 41:0 42:0 43:0 44:0 45:4 46:2 47:0 48:0 49:0 50:0 51:0 52:0 53:1 54:0 55:3 56:0 57:-2.61625 58:-2.70177 59:0.15708 60:-0.380482 61:0.174533 62:-2.02633 63:-2.61625 64:-2.70177 65:0.15708 66:-0.380482 67:0.174533 68:2.02633 
1 1:-0.958129 2:-0 3:0 4:0.286337 5:-0.299417 6:0.161674 7:0.0865 8:-0.998119 9:-0 10:0 11:0.0613008 12:0.285209 13:0.347481 14:0.0865 15:-0.97116 16:0 17:-0 18:-0.238427 19:-0.157848 20:0.375089 21:0.0865 22:0 23:0 24:0 25:0 26:0 27:0 28:0 29:0 30:0 31:0 32:0 33:0 34:0 35:0 36:0 37:1 38:0 39:0 40:0 41:0 42:0 43:0 44:0 45:4 46:2 47:0 48:0 49:1 50:0 51:0 52:0 53:1 54:5 55:3 56:0 57:-2.61625 58:-2.70177 59:0.15708 60:-0.380482 61:0.174533 62:-2.02633 63:-2.61625 64:-2.70177 65:0.15708 66:-0.380482 67:0.174533 68:2.02633 
1 1:-0.958129 2:-0 3:0 4:0.286337 5:-0.299417 6:0.161674 7:0.0865 8:-0.998119 9:-0 10:0 11:0.0613008 12:0.285209 13:0.347481 14:0.0865 15:-0.97116 16:0 17:-0 18:-0.238427 19:-0.157848 20:0.375089 21:0.0865 22:0 23:0 24:0 25:0 26:0 27:0 28:0 29:0 30:0 31:0 32:0 33:0 34:0 35:0 36:0 37:1 38:0 39:0 40:0 41:0 42:0 43:0 44:1 45:0 46:0 47:0 48:0 49:0 50:0 51:0 52:0 53:0 54:2 55:0 56:2.96706 57:-2.61625 58:-2.70177 59:0.15708 60:-0.380482 61:0.174533 62:-2.02633 63:-0.943782 64:-0.376512 65:-0.231845 66:0.419886 67:1.90214 68:-1.16449 
1 1:-0.958129 2:-0 3:0 4:0.286337 5:-0.299417 6:0.161674 7:0.0865 8:-0.998119 9:-0 10:0 11:0.0613008 12:0.285209 13:0.347481 14:0.0865 15:-0.97116 16:0 17:-0 18:-0.238427 19:-0.157848 20:0.375089 21:0.0865 22:0 23:0 24:0 25:0 26:0 27:0 28:0 29:0 30:0 31:0 32:0 33:0 34:0 35:0 36:0 37:1 38:0 39:0 40:0 41:0 42:0 43:0 44:1 45:0 46:0 47:0 48:0 49:1 50:3 51:0 52:0 53:0 54:2 55:0 56:2.96706 57:-2.61625 58:-2.70177 59:0.15708 60:-0.380482 61:0.174533 62:-2.02633 63:-0.943782 64:-0.376512 65:-0.231845 66:0.419886 67:1.90214 68:-1.16449 
1 1:-0.958129 2:-0 3:0 4:0.286337 5:-0.299417 6:0.161674 7:0.0865 8:-0.998119 9:-0 10:0 11:0.0613008 12:0.285209 13:0.347481 14:0.0865 15:-0.97116 16:0 17:-0 18:-0.238427 19:-0.157848 20:0.375089 21:0.0865 22:0 23:0 24:0 25:0 26:0 27:0 28:0 29:0 30:0 31:0 32:0 33:0 34:0 35:0 36:0 37:1 38:0 39:0 40:0 41:0 42:0 43:0 44:1 45:3 46:0 47:0 48:0 49:0 50:0 51:0 52:0 53:0 54:0 55:2 56:2.96706 57:-2.61625 58:-2.70177 59:0.15708 60:-0.380482 61:0.174533 62:-2.02633 63:-0.943782 64:-0.376512 65:-0.231845 66:0.419886 67:1.90214 68:-1.16449 
-0.8327468049935737 1:-0.958129 2:-0 3:0 4:0.286337 5:-0.299417 6:0.161674 7:0.0865 8:-0.998119 9:-0 10:0 11:0.0613008 12:0.285209 13:0.347481 14:0.0865 15:-0.97116 16:0 17:-0 18:-0.238427 19:-0.157848 20:0.375089 21:0.0865 22:0 23:0 24:0 25:0 26:0 27:0 28:0 29:0 30:0 31:0 32:0 33:0 34:0 35:0 36:0 37:1 38:0 39:0 40:0 41:0 42:0 43:0 44:1 45:3 46:0 47:0 48:0 49:0 50:0 51:0 52:0 53:0 54:4 55:2 56:2.96706 57:-2.61625 58:-2.70177 59:0.15708 60:-0.380482 61:0.174533 62:-2.02633 63:-0.943782 64:-0.376512 65:-0.231845 66:0.419886 67:1.90214 68:-1.16449 
1 1:-0.958129 2:-0 3:0 4:0.286337 5:-0.299417 6:0.161674 7:0.0865 8:-0.998119 9:-0 10:0 11:0.0613008 12:0.285209 13:0.347481 14:0.0865 15:-0.97116 16:0 17:-0 18:-0.238427 19:-0.157848 20:0.375089 21:0.0865 22:0 23:0 24:0 25:0 26:0 27:0 28:0 29:0 30:0 31:0 32:0 33:0 34:0 35:0 36:0 37:1 38:0 39:0 40:0 41:0 42:0 43:0 44:1 45:3 46:5 47:0 48:0 49:0 50:0 51:0 52:0 53:0 54:6 55:2 56:2.96706 57:-2.61625 58:-2.70177 59:0.15708 60:-0.380482 61:0.174533 62:-2.02633 63:-0.943782 64:-0.376512 65:-0.231845 66:0.419886 67:1.90214 68:-1.16449 
0.3983961211230122 1:-0.958129 2:-0 3:0 4:0.286337 5:-0.299417 6:0.161674 7:0.0865 8:-0.998119 9:-0 10:0 11:0.0613008 12:0.285209 13:0.347481 14:0.0865 15:-0.97116 16:0 17:-0 18:-0.238427 19:-0.157848 20:0.375089 21:0.0865 22:0 23:0 24:0 25:0 26:0 27:0 28:0 29:0 30:0 31:0 32:0 33:0 34:0 35:0 36:0 37:1 38:0 39:0 40:0 41:0 42:0 43:0 44:2 45:0 46:0 47:0 48:0 49:0 50:0 51:0 52:0 53:0 54:0 55:1 56:1.74092 57:-2.61625 58:-2.70177 59:0.15708 60:-0.380482 61:0.174533 62:-2.02633 63:-1.11842 64:-0.139057 65:0.178757 66:-0.59651 67:-1.88123 68:2.01782 
1 1:-0.958129 2:-0 3:0 4:0.286337 5:-0.299417 6:0.161674 7:0.0865 8:-0.998119 9:-0 10:0 11:0.0613008 12:0.285209 13:0.347481 14:0.0865 15:-0.97116 16:0 17:-0 18:-0.238427 19:-0.157848 20:0.375089 21:0.0865 22:0 23:0 24:0 25:0 26:0 27:0 28:0 29:0 30:0 31:0 32:0 33:0 34:0 35:0 36:0 37:1 38:0 39:0 40:0 41:0 42:0 43:0 44:2 45:0 46:0 47:0 48:0 49:0 50:0 51:0 52:0 53:1 54:0 55:0 56:0 57:-2.61625 58:-2.70177 59:0.15708 60:-0.380482 61:0.174533 62:-2.02633 63:-2.61625 64:-2.70177 65:0.15708 66:-0.380482 67:0.174533 68:2.02633 
1 1:-0.958129 2:-0 3:0 4:0.286337 5:-0.299417 6:0.161674 7:0.0865 8:-0.998119 9:-0 10:0 11:0.0613008 12:0.285209 13:0.347481 14:0.0865 15:-0.97116 16:0 17:-0 18:-0.238427 19:-0.157848 20:0.375089 21:0.0865 22:0 23:0 24:0 25:0 26:0 27:0 28:0 29:0 30:0 31:0 32:0 33:0 34:0 35:0 36:0 37:1 38:0 39:0 40:0 41:0 42:0 43:0 44:2 45:0 46:0 47:0 48:0 49:1 50:0 51:0 52:0 53:0 54:0 55:1 56:1.74092 57:-2.61625 58:-2.70177 59:0.15708 60:-0.380482 61:0.174533 62:-2.02633 63:-1.11842 64:-0.139057 65:0.178757 66:-0.59651 67:-1.88123 68:2.01782 
1 1:-0.958129 2:-0 3:0 4:0.286337 5:-0.299417 6:0.161674 7:0.0865 8:-0.998119 9:-0 10:0 11:0.0613008 12:0.285209 13:0.347481 14:0.0865 15:-0.97116 16:0 17:-0 18:-0.238427 19:-0.157848 20:0.375089 21:0.0865 22:0 23:0 24:0 25:0 26:0 27:0 28:0 29:0 30:0 31:0 32:0 33:0 34:0 35:0 36:0 37:1 38:0 39:0 40:0 41:0 42:0 43:0 44:2 45:0 46:0 47:0 48:0 49:1 50:0 51:0 52:0 53:0 54:3 55:1 56:1.74092 57:-2.61625 58:-2.70177 59:0.15708 60:-0.380482 61:0.174533 62:-2.02633 63:-1.11842 64:-0.139057 65:0.178757 66:-0.59651 67:-1.88123 68:2.01782 
1 1:-0.958129 2:-0 3:0 4:0.286337 5:-0.299417 6:0.161674 7:0.0865 8:-0.998119 9:-0 10:0 11:0.0613008 12:0.285209 13:0.347481 14:0.0865 15:-0.97116 16:0 17:-0 18:-0.238427 19:-0.157848 20:0.375089 21:0.0865 22:0 23:0 24:0 25:0 26:0 27:0 28:0 29:0 30:0 31:0 32:0 33:0 34:0 35:0 36:0 37:1 38:0 39:0 40:0 41:0 42:0 43:0 44:2 45:0 46:0 47:0 48:0 49:1 50:0 51:0 52:0 53:1 54:0 55:3 56:0 57:-2.61625 58:-2.70177 59:0.15708 60:-0.380482 61:0.174533 62:-2.02633 63:-2.61625 64:-2.70177 65:0.15708 66:-0.380482 67:0.174533 68:2.02633 
1 1:-0.958129 2:-0 3:0 4:0.286337 5:-0.299417 6:0.161674 7:0.0865 8:-0.998119 9:-0 10:0 11:0.0613008 12:0.285209 13:0.347481 14:0.0865 15:-0.97116 16:0 17:-0 18:-0.238427 19:-0.157848 20:0.375089 21:0.0865 22:0 23:0 24:0 25:0 26:0 27:0 28:0 29:0 30:0 31:0 32:0 33:0 34:0 35:0 36:0 37:1 38:0 39:0 40:0 41:0 42:0 43:0 44:2 45:0 46:0 47:0 48:0 49:1 50:0 51:0 52:0 53:1 54:3 55:0 56:0 57:-2.61625 58:-2.70177 59:0.15708 60:-0.380482 61:0.174533 62:-2.02633 63:-2.61625 64:-2.70177 65:0.15708 66:-0.380482 67:0.174533 68:2.02633 
1 1:-0.958129 2:-0 3:0 4:0.286337 5:-0.299417 6:0.161674 7:0.0865 8:-0.998119 9:-0 10:0 11:0.0613008 12:0.285209 13:0.347481 14:0.0865 15:-0.97116 16:0 17:-0 18:-0.238427 19:-0.157848 20:0.375089 21:0.0865 22:0 23:0 24:0 25:0 26:0 27:0 28:0 29:0 30:0 31:0 32:0 33:0 34:0 35:0 36:0 37:1 38:0 39:0 40:0 41:0 42:0 43:0 44:2 45:0 46:0 47:0 48:0 49:1 50:4 51:0 52:0 53:1 54:3 55:0 56:0 57:-2.61625 58:-2.70177 59:0.15708 60:-0.380482 61:0.174533 62:-2.02633 63:-2.61625 64:-2.70177 65:0.15708 66:-0.380482 67:0.174533 68:2.02633 
0.1969703511183812 1:-0.958129 2:-0 3:0 4:0.286337 5:-0.299417 6:0.161674 7:0.0865 8:-0.998119 9:-0 10:0 11:0.0613008 12:0.285209 13:0.347481 14:0.0865 15:-0.97116 16:0 17:-0 18:-0.238427 19:-0.157848 20:0.375089 21:0.0865 22:0 23:0 24:0 25:0 26:0 27:0 28:0 29:0 30:0 31:0 32:0 33:0 34:0 35:0 36:0 37:1 38:0 39:0 40:0 41:0 42:0 43:0 44:2 45:0 46:4 47:0 48:0 49:0 50:0 51:0 52:0 53:0 54:0 55:1 56:1.74092 57:-2.61625 58:-2.70177 59:0.15708 60:-0.380482 61:0.174533 62:-2.02633 63:-1.11842 64:-0.139057 65:0.178757 66:-0.59651 67:-1.88123 68:2.01782 
-1 1:-0.958129 2:-0 3:0 4:0.286337 5:-0.299417 6:0.161674 7:0.0865 8:-0.998119 9:-0 10:0 11:0.0613008 12:0.285209 13:0.347481 14:0.0865 15:-0.97116 16:0 17:-0 18:-0.238427 19:-0.157848 20:0.375089 21:0.0865 22:0 23:0 24:0 25:0 26:0 27:0 28:0 29:0 30:0 31:0 32:0 33:0 34:0 35:0 36:0 37:1 38:0 39:0 40:0 41:0 42:0 43:0 44:2 45:0 46:4 47:0 48:0 49:1 50:0 51:0 52:0 53:0 54:5 55:1 56:1.74092 57:-2.61625 58:-2.70177 59:0.15708 60:-0.380482 61:0.174533 62:-2.02633 63:-1.11842 64:-0.139057 65:0.178757 66:-0.59651 67:-1.88123 68:2.01782 
-0.9563988603858982 1:-0.958129 2:-0 3:0 4:0.286337 5:-0.299417 6:0.161674 7:0.0865 8:-0.998119 9:-0 10:0 11:0.0613008 12:0.285209 13:0.347481 14:0.0865 15:-0.97116 16:0 17:-0 18:-0.238427 19:-0.157848 20:0.375089 21:0.0865 22:0 23:0 24:0 25:0 26:0 27:0 28:0 29:0 30:0 31:0 32:0 33:0 34:0 35:0 36:0 37:1 38:0 39:0 40:0 41:0 42:0 43:0 44:2 45:4 46:0 47:0 48:0 49:0 50:0 51:0 52:0 53:1 54:0 55:3 56:0 57:-2.61625 58:-2.70177 59:0.15708 60:-0.380482 61:0.174533 62:-2.02633 63:-2.61625 64:-2.70177 65:0.15708 66:-0.380482 67:0.174533 68:2.02633 
1 1:-0.958129 2:-0 3:0 4:0.286337 5:-0.299417 6:0.161674 7:0.0865 8:-0.998119 9:-0 10:0 11:0.0613008 12:0.285209 13:0.347481 14:0.0865 15:-0.97116 16:0 17:-0 18:-0.238427 19:-0.157848 20:0.375089 21:0.0865 22:0 23:0 24:0 25:0 26:0 27:0 28:0 29:0 30:0 31:0 32:0 33:0 34:0 35:0 36:0 37:1 38:0 39:0 40:0 41:0 42:0 43:0 44:2 45:4 46:0 47:0 48:0 49:1 50:0 51:0 52:0 53:1 54:0 55:3 56:0 57:-2.61625 58:-2.70177 59:0.15708 60:-0.380482 61:0.174533 62:-2.02633 63:-2.61625 64:-2.70177 65:0.15708 66:-0.380482 67:0.174533 68:2.02633 
0.04030948889555899 1:-0.958129 2:-0 3:0 4:0.286337 5:-0.299417 6:0.161674 7:0.0865 8:-0.998119 9:-0 10:0 11:0.0613008 12:0.285209 13:0.347481 14:0.0865 15:-0.97116 16:0 17:-0 18:-0.238427 19:-0.157848 20:0.375089 21:0.0865 22:0 23:0 24:0 25:0 26:0 27:0 28:0 29:0 30:0 31:0 32:0 33:0 34:0 35:0 36:0 37:1 38:0 39:0 40:0 41:0 42:0 43:0 44:2 45:4 46:6 47:0 48:0 49:0 50:0 51:0 52:0 53:1 54:0 55:3 56:0 57:-2.61625 58:-2.70177 59:0.15708 60:-0.380482 61:0.174533 62:-2.02633 63:-2.61625 64:-2.70177 65:0.15708 66:-0.380482 67:0.174533 68:2.02633 
1 1:-0.958129 2:-0 3:0 4:0.286337 5:-0.299417 6:0.161674 7:0.0865 8:-0.998119 9:-0 10:0 11:0.0613008 12:0.285209 13:0.347481 14:0.0865 15:-0.97116 16:0 17:-0 18:-0.238427 19:-0.157848 20:0.375089 21:0.0865 22:0 23:0 24:0 25:0 26:0 27:0 28:0 29:0 30:0 31:0 32:0 33:0 34:0 35:0 36:0 37:1 38:0 39:0 40:0 41:0 42:0 43:0 44:2 45:4 46:6 47:0 48:0 49:1 50:0 51:0 52:0 53:1 54:7 55:3 56:0 57:-2.61625 58:-2.70177 59:0.15708 60:-0.380482 61:0.174533 62:-2.02633 63:-2.61625 64:-2.70177 65:0.15708 66:-0.380482 67:0.174533 68:2.02633 
-1 1:-0.958129 2:-0 3:0 4:0.286337 5:-0.299417 6:0.161674 7:0.0865 8:-0.998119 9:-0 10:0 11:0.0613008 12:0.285209 13:0.347481 14:0.0865 15:-0.97116 16:0 17:-0 18:-0.238427 19:-0.157848 20:0.375089 21:0.0865 22:0 23:0 24:0 25:0 26:0 27:0 28:0 29:0 30:0 31:0 32:0 33:0 34:0 35:0 36:0 37:1 38:0 39:0 40:0 41:0 42:0 43:0 44:3 45:0 46:1 47:0 48:0 49:0 50:0 51:0 52:0 53:0 54:4 55:2 56:2.96706 57:-2.61625 58:-2.70177 59:0.15708 60:-0.380482 61:0.174533 62:-2.02633 63:-1.34068 64:-0.180707 65:-0.920166 66:-0.112174 67:1.82865 68:-1.43754 
1 1:-0.958129 2:-0 3:0 4:0.286337 5:-0.299417 6:0.161674 7:0.0865 8:-0.998119 9:-0 10:0 11:0.0613008 12:0.285209 13:0.347481 14:0.0865 15:-0.97116 16:0 17:-0 18:-0.238427 19:-0.157848 20:0.375089 21:0.0865 22:0 23:0 24:0 25:0 26:0 27:0 28:0 29:0 30:0 31:0 32:0 33:0 34:0 35:0 36:0 37:1 38:0 39:0 40:0 41:0 42:0 43:0 44:3 45:1 46:0 47:0 48:0 49:0 50:0 51:0 52:0 53:0 54:0 55:2 56:1.74092 57:-2.61625 58:-2.70177 59:0.15708 60:-0.380482 61:0.174533 62:-2.02633 63:-1.42797 64:-0.0587514 65:-0.578793 66:-0.750787 67:-1.87919 68:2.00896 
-0.7468718051190988 1:-0.958129 2:-0 3:0 4:0.286337 5:-0.299417 6:0.161674 7:0.0865 8:-0.998119 9:-0 10:0 11:0.0613008 12:0.285209 13:0.347481 14:0.0865 15:-0.97116 16:0 17:-0 18:-0.238427 19:-0.157848 20:0.375089 21:0.0865 22:0 23:0 24:0 25:0 26:0 27:0 28:0 29:0 30:0 31:0 32:0 33:0 34:0 35:0 36:0 37:1 38:0 39:0 40:0 41:0 42:0 43:0 44:3 45:1 46:5 47:0 48:0 49:0 50:0 51:0 52:0 53:0 54:6 55:2 56:1.74092 57:-2.61625 58:-2.70177 59:0.15708 60:-0.380482 61:0.174533 62:-2.02633 63:-1.42797 64:-0.0587514 65:-0.578793 66:-0.750787 67:-1.87919 68:2.00896 
-1 1:-0.958129 2:-0 3:0 4:0.286337 5:-0.299417 6:0.161674 7:0.0865 8:-0.998119 9:-0 10:0 11:0.0613008 12:0.285209 13:0.347481 14:0.0865 15:-0.97116 16:0 17:-0 18:-0.238427 19:-0.157848 20:0.375089 21:0.0865 22:0 23:0 24:0 25:0 26:0 27:0 28:0 29:0 30:0 31:0 32:0 33:0 34:0 35:0 36:0 37:1 38:0 39:0 40:0 41:0 42:0 43:0 44:4 45:0 46:2 47:0 48:0 49:0 50:0 51:0 52:0 53:1 54:0 55:3 56:0 57:-2.61625 58:-2.70177 59:0.15708 60:-0.380482 61:0.174533 62:-2.02633 63:-2.61625 64:-2.70177 65:0.15708 66:-0.380482 67:0.174533 68:2.02633 
-1 1:-0.958129 2:-0 3:0 4:0.286337 5:-0.299417 6:0.161674 7:0.0865 8:-0.998119 9:-0 10:0 11:0.0613008 12:0.285209 13:0.347481 14:0.0865 15:-0.97116 16:0 17:-0 18:-0.238427 19:-0.157848 20:0.375089 21:0.0865 22:0 23:0 24:0 25:0 26:0 27:0 28:0 29:0 30:0 31:0 32:0 33:0 34:0 35:0 36:0 37:1 38:0 39:0 40:0 41:0 42:0 43:0 44:4 45:0 46:2 47:0 48:0 49:1 50:0 51:0 52:0 53:1 54:5 55:3 56:0 57:-2.61625 58:-2.70177 59:0.15708 60:-0.380482 61:0.174533 62:-2.02633 63:-2.61625 64:-2.70177 65:0.15708 66:-0.380482 67:0.174533 68:2.02633 
-0.7502252393209652 1:-0.958129 2:-0 3:0 4:0.286337 5:-0.299417 6:0.161674 7:0.0865 8:-0.998119 9:-0 10:0 11:0.0613008 12:0.285209 13:0.347481 14:0.0865 15:-0.97116 16:0 17:-0 18:-0.238427 19:-0.157848 20:0.375089 21:0.0865 22:0 23:0 24:0 25:0 26:0 27:0 28:0 29:0 30:0 31:0 32:0 33:0 34:0 35:0 36:0 37:1 38:0 39:0 40:0 41:0 42:0 43:0 44:4 45:2 46:0 47:0 48:0 49:0 50:0 51:0 52:0 53:1 54:0 55:3 56:0 57:-2.61625 58:-2.70177 59:0.15708 60:-0.380482 61:0.174533 62:-2.02633 63:-2.61625 64:-2.70177 65:0.15708 66:-0.380482 67:0.174533 68:2.02633 
1 1:-0.958129 2:-0 3:0 4:0.286337 5:-0.299417 6:0.161674 7:0.0865 8:-0.998119 9:-0 10:0 11:0.0613008 12:0.285209 13:0.347481 14:0.0865 15:-0.97116 16:0 17:-0 18:-0.238427 19:-0.157848 20:0.375089 21:0.0865 22:0 23:0 24:0 25:0 26:0 27:0 28:0 29:0 30:0 31:0 32:0 33:0 34:0 35:0 36:0 37:1 38:0 39:0 40:0 41:0 42:0 43:0 44:4 45:2 46:0 47:0 48:0 49:1 50:0 51:0 52:0 53:1 54:0 55:3 56:0 57:-2.61625 58:-2.70177 59:0.15708 60:-0.380482 61:0.174533 62:-2.02633 63:-2.61625 64:-2.70177 65:0.15708 66:-0.380482 67:0.174533 68:2.02633 
-0.427291205423196 1:-0.958129 2:-0 3:0 4:0.286337 5:-0.299417 6:0.161674 7:0.0865 8:-0.998119 9:-0 10:0 11:0.0613008 12:0.285209 13:0.347481 14:0.0865 15:-0.97116 16:0 17:-0 18:-0.238427 19:-0.157848 20:0.375089 21:0.0865 22:0 23:0 24:0 25:0 26:0 27:0 28:0 29:0 30:0 31:0 32:0 33:0 34:0 35:0 36:0 37:1 38:0 39:0 40:0 41:0 42:0 43:0 44:4 45:2 46:6 47:0 48:0 49:1 50:0 51:0 52:0 53:1 54:7 55:3 56:0 57:-2.61625 58:-2.70177 59:0.15708 60:-0.380482 61:0.174533 62:-2.02633 63:-2.61625 64:-2.70177 65:0.15708 66:-0.380482 67:0.174533 68:2.02633 
1 1:-0.958129 2:-0 3:0 4:0.286337 5:-0.299417 6:0.161674 7:0.0865 8:-0.998119 9:-0 10:0 11:0.0613008 12:0.285209 13:0.347481 14:0.0865 15:-0.97116 16:0 17:-0 18:-0.238427 19:-0.157848 20:0.375089 21:0.0865 22:0 23:0 24:0 25:0 26:0 27:0 28:0 29:0 30:0 31:0 32:0 33:0 34:0 35:0 36:0 37:1 38:0 39:0 40:0 41:3 42:0 43:0 44:6 45:0 46:0 47:0 48:0 49:1 50:2 51:4 52:0 53:5 54:1 55:0 56:1.74092 57:-2.61625 58:-2.70177 59:0.15708 60:-0.380482 61:0.174533 62:-2.02633 63:-1.11842 64:-0.139057 65:0.178757 66:-0.59651 67:-1.88123 68:2.01782 
1 1:-0.958129 2:-0 3:0 4:0.286337 5:-0.299417 6:0.161674 7:0.0865 8:-0.998119 9:-0 10:0 11:0.0613008 12:0.285209 13:0.347481 14:0.0865 15:-0.97116 16:0 17:-0 18:-0.238427 19:-0.157848 20:0.375089 21:0.0865 22:0 23:0 24:0 25:0 26:0 27:0 28:0 29:0 30:0 31:0 32:0 33:0 34:0 35:0 36:0 37:1 38:0 39:0 40:0 41:4 42:0 43:0 44:1 45:7 46:0 47:0 48:0 49:1 50:3 51:5 52:0 53:6 54:2 55:0 56:2.96706 57:-2.61625 58:-2.70177 59:0.15708 60:-0.380482 61:0.174533 62:-2.02633 63:-0.943782 64:-0.376512 65:-0.231845 66:0.419886 67:1.90214 68:-1.16449 
-1 1:-0.958129 2:-0 3:0 4:0.286337 5:-0.299417 6:0.161674 7:0.0865 8:-0.998119 9:-0 10:0 11:0.0613008 12:0.285209 13:0.347481 14:0.0865 15:-0.97116 16:0 17:-0 18:-0.238427 19:-0.157848 20:0.375089 21:0.0865 22:0 23:0 24:0 25:0 26:0 27:0 28:0 29:0 30:0 31:0 32:0 33:0 34:0 35:0 36:0 37:1 38:0 39:0 40:0 41:4 42:0 43:0 44:7 45:1 46:0 47:0 48:0 49:1 50:3 51:5 52:0 53:6 54:2 55:0 56:1.74092 57:-2.61625 58:-2.70177 59:0.15708 60:-0.380482 61:0.174533 62:-2.02633 63:-1.42797 64:-0.0587514 65:-0.578793 66:-0.750787 67:-1.87919 68:2.00896 
-1 1:-0.958129 2:-0 3:0 4:0.286337 5:-0.299417 6:0.161674 7:0.0865 8:-0.998119 9:-0 10:0 11:0.0613008 12:0.285209 13:0.347481 14:0.0865 15:-0.97116 16:0 17:-0 18:-0.238427 19:-0.157848 20:0.375089 21:0.0865 22:0 23:0 24:0 25:0 26:0 27:0 28:0 29:0 30:0 31:0 32:0 33:0 34:0 35:0 36:0 37:1 38:0 39:0 40:0 41:5 42:0 43:0 44:0 45:2 46:0 47:0 48:0 49:1 50:4 51:0 52:0 53:1 54:3 55:0 56:0 57:-2.61625 58:-2.70177 59:0.15708 60:-0.380482 61:0.174533 62:-2.02633 63:-2.61625 64:-2.70177 65:0.15708 66:-0.380482 67:0.174533 68:2.02633 
-1 1:-0.958129 2:-0 3:0 4:0.286337 5:-0.299417 6:0.161674 7:0.0865 8:-0.998119 9:-0 10:0 11:0.0613008 12:0.285209 13:0.347481 14:0.0865 15:-0.97116 16:0 17:-0 18:-0.238427 19:-0.157848 20:0.375089 21:0.0865 22:0 23:0 24:0 25:0 26:0 27:0 28:0 29:0 30:0 31:0 32:0 33:0 34:0 35:0 36:0 37:1 38:0 39:0 40:0 41:5 42:0 43:0 44:0 45:2 46:0 47:0 48:0 49:1 50:4 51:6 52:0 53:1 54:3 55:0 56:0 57:-2.61625 58:-2.70177 59:0.15708 60:-0.380482 61:0.174533 62:-2.02633 63:-2.61625 64:-2.70177 65:0.15708 66:-0.380482 67:0.174533 68:2.02633 
1 1:-0.958129 2:-0 3:0 4:0.286337 5:-0.299417 6:0.161674 7:0.0865 8:-0.998119 9:-0 10:0 11:0.0613008 12:0.285209 13:0.347481 14:0.0865 15:-0.97116 16:0 17:-0 18:-0.238427 19:-0.157848 20:0.375089 21:0.0865 22:0 23:0 24:0 25:0 26:0 27:0 28:0 29:0 30:0 31:0 32:0 33:0 34:0 35:0 36:0 37:1 38:0 39:0 40:0 41:5 42:0 43:0 44:2 45:0 46:0 47:0 48:0 49:1 50:4 51:0 52:0 53:1 54:3 55:0 56:0 57:-2.61625 58:-2.70177 59:0.15708 60:-0.380482 61:0.174533 62:-2.02633 63:-2.61625 64:-2.70177 65:0.15708 66:-0.380482 67:0.174533 68:2.02633 
1 1:-0.958129 2:-0 3:0 4:0.286337 5:-0.299417 6:0.161674 7:0.0865 8:-0.998119 9:-0 10:0 11:0.0613008 12:0.285209 13:0.347481 14:0.0865 15:-0.97116 16:0 17:-0 18:-0.238427 19:-0.157848 20:0.375089 21:0.0865 22:0 23:0 24:0 25:0 26:0 27:0 28:0 29:0 30:0 31:0 32:0 33:0 34:0 35:0 36:0 37:1 38:0 39:0 40:0 41:5 42:0 43:0 44:2 45:0 46:0 47:0 48:0 49:1 50:4 51:6 52:0 53:1 54:3 55:0 56:0 57:-2.61625 58:-2.70177 59:0.15708 60:-0.380482 61:0.174533 62:-2.02633 63:-2.61625 64:-2.70177 65:0.15708 66:-0.380482 67:0.174533 68:2.02633 
1 1:-0.958129 2:-0 3:0 4:0.286337 5:-0.299417 6:0.161674 7:0.0865 8:-0.998119 9:-0 10:0 11:0.0613008 12:0.285209 13:0.347481 14:0.0865 15:-0.97116 16:0 17:-0 18:-0.238427 19:-0.157848 20:0.375089 21:0.0865 22:0 23:0 24:0 25:0 26:0 27:0 28:0 29:0 30:0 31:0 32:0 33:0 34:0 35:0 36:0 37:1 38:0 39:0 40:0 41:5 42:0 43:0 44:2 45:8 46:0 47:0 48:0 49:1 50:4 51:6 52:0 53:1 54:3 55:0 56:0 57:-2.61625 58:-2.70177 59:0.15708 60:-0.380482 61:0.174533 62:-2.02633 63:-2.61625 64:-2.70177 65:0.15708 66:-0.380482 67:0.174533 68:2.02633 
-1 1:-0.958129 2:-0 3:0 4:0.286337 5:-0.299417 6:0.161674 7:0.0865 8:-0.998119 9:-0 10:0 11:0.0613008 12:0.285209 13:0.347481 14:0.0865 15:-0.97116 16:0 17:-0 18:-0.238427 19:-0.157848 20:0.375089 21:0.0865 22:0 23:0 24:0 25:0 26:0 27:0 28:0 29:0 30:0 31:0 32:0 33:0 34:0 35:0 36:0 37:1 38:0 39:0 40:0 41:5 42:0 43:0 44:8 45:2 46:0 47:0 48:0 49:1 50:4 51:6 52:0 53:1 54:3 55:0 56:0 57:-2.61625 58:-2.70177 59:0.15708 60:-0.380482 61:0.174533 62:-2.02633 63:-2.61625 64:-2.70177 65:0.15708 66:-0.380482 67:0.174533 68:2.02633 
1 1:-0.958129 2:-0 3:0 4:0.286337 5:-0.299417 6:0.161674 7:0.0865 8:-0.998119 9:-0 10:0 11:0.0613008 12:0.285209 13:0.347481 14:0.0865 15:-0.97116 16:0 17:-0 18:-0.238427 19:-0.157848 20:0.375089 21:0.0865 22:0 23:0 24:0 25:0 26:0 27:0 28:0 29:0 30:0 31:0 32:0 33:0 34:0 35:0 36:0 37:1 38:0 39:0 40:5 41:0 42:0 43:0 44:0 45:0 46:2 47:0 48:0 49:1 50:4 51:0 52:0 53:1 54:3 55:0 56:0 57:-2.61625 58:-2.70177 59:0.15708 60:-0.380482 61:0.174533 62:-2.02633 63:-2.61625 64:-2.70177 65:0.15708 66:-0.380482 67:0.174533 68:2.02633 
1 1:-0.958129 2:-0 3:0 4:0.286337 5:-0.299417 6:0.161674 7:0.0865 8:-0.998119 9:-0 10:0 11:0.0613008 12:0.285209 13:0.347481 14:0.0865 15:-0.97116 16:0 17:-0 18:-0.238427 19:-0.157848 20:0.375089 21:0.0865 22:0 23:0 24:0 25:0 26:0 27:0 28:0 29:0 30:0 31:0 32:0 33:0 34:0 35:0 36:0 37:1 38:0 39:0 40:5 41:0 42:0 43:0 44:0 45:0 46:2 47:0 48:0 49:1 50:4 51:6 52:0 53:1 54:3 55:0 56:0 57:-2.61625 58:-2.70177 59:0.15708 60:-0.380482 61:0.174533 62:-2.02633 63:-2.61625 64:-2.70177 65:0.15708 66:-0.380482 67:0.174533 68:2.02633 
0.2693253800016657 1:-0.958129 2:-0 3:0 4:0.286337 5:-0.299417 6:0.161674 7:0.0865 8:-0.998119 9:-0 10:0 11:0.0613008 12:0.285209 13:0.347481 14:0.0865 15:-0.97116 16:0 17:-0 18:-0.238427 19:-0.157848 20:0.375089 21:0.0865 22:0 23:0 24:0 25:0 26:0 27:0 28:0 29:0 30:0 31:0 32:0 33:0 34:0 35:0 36:0 37:1 38:0 39:0 40:5 41:0 42:0 43:0 44:2 45:0 46:0 47:0 48:0 49:1 50:4 51:0 52:0 53:1 54:3 55:0 56:0 57:-2.61625 58:-2.70177 59:0.15708 60:-0.380482 61:0.174533 62:-2.02633 63:-2.61625 64:-2.70177 65:0.15708 66:-0.380482 67:0.174533 68:2.02633 
-1 1:-0.958129 2:-0 3:0 4:0.286337 5:-0.299417 6:0.161674 7:0.0865 8:-0.998119 9:-0 10:0 11:0.0613008 12:0.285209 13:0.347481 14:0.0865 15:-0.97116 16:0 17:-0 18:-0.238427 19:-0.157848 20:0.375089 21:0.0865 22:0 23:0 24:0 25:0 26:0 27:0 28:0 29:0 30:0 31:0 32:0 33:0 34:0 35:0 36:0 37:1 38:0 39:4 40:0 41:0 42:0 43:0 44:0 45:7 46:1 47:0 48:0 49:1 50:3 51:5 52:0 53:6 54:2 55:0 56:2.96706 57:-2.61625 58:-2.70177 59:0.15708 60:-0.380482 61:0.174533 62:-2.02633 63:-1.34068 64:-0.180707 65:-0.920166 66:-0.112174 67:1.82865 68:-1.43754 
-1 1:-0.958129 2:-0 3:0 4:0.286337 5:-0.299417 6:0.161674 7:0.0865 8:-0.998119 9:-0 10:0 11:0.0613008 12:0.285209 13:0.347481 14:0.0865 15:-0.97116 16:0 17:-0 18:-0.238427 19:-0.157848 20:0.375089 21:0.0865 22:0 23:0 24:0 25:0 26:0 27:0 28:0 29:0 30:0 31:0 32:0 33:0 34:0 35:0 36:0 37:1 38:0 39:5 40:0 41:0 42:0 43:0 44:0 45:0 46:2 47:0 48:0 49:1 50:4 51:0 52:0 53:1 54:3 55:0 56:0 57:-2.61625 58:-2.70177 59:0.15708 60:-0.380482 61:0.174533 62:-2.02633 63:-2.61625 64:-2.70177 65:0.15708 66:-0.380482 67:0.174533 68:2.02633 
-1 1:-0.958129 2:-0 3:0 4:0.286337 5:-0.299417 6:0.161674 7:0.0865 8:-0.998119 9:-0 10:0 11:0.0613008 12:0.285209 13:0.347481 14:0.0865 15:-0.97116 16:0 17:-0 18:-0.238427 19:-0.157848 20:0.375089 21:0.0865 22:0 23:0 24:0 25:0 26:0 27:0 28:0 29:0 30:0 31:0 32:0 33:0 34:0 35:0 36:0 37:1 38:0 39:5 40:0 41:0 42:0 43:0 44:0 45:0 46:2 47:0 48:0 49:1 50:4 51:6 52:0 53:1 54:3 55:0 56:0 57:-2.61625 58:-2.70177 59:0.15708 60:-0.380482 61:0.174533 62:-2.02633 63:-2.61625 64:-2.70177 65:0.15708 66:-0.380482 67:0.174533 68:2.02633 
-1 1:-0.958129 2:-0 3:0 4:0.286337 5:-0.299417 6:0.161674 7:0.0865 8:-0.998119 9:-0 10:0 11:0.0613008 12:0.285209 13:0.347481 14:0.0865 15:-0.97116 16:0 17:-0 18:-0.238427 19:-0.157848 20:0.375089 21:0.0865 22:0 23:0 24:0 25:0 26:0 27:0 28:0 29:0 30:0 31:0 32:0 33:0 34:0 35:0 36:0 37:1 38:0 39:5 40:0 41:0 42:0 43:0 44:0 45:8 46:2 47:0 48:0 49:1 50:4 51:6 52:0 53:1 54:3 55:0 56:0 57:-2.61625 58:-2.70177 59:0.15708 60:-0.380482 61:0.174533 62:-2.02633 63:-2.61625 64:-2.70177 65:0.15708 66:-0.380482 67:0.174533 68:2.02633 
-1 1:-0.958129 2:-0 3:0 4:0.286337 5:-0.299417 6:0.161674 7:0.0865 8:-0.998119 9:-0 10:0 11:0.0613008 12:0.285209 13:0.347481 14:0.0865 15:-0.97116 16:0 17:-0 18:-0.238427 19:-0.157848 20:0.375089 21:0.0865 22:0 23:0 24:0 25:0 26:0 27:0 28:0 29:0 30:0 31:0 32:0 33:0 34:0 35:0 36:0 37:1 38:1 39:0 40:0 41:0 42:0 43:0 44:0 45:0 46:1 47:0 48:0 49:0 50:0 51:0 52:0 53:0 54:0 55:0 56:2.96706 57:-2.61625 58:-2.70177 59:0.15708 60:-0.380482 61:0.174533 62:-2.02633 63:-1.34068 64:-0.180707 65:-0.920166 66:-0.112174 67:1.82865 68:-1.43754 
-1 1:-0.958129 2:-0 3:0 4:0.286337 5:-0.299417 6:0.161674 7:0.0865 8:-0.998119 9:-0 10:0 11:0.0613008 12:0.285209 13:0.347481 14:0.0865 15:-0.97116 16:0 17:-0 18:-0.238427 19:-0.157848 20:0.375089 21:0.0865 22:0 23:0 24:0 25:0 26:0 27:0 28:0 29:0 30:0 31:0 32:0 33:0 34:0 35:0 36:0 37:1 38:1 39:0 40:0 41:0 42:0 43:0 44:0 45:1 46:0 47:0 48:0 49:0 50:0 51:0 52:0 53:0 54:0 55:0 56:1.74092 57:-2.61625 58:-2.70177 59:0.15708 60:-0.380482 61:0.174533 62:-2.02633 63:-1.42797 64:-0.0587514 65:-0.578793 66:-0.750787 67:-1.87919 68:2.00896 
1 1:-0.958129 2:-0 3:0 4:0.286337 5:-0.299417 6:0.161674 7:0.0865 8:-0.998119 9:-0 10:0 11:0.0613008 12:0.285209 13:0.347481 14:0.0865 15:-0.97116 16:0 17:-0 18:-0.238427 19:-0.157848 20:0.375089 21:0.0865 22:0 23:0 24:0 25:0 26:0 27:0 28:0 29:0 30:0 31:0 32:0 33:0 34:0 35:0 36:0 37:1 38:1 39:0 40:0 41:0 42:0 43:0 44:0 45:3 46:1 47:0 48:0 49:0 50:0 51:0 52:0 53:0 54:0 55:2 56:2.96706 57:-2.61625 58:-2.70177 59:0.15708 60:-0.380482 61:0.174533 62:-2.02633 63:-1.34068 64:-0.180707 65:-0.920166 66:-0.112174 67:1.82865 68:-1.43754 
-1 1:-0.958129 2:-0 3:0 4:0.286337 5:-0.299417 6:0.161674 7:0.0865 8:-0.998119 9:-0 10:0 11:0.0613008 12:0.285209 13:0.347481 14:0.0865 15:-0.97116 16:0 17:-0 18:-0.238427 19:-0.157848 20:0.375089 21:0.0865 22:0 23:0 24:0 25:0 26:0 27:0 28:0 29:0 30:0 31:0 32:0 33:0 34:0 35:0 36:0 37:1 38:1 39:0 40:0 41:0 42:0 43:0 44:3 45:0 46:1 47:0 48:0 49:0 50:0 51:0 52:0 53:0 54:0 55:2 56:2.96706 57:-2.61625 58:-2.70177 59:0.15708 60:-0.380482 61:0.174533 62:-2.02633 63:-1.34068 64:-0.180707 65:-0.920166 66:-0.112174 67:1.82865 68:-1.43754 
1 1:-0.958129 2:-0 3:0 4:0.286337 5:-0.299417 6:0.161674 7:0.0865 8:-0.998119 9:-0 10:0 11:0.0613008 12:0.285209 13:0.347481 14:0.0865 15:-0.97116 16:0 17:-0 18:-0.238427 19:-0.157848 20:0.375089 21:0.0865 22:0 23:0 24:0 25:0 26:0 27:0 28:0 29:0 30:0 31:0 32:0 33:0 34:0 35:0 36:0 37:1 38:1 39:0 40:0 41:0 42:0 43:0 44:3 45:1 46:0 47:0 48:0 49:0 50:0 51:0 52:0 53:0 54:0 55:2 56:1.74092 57:-2.61625 58:-2.70177 59:0.15708 60:-0.380482 61:0.174533 62:-2.02633 63:-1.42797 64:-0.0587514 65:-0.578793 66:-0.750787 67:-1.87919 68:2.00896 
1 1:-0.958129 2:-0 3:0 4:0.286337 5:-0.299417 6:0.161674 7:0.0865 8:-0.998119 9:-0 10:0 11:0.0613008 12:0.285209 13:0.347481 14:0.0865 15:-0.97116 16:0 17:-0 18:-0.238427 19:-0.157848 20:0.375089 21:0.0865 22:0 23:0 24:0 25:0 26:0 27:0 28:0 29:0 30:0 31:0 32:0 33:0 34:0 35:0 36:1 37:0 38:0 39:0 40:0 41:1 42:0 43:0 44:0 45:0 46:0 47:0 48:0 49:0 50:0 51:2 52:0 53:0 54:0 55:0 56:0.884195 57:-1.262 58:-0.290367 59:1.0684 60:0.222657 61:-1.81839 62:1.38348 63:-2.61625 64:-2.70177 65:0.15708 66:-0.380482 67:0.174533 68:2.02633 
-1 1:-0.958129 2:-0 3:0 4:0.286337 5:-0.299417 6:0.161674 7:0.0865 8:-0.998119 9:-0 10:0 11:0.0613008 12:0.285209 13:0.347481 14:0.0865 15:-0.97116 16:0 17:-0 18:-0.238427 19:-0.157848 20:0.375089 21:0.0865 22:0 23:0 24:0 25:0 26:0 27:0 28:0 29:0 30:0 31:0 32:0 33:0 34:0 35:0 36:1 37:0 38:0 39:0 40:0 41:2 42:0 43:0 44:0 45:0 46:0 47:0 48:0 49:0 50:1 51:0 52:0 53:0 54:0 55:0 56:0 57:-2.61625 58:-2.70177 59:0.15708 60:-0.380482 61:0.174533 62:-2.02633 63:-2.61625 64:-2.70177 65:0.15708 66:-0.380482 67:0.174533 68:2.02633 
-1 1:-0.958129 2:-0 3:0 4:0.286337 5:-0.299417 6:0.161674 7:0.0865 8:-0.998119 9:-0 10:0 11:0.0613008 12:0.285209 13:0.347481 14:0.0865 15:-0.97116 16:0 17:-0 18:-0.238427 19:-0.157848 20:0.375089 21:0.0865 22:0 23:0 24:0 25:0 26:0 27:0 28:0 29:0 30:0 31:0 32:0 33:0 34:0 35:0 36:1 37:0 38:0 39:0 40:0 41:2 42:0 43:0 44:0 45:0 46:0 47:0 48:0 49:1 50:1 51:3 52:0 53:0 54:0 55:0 56:0 57:-2.61625 58:-2.70177 59:0.15708 60:-0.380482 61:0.174533 62:-2.02633 63:-2.61625 64:-2.70177 65:0.15708 66:-0.380482 67:0.174533 68:2.02633 
-1 1:-0.958129 2:-0 3:0 4:0.286337 5:-0.299417 6:0.161674 7:0.0865 8:-0.998119 9:-0 10:0 11:0.0613008 12:0.285209 13:0.347481 14:0.0865 15:-0.97116 16:0 17:-0 18:-0.238427 19:-0.157848 20:0.375089 21:0.0865 22:0 23:0 24:0 25:0 26:0 27:0 28:0 29:0 30:0 31:0 32:0 33:0 34:0 35:0 36:1 37:0 38:0 39:0 40:0 41:3 42:0 43:0 44:0 45:0 46:0 47:0 48:0 49:1 50:2 51:0 52:0 53:0 54:1 55:0 56:1.74092 57:-2.61625 58:-2.70177 59:0.15708 60:-0.380482 61:0.174533 62:-2.02633 63:-1.11842 64:-0.139057 65:0.178757 66:-0.59651 67:-1.88123 68:2.01782 
1 1:-0.958129 2:-0 3:0 4:0.286337 5:-0.299417 6:0.161674 7:0.0865 8:-0.998119 9:-0 10:0 11:0.0613008 12:0.285209 13:0.347481 14:0.0865 15:-0.97116 16:0 17:-0 18:-0.238427 19:-0.157848 20:0.375089 21:0.0865 22:0 23:0 24:0 25:0 26:0 27:0 28:0 29:0 30:0 31:0 32:0 33:0 34:0 35:0 36:1 37:0 38:0 39:0 40:0 41:3 42:0 43:0 44:0 45:0 46:0 47:0 48:0 49:1 50:2 51:0 52:0 53:0 54:1 55:0 56:2.96706 57:-2.61625 58:-2.70177 59:0.15708 60:-0.380482 61:0.174533 62:-2.02633 63:-1.80384 64:0.449352 65:-0.601088 66:0.233735 67:-1.93913 68:1.71165 
-1 1:-0.958129 2:-0 3:0 4:0.286337 5:-0.299417 6:0.161674 7:0.0865 8:-0.998119 9:-0 10:0 11:0.0613008 12:0.285209 13:0.347481 14:0.0865 15:-0.97116 16:0 17:-0 18:-0.238427 19:-0.157848 20:0.375089 21:0.0865 22:0 23:0 24:0 25:0 26:0 27:0 28:0 29:0 30:0 31:0 32:0 33:0 34:0 35:0 36:1 37:0 38:0 39:0 40:0 41:3 42:0 43:0 44:0 45:0 46:0 47:0 48:0 49:1 50:2 51:0 52:4 53:0 54:1 55:0 56:1.74092 57:-2.61625 58:-2.70177 59:0.15708 60:-0.380482 61:0.174533 62:-2.02633 63:-1.11842 64:-0.139057 65:0.178757 66:-0.59651 67:-1.88123 68:2.01782 
1 1:-0.958129 2:-0 3:0 4:0.286337 5:-0.299417 6:0.161674 7:0.0865 8:-0.998119 9:-0 10:0 11:0.0613008 12:0.285209 13:0.347481 14:0.0865 15:-0.97116 16:0 17:-0 18:-0.238427 19:-0.157848 20:0.375089 21:0.0865 22:0 23:0 24:0 25:0 26:0 27:0 28:0 29:0 30:0 31:0 32:0 33:0 34:0 35:0 36:1 37:0 38:0 39:0 40:0 41:3 42:0 43:0 44:0 45:0 46:0 47:0 48:0 49:1 50:2 51:0 52:4 53:0 54:1 55:0 56:2.96706 57:-2.61625 58:-2.70177 59:0.15708 60:-0.380482 61:0.174533 62:-2.02633 63:-1.80384 64:0.449352 65:-0.601088 66:0.233735 67:-1.93913 68:1.71165 
-1 1:-0.958129 2:-0 3:0 4:0.286337 5:-0.299417 6:0.161674 7:0.0865 8:-0.998119 9:-0 10:0 11:0.0613008 12:0.285209 13:0.347481 14:0.0865 15:-0.97116 16:0 17:-0 18:-0.238427 19:-0.157848 20:0.375089 21:0.0865 22:0 23:0 24:0 25:0 26:0 27:0 28:0 29:0 30:0 31:0 32:0 33:0 34:0 35:0 36:1 37:0 38:0 39:0 40:0 41:3 42:0 43:0 44:0 45:0 46:0 47:0 48:0 49:1 50:2 51:4 52:0 53:0 54:1 55:0 56:1.74092 57:-2.61625 58:-2.70177 59:0.15708 60:-0.380482 61:0.174533 62:-2.02633 63:-1.11842 64:-0.139057 65:0.178757 66:-0.59651 67:-1.88123 68:2.01782 
1 1:-0.958129 2:-0 3:0 4:0.286337 5:-0.299417 6:0.161674 7:0.0865 8:-0.998119 9:-0 10:0 11:0.0613008 12:0.285209 13:0.347481 14:0.0865 15:-0.97116 16:0 17:-0 18:-0.238427 19:-0.157848 20:0.375089 21:0.0865 22:0 23:0 24:0 25:0 26:0 27:0 28:0 29:0 30:0 31:0 32:0 33:0 34:0 35:0 36:1 37:0 38:0 39:0 40:0 41:3 42:0 43:0 44:0 45:0 46:0 47:0 48:0 49:1 50:2 51:4 52:0 53:0 54:1 55:0 56:2.96706 57:-2.61625 58:-2.70177 59:0.15708 60:-0.380482 61:0.174533 62:-2.02633 63:-1.80384 64:0.449352 65:-0.601088 66:0.233735 67:-1.93913 68:1.71165 
-0.7881243219707541 1:-0.958129 2:-0 3:0 4:0.286337 5:-0.299417 6:0.161674 7:0.0865 8:-0.998119 9:-0 10:0 11:0.0613008 12:0.285209 13:0.347481 14:0.0865 15:-0.97116 16:0 17:-0 18:-0.238427 19:-0.157848 20:0.375089 21:0.0865 22:0 23:0 24:0 25:0 26:0 27:0 28:0 29:0 30:0 31:0 32:0 33:0 34:0 35:0 36:1 37:0 38:0 39:0 40:0 41:3 42:0 43:0 44:0 45:0 46:0 47:0 48:0 49:1 50:2 51:4 52:0 53:5 54:1 55:0 56:1.74092 57:-2.61625 58:-2.70177 59:0.15708 60:-0.380482 61:0.174533 62:-2.02633 63:-1.11842 64:-0.139057 65:0.178757 66:-0.59651 67:-1.88123 68:2.01782 
1 1:-0.958129 2:-0 3:0 4:0.286337 5:-0.299417 6:0.161674 7:0.0865 8:-0.998119 9:-0 10:0 11:0.0613008 12:0.285209 13:0.347481 14:0.0865 15:-0.97116 16:0 17:-0 18:-0.238427 19:-0.157848 20:0.375089 21:0.0865 22:0 23:0 24:0 25:0 26:0 27:0 28:0 29:0 30:0 31:0 32:0 33:0 34:0 35:0 36:1 37:0 38:0 39:0 40:0 41:3 42:0 43:0 44:0 45:0 46:0 47:0 48:0 49:1 50:2 51:4 52:0 53:5 54:1 55:0 56:2.96706 57:-2.61625 58:-2.70177 59:0.15708 60:-0.380482 61:0.174533 62:-2.02633 63:-1.80384 64:0.449352 65:-0.601088 66:0.233735 67:-1.93913 68:1.71165 
-1 1:-0.958129 2:-0 3:0 4:0.286337 5:-0.299417 6:0.161674 7:0.0865 8:-0.998119 9:-0 10:0 11:0.0613008 12:0.285209 13:0.347481 14:0.0865 15:-0.97116 16:0 17:-0 18:-0.238427 19:-0.157848 20:0.375089 21:0.0865 22:0 23:0 24:0 25:0 26:0 27:0 28:0 29:0 30:0 31:0 32:0 33:0 34:0 35:0 36:1 37:0 38:0 39:0 40:0 41:4 42:0 43:0 44:0 45:1 46:0 47:0 48:0 49:1 50:3 51:0 52:5 53:0 54:2 55:0 56:1.74092 57:-2.61625 58:-2.70177 59:0.15708 60:-0.380482 61:0.174533 62:-2.02633 63:-1.42797 64:-0.0587514 65:-0.578793 66:-0.750787 67:-1.87919 68:2.00896 
-1 1:-0.958129 2:-0 3:0 4:0.286337 5:-0.299417 6:0.161674 7:0.0865 8:-0.998119 9:-0 10:0 11:0.0613008 12:0.285209 13:0.347481 14:0.0865 15:-0.97116 16:0 17:-0 18:-0.238427 19:-0.157848 20:0.375089 21:0.0865 22:0 23:0 24:0 25:0 26:0 27:0 28:0 29:0 30:0 31:0 32:0 33:0 34:0 35:0 36:1 37:0 38:0 39:0 40:0 41:4 42:0 43:0 44:0 45:1 46:0 47:0 48:0 49:1 50:3 51:5 52:0 53:0 54:2 55:0 56:1.74092 57:-2.61625 58:-2.70177 59:0.15708 60:-0.380482 61:0.174533 62:-2.02633 63:-1.42797 64:-0.0587514 65:-0.578793 66:-0.750787 67:-1.87919 68:2.00896 
1 1:-0.958129 2:-0 3:0 4:0.286337 5:-0.299417 6:0.161674 7:0.0865 8:-0.998119 9:-0 10:0 11:0.0613008 12:0.285209 13:0.347481 14:0.0865 15:-0.97116 16:0 17:-0 18:-0.238427 19:-0.157848 20:0.375089 21:0.0865 22:0 23:0 24:0 25:0 26:0 27:0 28:0 29:0 30:0 31:0 32:0 33:0 34:0 35:0 36:1 37:0 38:0 39:0 40:0 41:4 42:0 43:0 44:1 45:0 46:0 47:0 48:0 49:1 50:3 51:5 52:0 53:0 54:2 55:0 56:2.96706 57:-2.61625 58:-2.70177 59:0.15708 60:-0.380482 61:0.174533 62:-2.02633 63:-0.943782 64:-0.376512 65:-0.231845 66:0.419886 67:1.90214 68:-1.16449 
1 1:-0.958129 2:-0 3:0 4:0.286337 5:-0.299417 6:0.161674 7:0.0865 8:-0.998119 9:-0 10:0 11:0.0613008 12:0.285209 13:0.347481 14:0.0865 15:-0.97116 16:0 17:-0 18:-0.238427 19:-0.157848 20:0.375089 21:0.0865 22:0 23:0 24:0 25:0 26:0 27:0 28:0 29:0 30:0 31:0 32:0 33:0 34:0 35:0 36:1 37:0 38:0 39:0 40:1 41:0 42:0 43:0 44:0 45:0 46:0 47:0 48:0 49:0 50:0 51:2 52:0 53:0 54:0 55:0 56:0.138462 57:-0.969063 58:-0.450199 59:0.641553 60:-0.101255 61:-1.8781 62:1.38332 63:-2.61625 64:-2.70177 65:0.15708 66:-0.380482 67:0.174533 68:2.02633 
1 1:-0.958129 2:-0 3:0 4:0.286337 5:-0.299417 6:0.161674 7:0.0865 8:-0.998119 9:-0 10:0 11:0.0613008 12:0.285209 13:0.347481 14:0.0865 15:-0.97116 16:0 17:-0 18:-0.238427 19:-0.157848 20:0.375089 21:0.0865 22:0 23:0 24:0 25:0 26:0 27:0 28:0 29:0 30:0 31:0 32:0 33:0 34:0 35:0 36:1 37:0 38:0 39:0 40:3 41:0 42:0 43:0 44:0 45:0 46:0 47:0 48:0 49:1 50:2 51:0 52:0 53:0 54:1 55:0 56:2.58176 57:-2.61625 58:-2.70177 59:0.15708 60:-0.380482 61:0.174533 62:-2.02633 63:-1.05839 64:-0.430947 65:-0.884982 66:-0.403137 67:1.88164 68:-1.52623 
1 1:-0.958129 2:-0 3:0 4:0.286337 5:-0.299417 6:0.161674 7:0.0865 8:-0.998119 9:-0 10:0 11:0.0613008 12:0.285209 13:0.347481 14:0.0865 15:-0.97116 16:0 17:-0 18:-0.238427 19:-0.157848 20:0.375089 21:0.0865 22:0 23:0 24:0 25:0 26:0 27:0 28:0 29:0 30:0 31:0 32:0 33:0 34:0 35:0 36:1 37:0 38:0 39:0 40:3 41:0 42:0 43:0 44:0 45:0 46:0 47:0 48:0 49:1 50:2 51:0 52:0 53:0 54:1 55:0 56:2.96706 57:-2.61625 58:-2.70177 59:0.15708 60:-0.380482 61:0.174533 62:-2.02633 63:-1.80384 64:0.449352 65:-0.601088 66:0.233735 67:-1.93913 68:1.71165 
1 1:-0.958129 2:-0 3:0 4:0.286337 5:-0.299417 6:0.161674 7:0.0865 8:-0.998119 9:-0 10:0 11:0.0613008 12:0.285209 13:0.347481 14:0.0865 15:-0.97116 16:0 17:-0 18:-0.238427 19:-0.157848 20:0.375089 21:0.0865 22:0 23:0 24:0 25:0 26:0 27:0 28:0 29:0 30:0 31:0 32:0 33:0 34:0 35:0 36:1 37:0 38:0 39:0 40:3 41:0 42:0 43:0 44:0 45:0 46:0 47:0 48:0 49:1 50:2 51:0 52:4 53:0 54:1 55:0 56:2.58176 57:-2.61625 58:-2.70177 59:0.15708 60:-0.380482 61:0.174533 62:-2.02633 63:-1.05839 64:-0.430947 65:-0.884982 66:-0.403137 67:1.88164 68:-1.52623 
0.03342781615186333 1:-0.958129 2:-0 3:0 4:0.286337 5:-0.299417 6:0.161674 7:0.0865 8:-0.998119 9:-0 10:0 11:0.0613008 12:0.285209 13:0.347481 14:0.0865 15:-0.97116 16:0 17:-0 18:-0.238427 19:-0.157848 20:0.375089 21:0.0865 22:0 23:0 24:0 25:0 26:0 27:0 28:0 29:0 30:0 31:0 32:0 33:0 34:0 35:0 36:1 37:0 38:0 39:0 40:3 41:0 42:0 43:0 44:0 45:0 46:0 47:0 48:0 49:1 50:2 51:0 52:4 53:0 54:1 55:0 56:2.96706 57:-2.61625 58:-2.70177 59:0.15708 60:-0.380482 61:0.174533 62:-2.02633 63:-1.80384 64:0.449352 65:-0.601088 66:0.233735 67:-1.93913 68:1.71165 
1 1:-0.958129 2:-0 3:0 4:0.286337 5:-0.299417 6:0.161674 7:0.0865 8:-0.998119 9:-0 10:0 11:0.0613008 12:0.285209 13:0.347481 14:0.0865 15:-0.97116 16:0 17:-0 18:-0.238427 19:-0.157848 20:0.375089 21:0.0865 22:0 23:0 24:0 25:0 26:0 27:0 28:0 29:0 30:0 31:0 32:0 33:0 34:0 35:0 36:1 37:0 38:0 39:0 40:3 41:0 42:0 43:0 44:0 45:0 46:0 47:0 48:0 49:1 50:2 51:4 52:0 53:0 54:1 55:0 56:2.58176 57:-2.61625 58:-2.70177 59:0.15708 60:-0.380482 61:0.174533 62:-2.02633 63:-1.05839 64:-0.430947 65:-0.884982 66:-0.403137 67:1.88164 68:-1.52623 
1 1:-0.958129 2:-0 3:0 4:0.286337 5:-0.299417 6:0.161674 7:0.0865 8:-0.998119 9:-0 10:0 11:0.0613008 12:0.285209 13:0.347481 14:0.0865 15:-0.97116 16:0 17:-0 18:-0.238427 19:-0.157848 20:0.375089 21:0.0865 22:0 23:0 24:0 25:0 26:0 27:0 28:0 29:0 30:0 31:0 32:0 33:0 34:0 35:0 36:1 37:0 38:0 39:0 40:3 41:0 42:0 43:0 44:0 45:0 46:0 47:0 48:0 49:1 50:2 51:4 52:0 53:0 54:1 55:0 56:2.96706 57:-2.61625 58:-2.70177 59:0.15708 60:-0.380482 61:0.174533 62:-2.02633 63:-1.80384 64:0.449352 65:-0.601088 66:0.233735 67:-1.93913 68:1.71165 
1 1:-0.958129 2:-0 3:0 4:0.286337 5:-0.299417 6:0.161674 7:0.0865 8:-0.998119 9:-0 10:0 11:0.0613008 12:0.285209 13:0.347481 14:0.0865 15:-0.97116 16:0 17:-0 18:-0.238427 19:-0.157848 20:0.375089 21:0.0865 22:0 23:0 24:0 25:0 26:0 27:0 28:0 29:0 30:0 31:0 32:0 33:0 34:0 35:0 36:1 37:0 38:0 39:0 40:3 41:0 42:0 43:0 44:0 45:0 46:0 47:0 48:0 49:1 50:2 51:4 52:0 53:5 54:1 55:0 56:2.58176 57:-2.61625 58:-2.70177 59:0.15708 60:-0.380482 61:0.174533 62:-2.02633 63:-1.05839 64:-0.430947 65:-0.884982 66:-0.403137 67:1.88164 68:-1.52623 
1 1:-0.958129 2:-0 3:0 4:0.286337 5:-0.299417 6:0.161674 7:0.0865 8:-0.998119 9:-0 10:0 11:0.0613008 12:0.285209 13:0.347481 14:0.0865 15:-0.97116 16:0 17:-0 18:-0.238427 19:-0.157848 20:0.375089 21:0.0865 22:0 23:0 24:0 25:0 26:0 27:0 28:0 29:0 30:0 31:0 32:0 33:0 34:0 35:0 36:1 37:0 38:0 39:0 40:3 41:5 42:0 43:0 44:0 45:0 46:0 47:0 48:0 49:1 50:2 51:0 52:4 53:0 54:1 55:0 56:2.96706 57:-2.61625 58:-2.70177 59:0.15708 60:-0.380482 61:0.174533 62:-2.02633 63:-1.80384 64:0.449352 65:-0.601088 66:0.233735 67:-1.93913 68:1.71165 
-1 1:-0.958129 2:-0 3:0 4:0.286337 5:-0.299417 6:0.161674 7:0.0865 8:-0.998119 9:-0 10:0 11:0.0613008 12:0.285209 13:0.347481 14:0.0865 15:-0.97116 16:0 17:-0 18:-0.238427 19:-0.157848 20:0.375089 21:0.0865 22:0 23:0 24:0 25:0 26:0 27:0 28:0 29:0 30:0 31:0 32:0 33:0 34:0 35:0 36:1 37:0 38:0 39:0 40:4 41:0 42:0 43:0 44:0 45:0 46:1 47:0 48:0 49:1 50:3 51:0 52:5 53:0 54:2 55:0 56:2.96706 57:-2.61625 58:-2.70177 59:0.15708 60:-0.380482 61:0.174533 62:-2.02633 63:-1.34068 64:-0.180707 65:-0.920166 66:-0.112174 67:1.82865 68:-1.43754 
-0.4603344476325559 1:-0.958129 2:-0 3:0 4:0.286337 5:-0.299417 6:0.161674 7:0.0865 8:-0.998119 9:-0 10:0 11:0.0613008 12:0.285209 13:0.347481 14:0.0865 15:-0.97116 16:0 17:-0 18:-0.238427 19:-0.157848 20:0.375089 21:0.0865 22:0 23:0 24:0 25:0 26:0 27:0 28:0 29:0 30:0 31:0 32:0 33:0 34:0 35:0 36:1 37:0 38:0 39:0 40:4 41:0 42:0 43:0 44:0 45:0 46:1 47:0 48:0 49:1 50:3 51:5 52:0 53:0 54:2 55:0 56:2.96706 57:-2.61625 58:-2.70177 59:0.15708 60:-0.380482 61:0.174533 62:-2.02633 63:-1.34068 64:-0.180707 65:-0.920166 66:-0.112174 67:1.82865 68:-1.43754 
-0.728704572762462 1:-0.958129 2:-0 3:0 4:0.286337 5:-0.299417 6:0.161674 7:0.0865 8:-0.998119 9:-0 10:0 11:0.0613008 12:0.285209 13:0.347481 14:0.0865 15:-0.97116 16:0 17:-0 18:-0.238427 19:-0.157848 20:0.375089 21:0.0865 22:0 23:0 24:0 25:0 26:0 27:0 28:0 29:0 30:0 31:0 32:0 33:0 34:0 35:0 36:1 37:0 38:0 39:0 40:4 41:0 42:0 43:0 44:1 45:0 46:0 47:0 48:0 49:1 50:3 51:0 52:5 53:0 54:2 55:0 56:2.96706 57:-2.61625 58:-2.70177 59:0.15708 60:-0.380482 61:0.174533 62:-2.02633 63:-0.943782 64:-0.376512 65:-0.231845 66:0.419886 67:1.90214 68:-1.16449 
1 1:-0.958129 2:-0 3:0 4:0.286337 5:-0.299417 6:0.161674 7:0.0865 8:-0.998119 9:-0 10:0 11:0.0613008 12:0.285209 13:0.347481 14:0.0865 15:-0.97116 16:0 17:-0 18:-0.238427 19:-0.157848 20:0.375089 21:0.0865 22:0 23:0 24:0 25:0 26:0 27:0 28:0 29:0 30:0 31:0 32:0 33:0 34:0 35:0 36:1 37:0 38:0 39:0 40:4 41:6 42:0 43:0 44:1 45:0 46:0 47:0 48:0 49:0 50:3 51:0 52:5 53:0 54:2 55:0 56:2.96706 57:-2.61625 58:-2.70177 59:0.15708 60:-0.380482 61:0.174533 62:-2.02633 63:-0.943782 64:-0.376512 65:-0.231845 66:0.419886 67:1.90214 68:-1.16449 
0.8165600543876373 1:-0.958129 2:-0 3:0 4:0.286337 5:-0.299417 6:0.161674 7:0.0865 8:-0.998119 9:-0 10:0 11:0.0613008 12:0.285209 13:0.347481 14:0.0865 15:-0.97116 16:0 17:-0 18:-0.238427 19:-0.157848 20:0.375089 21:0.0865 22:0 23:0 24:0 25:0 26:0 27:0 28:0 29:0 30:0 31:0 32:0 33:0 34:0 35:0 36:1 37:0 38:0 39:0 40:5 41:3 42:0 43:0 44:0 45:0 46:0 47:0 48:0 49:1 50:2 51:0 52:4 53:0 54:1 55:0 56:2.96706 57:-2.61625 58:-2.70177 59:0.15708 60:-0.380482 61:0.174533 62:-2.02633 63:-1.80384 64:0.449352 65:-0.601088 66:0.233735 67:-1.93913 68:1.71165 
1 1:-0.958129 2:-0 3:0 4:0.286337 5:-0.299417 6:0.161674 7:0.0865 8:-0.998119 9:-0 10:0 11:0.0613008 12:0.285209 13:0.347481 14:0.0865 15:-0.97116 16:0 17:-0 18:-0.238427 19:-0.157848 20:0.375089 21:0.0865 22:0 23:0 24:0 25:0 26:0 27:0 28:0 29:0 30:0 31:0 32:0 33:0 34:0 35:0 36:1 37:0 38:0 39:0 40:5 41:7 42:0 43:0 44:2 45:0 46:0 47:0 48:0 49:1 50:4 51:0 52:6 53:1 54:3 55:0 56:0 57:-2.61625 58:-2.70177 59:0.15708 60:-0.380482 61:0.174533 62:-2.02633 63:-2.61625 64:-2.70177 65:0.15708 66:-0.380482 67:0.174533 68:2.02633 
0.8136202347978659 1:-0.958129 2:-0 3:0 4:0.286337 5:-0.299417 6:0.161674 7:0.0865 8:-0.998119 9:-0 10:0 11:0.0613008 12:0.285209 13:0.347481 14:0.0865 15:-0.97116 16:0 17:-0 18:-0.238427 19:-0.157848 20:0.375089 21:0.0865 22:0 23:0 24:0 25:0 26:0 27:0 28:0 29:0 30:0 31:0 32:0 33:0 34:0 35:0 36:1 37:0 38:0 39:0 40:6 41:4 42:0 43:0 44:1 45:0 46:0 47:0 48:0 49:0 50:3 51:0 52:5 53:0 54:2 55:0 56:2.96706 57:-2.61625 58:-2.70177 59:0.15708 60:-0.380482 61:0.174533 62:-2.02633 63:-0.943782 64:-0.376512 65:-0.231845 66:0.419886 67:1.90214 68:-1.16449 
0.7624828887360772 1:-0.958129 2:-0 3:0 4:0.286337 5:-0.299417 6:0.161674 7:0.0865 8:-0.998119 9:-0 10:0 11:0.0613008 12:0.285209 13:0.347481 14:0.0865 15:-0.97116 16:0 17:-0 18:-0.238427 19:-0.157848 20:0.375089 21:0.0865 22:0 23:0 24:0 25:0 26:0 27:0 28:0 29:0 30:0 31:0 32:0 33:0 34:0 35:0 36:1 37:0 38:0 39:0 40:7 41:5 42:0 43:0 44:2 45:0 46:0 47:0 48:0 49:1 50:4 51:0 52:6 53:1 54:3 55:0 56:0 57:-2.61625 58:-2.70177 59:0.15708 60:-0.380482 61:0.174533 62:-2.02633 63:-2.61625 64:-2.70177 65:0.15708 66:-0.380482 67:0.174533 68:2.02633 
0.5284856176032168 1:-0.958129 2:-0 3:0 4:0.286337 5:-0.299417 6:0.161674 7:0.0865 8:-0.998119 9:-0 10:0 11:0.0613008 12:0.285209 13:0.347481 14:0.0865 15:-0.97116 16:0 17:-0 18:-0.238427 19:-0.157848 20:0.375089 21:0.0865 22:0 23:0 24:0 25:0 26:0 27:0 28:0 29:0 30:0 31:0 32:0 33:0 34:0 35:0 36:1 37:0 38:0 39:1 40:0 41:0 42:0 43:0 44:0 45:0 46:0 47:0 48:0 49:0 50:0 51:2 52:0 53:0 54:0 55:0 56:1.02197 57:-1.21093 58:-0.440925 59:1.5685 60:1.27768 61:-2.24962 62:0.912203 63:-2.61625 64:-2.70177 65:0.15708 66:-0.380482 67:0.174533 68:2.02633 
1 1:-0.958129 2:-0 3:0 4:0.286337 5:-0.299417 6:0.161674 7:0.0865 8:-0.998119 9:-0 10:0 11:0.0613008 12:0.285209 13:0.347481 14:0.0865 15:-0.97116 16:0 17:-0 18:-0.238427 19:-0.157848 20:0.375089 21:0.0865 22:0 23:0 24:0 25:0 26:0 27:0 28:0 29:0 30:0 31:0 32:0 33:0 34:0 35:0 36:1 37:0 38:0 39:2 40:0 41:0 42:0 43:0 44:0 45:0 46:0 47:0 48:0 49:0 50:1 51:0 52:0 53:0 54:0 55:0 56:0 57:-2.61625 58:-2.70177 59:0.15708 60:-0.380482 61:0.174533 62:-2.02633 63:-2.61625 64:-2.70177 65:0.15708 66:-0.380482 67:0.174533 68:2.02633 
1 1:-0.958129 2:-0 3:0 4:0.286337 5:-0.299417 6:0.161674 7:0.0865 8:-0.998119 9:-0 10:0 11:0.0613008 12:0.285209 13:0.347481 14:0.0865 15:-0.97116 16:0 17:-0 18:-0.238427 19:-0.157848 20:0.375089 21:0.0865 22:0 23:0 24:0 25:0 26:0 27:0 28:0 29:0 30:0 31:0 32:0 33:0 34:0 35:0 36:1 37:0 38:0 39:2 40:0 41:0 42:0 43:0 44:0 45:0 46:0 47:0 48:0 49:1 50:1 51:3 52:0 53:0 54:0 55:0 56:0 57:-2.61625 58:-2.70177 59:0.15708 60:-0.380482 61:0.174533 62:-2.02633 63:-2.61625 64:-2.70177 65:0.15708 66:-0.380482 67:0.174533 68:2.02633 
1 1:-0.958129 2:-0 3:0 4:0.286337 5:-0.299417 6:0.161674 7:0.0865 8:-0.998119 9:-0 10:0 11:0.0613008 12:0.285209 13:0.347481 14:0.0865 15:-0.97116 16:0 17:-0 18:-0.238427 19:-0.157848 20:0.375089 21:0.0865 22:0 23:0 24:0 25:0 26:0 27:0 28:0 29:0 30:0 31:0 32:0 33:0 34:0 35:0 36:1 37:0 38:0 39:3 40:0 41:0 42:0 43:0 44:0 45:0 46:0 47:0 48:0 49:1 50:2 51:0 52:0 53:0 54:1 55:0 56:1.74092 57:-2.61625 58:-2.70177 59:0.15708 60:-0.380482 61:0.174533 62:-2.02633 63:-1.11842 64:-0.139057 65:0.178757 66:-0.59651 67:-1.88123 68:2.01782 
-1 1:-0.958129 2:-0 3:0 4:0.286337 5:-0.299417 6:0.161674 7:0.0865 8:-0.998119 9:-0 10:0 11:0.0613008 12:0.285209 13:0.347481 14:0.0865 15:-0.97116 16:0 17:-0 18:-0.238427 19:-0.157848 20:0.375089 21:0.0865 22:0 23:0 24:0 25:0 26:0 27:0 28:0 29:0 30:0 31:0 32:0 33:0 34:0 35:0 36:1 37:0 38:0 39:3 40:0 41:0 42:0 43:0 44:0 45:0 46:0 47:0 48:0 49:1 50:2 51:0 52:0 53:0 54:1 55:0 56:2.58176 57:-2.61625 58:-2.70177 59:0.15708 60:-0.380482 61:0.174533 62:-2.02633 63:-1.05839 64:-0.430947 65:-0.884982 66:-0.403137 67:1.88164 68:-1.52623 
1 1:-0.958129 2:-0 3:0 4:0.286337 5:-0.299417 6:0.161674 7:0.0865 8:-0.998119 9:-0 10:0 11:0.0613008 12:0.285209 13:0.347481 14:0.0865 15:-0.97116 16:0 17:-0 18:-0.238427 19:-0.157848 20:0.375089 21:0.0865 22:0 23:0 24:0 25:0 26:0 27:0 28:0 29:0 30:0 31:0 32:0 33:0 34:0 35:0 36:1 37:0 38:0 39:3 40:0 41:0 42:0 43:0 44:0 45:0 46:0 47:0 48:0 49:1 50:2 51:0 52:4 53:0 54:1 55:0 56:1.74092 57:-2.61625 58:-2.70177 59:0.15708 60:-0.380482 61:0.174533 62:-2.02633 63:-1.11842 64:-0.139057 65:0.178757 66:-0.59651 67:-1.88123 68:2.01782 
-1 1:-0.958129 2:-0 3:0 4:0.286337 5:-0.299417 6:0.161674 7:0.0865 8:-0.998119 9:-0 10:0 11:0.0613008 12:0.285209 13:0.347481 14:0.0865 15:-0.97116 16:0 17:-0 18:-0.238427 19:-0.157848 20:0.375089 21:0.0865 22:0 23:0 24:0 25:0 26:0 27:0 28:0 29:0 30:0 31:0 32:0 33:0 34:0 35:0 36:1 37:0 38:0 39:3 40:0 41:0 42:0 43:0 44:0 45:0 46:0 47:0 48:0 49:1 50:2 51:0 52:4 53:0 54:1 55:0 56:2.58176 57:-2.61625 58:-2.70177 59:0.15708 60:-0.380482 61:0.174533 62:-2.02633 63:-1.05839 64:-0.430947 65:-0.884982 66:-0.403137 67:1.88164 68:-1.52623 
1 1:-0.958129 2:-0 3:0 4:0.286337 5:-0.299417 6:0.161674 7:0.0865 8:-0.998119 9:-0 10:0 11:0.0613008 12:0.285209 13:0.347481 14:0.0865 15:-0.97116 16:0 17:-0 18:-0.238427 19:-0.157848 20:0.375089 21:0.0865 22:0 23:0 24:0 25:0 26:0 27:0 28:0 29:0 30:0 31:0 32:0 33:0 34:0 35:0 36:1 37:0 38:0 39:3 40:0 41:0 42:0 43:0 44:0 45:0 46:0 47:0 48:0 49:1 50:2 51:4 52:0 53:0 54:1 55:0 56:1.74092 57:-2.61625 58:-2.70177 59:0.15708 60:-0.380482 61:0.174533 62:-2.02633 63:-1.11842 64:-0.139057 65:0.178757 66:-0.59651 67:-1.88123 68:2.01782 
-1 1:-0.958129 2:-0 3:0 4:0.286337 5:-0.299417 6:0.161674 7:0.0865 8:-0.998119 9:-0 10:0 11:0.0613008 12:0.285209 13:0.347481 14:0.0865 15:-0.97116 16:0 17:-0 18:-0.238427 19:-0.157848 20:0.375089 21:0.0865 22:0 23:0 24:0 25:0 26:0 27:0 28:0 29:0 30:0 31:0 32:0 33:0 34:0 35:0 36:1 37:0 38:0 39:3 40:0 41:0 42:0 43:0 44:0 45:0 46:0 47:0 48:0 49:1 50:2 51:4 52:0 53:0 54:1 55:0 56:2.58176 57:-2.61625 58:-2.70177 59:0.15708 60:-0.380482 61:0.174533 62:-2.02633 63:-1.05839 64:-0.430947 65:-0.884982 66:-0.403137 67:1.88164 68:-1.52623 
-1 1:-0.958129 2:-0 3:0 4:0.286337 5:-0.299417 6:0.161674 7:0.0865 8:-0.998119 9:-0 10:0 11:0.0613008 12:0.285209 13:0.347481 14:0.0865 15:-0.97116 16:0 17:-0 18:-0.238427 19:-0.157848 20:0.375089 21:0.0865 22:0 23:0 24:0 25:0 26:0 27:0 28:0 29:0 30:0 31:0 32:0 33:0 34:0 35:0 36:1 37:0 38:0 39:3 40:0 41:0 42:0 43:0 44:0 45:0 46:0 47:0 48:0 49:1 50:2 51:4 52:0 53:5 54:1 55:0 56:2.58176 57:-2.61625 58:-2.70177 59:0.15708 60:-0.380482 61:0.174533 62:-2.02633 63:-1.05839 64:-0.430947 65:-0.884982 66:-0.403137 67:1.88164 68:-1.52623 
-0.5591556046634111 1:-0.958129 2:-0 3:0 4:0.286337 5:-0.299417 6:0.161674 7:0.0865 8:-0.998119 9:-0 10:0 11:0.0613008 12:0.285209 13:0.347481 14:0.0865 15:-0.97116 16:0 17:-0 18:-0.238427 19:-0.157848 20:0.375089 21:0.0865 22:0 23:0 24:0 25:0 26:0 27:0 28:0 29:0 30:0 31:0 32:0 33:0 34:0 35:0 36:1 37:0 38:0 39:3 40:0 41:5 42:0 43:0 44:0 45:0 46:0 47:0 48:0 49:1 50:2 51:0 52:4 53:0 54:1 55:0 56:1.74092 57:-2.61625 58:-2.70177 59:0.15708 60:-0.380482 61:0.174533 62:-2.02633 63:-1.11842 64:-0.139057 65:0.178757 66:-0.59651 67:-1.88123 68:2.01782 
1 1:-0.958129 2:-0 3:0 4:0.286337 5:-0.299417 6:0.161674 7:0.0865 8:-0.998119 9:-0 10:0 11:0.0613008 12:0.285209 13:0.347481 14:0.0865 15:-0.97116 16:0 17:-0 18:-0.238427 19:-0.157848 20:0.375089 21:0.0865 22:0 23:0 24:0 25:0 26:0 27:0 28:0 29:0 30:0 31:0 32:0 33:0 34:0 35:0 36:1 37:0 38:0 39:3 40:0 41:5 42:0 43:0 44:0 45:0 46:0 47:0 48:0 49:1 50:2 51:6 52:4 53:0 54:1 55:0 56:1.74092 57:-2.61625 58:-2.70177 59:0.15708 60:-0.380482 61:0.174533 62:-2.02633 63:-1.11842 64:-0.139057 65:0.178757 66:-0.59651 67:-1.88123 68:2.01782 
-1 1:-0.958129 2:-0 3:0 4:0.286337 5:-0.299417 6:0.161674 7:0.0865 8:-0.998119 9:-0 10:0 11:0.0613008 12:0.285209 13:0.347481 14:0.0865 15:-0.97116 16:0 17:-0 18:-0.238427 19:-0.157848 20:0.375089 21:0.0865 22:0 23:0 24:0 25:0 26:0 27:0 28:0 29:0 30:0 31:0 32:0 33:0 34:0 35:0 36:1 37:0 38:0 39:3 40:5 41:0 42:0 43:0 44:0 45:0 46:0 47:0 48:0 49:1 50:2 51:0 52:4 53:0 54:1 55:0 56:2.58176 57:-2.61625 58:-2.70177 59:0.15708 60:-0.380482 61:0.174533 62:-2.02633 63:-1.05839 64:-0.430947 65:-0.884982 66:-0.403137 67:1.88164 68:-1.52623 
-1 1:-0.958129 2:-0 3:0 4:0.286337 5:-0.299417 6:0.161674 7:0.0865 8:-0.998119 9:-0 10:0 11:0.0613008 12:0.285209 13:0.347481 14:0.0865 15:-0.97116 16:0 17:-0 18:-0.238427 19:-0.157848 20:0.375089 21:0.0865 22:0 23:0 24:0 25:0 26:0 27:0 28:0 29:0 30:0 31:0 32:0 33:0 34:0 35:0 36:1 37:0 38:0 39:4 40:0 41:0 42:0 43:0 44:0 45:0 46:1 47:0 48:0 49:1 50:3 51:0 52:5 53:0 54:2 55:0 56:2.96706 57:-2.61625 58:-2.70177 59:0.15708 60:-0.380482 61:0.174533 62:-2.02633 63:-1.34068 64:-0.180707 65:-0.920166 66:-0.112174 67:1.82865 68:-1.43754 
-1 1:-0.958129 2:-0 3:0 4:0.286337 5:-0.299417 6:0.161674 7:0.0865 8:-0.998119 9:-0 10:0 11:0.0613008 12:0.285209 13:0.347481 14:0.0865 15:-0.97116 16:0 17:-0 18:-0.238427 19:-0.157848 20:0.375089 21:0.0865 22:0 23:0 24:0 25:0 26:0 27:0 28:0 29:0 30:0 31:0 32:0 33:0 34:0 35:0 36:1 37:0 38:0 39:4 40:0 41:0 42:0 43:0 44:0 45:0 46:1 47:0 48:0 49:1 50:3 51:5 52:0 53:0 54:2 55:0 56:2.96706 57:-2.61625 58:-2.70177 59:0.15708 60:-0.380482 61:0.174533 62:-2.02633 63:-1.34068 64:-0.180707 65:-0.920166 66:-0.112174 67:1.82865 68:-1.43754 
-1 1:-0.958129 2:-0 3:0 4:0.286337 5:-0.299417 6:0.161674 7:0.0865 8:-0.998119 9:-0 10:0 11:0.0613008 12:0.285209 13:0.347481 14:0.0865 15:-0.97116 16:0 17:-0 18:-0.238427 19:-0.157848 20:0.375089 21:0.0865 22:0 23:0 24:0 25:0 26:0 27:0 28:0 29:0 30:0 31:0 32:0 33:0 34:0 35:0 36:1 37:0 38:0 39:4 40:0 41:0 42:0 43:0 44:0 45:1 46:0 47:0 48:0 49:1 50:3 51:0 52:5 53:0 54:2 55:0 56:1.74092 57:-2.61625 58:-2.70177 59:0.15708 60:-0.380482 61:0.174533 62:-2.02633 63:-1.42797 64:-0.0587514 65:-0.578793 66:-0.750787 67:-1.87919 68:2.00896 
-1 1:-0.958129 2:-0 3:0 4:0.286337 5:-0.299417 6:0.161674 7:0.0865 8:-0.998119 9:-0 10:0 11:0.0613008 12:0.285209 13:0.347481 14:0.0865 15:-0.97116 16:0 17:-0 18:-0.238427 19:-0.157848 20:0.375089 21:0.0865 22:0 23:0 24:0 25:0 26:0 27:0 28:0 29:0 30:0 31:0 32:0 33:0 34:0 35:0 36:1 37:0 38:0 39:4 40:0 41:0 42:0 43:0 44:0 45:1 46:0 47:0 48:0 49:1 50:3 51:5 52:0 53:0 54:2 55:0 56:1.74092 57:-2.61625 58:-2.70177 59:0.15708 60:-0.380482 61:0.174533 62:-2.02633 63:-1.42797 64:-0.0587514 65:-0.578793 66:-0.750787 67:-1.87919 68:2.00896 
-0.3010488419167724 1:-0.958129 2:-0 3:0 4:0.286337 5:-0.299417 6:0.161674 7:0.0865 8:-0.998119 9:-0 10:0 11:0.0613008 12:0.285209 13:0.347481 14:0.0865 15:-0.97116 16:0 17:-0 18:-0.238427 19:-0.157848 20:0.375089 21:0.0865 22:0 23:0 24:0 25:0 26:0 27:0 28:0 29:0 30:0 31:0 32:0 33:0 34:0 35:0 36:1 37:0 38:0 39:4 40:0 41:6 42:0 43:0 44:0 45:1 46:0 47:0 48:0 49:0 50:3 51:0 52:5 53:0 54:2 55:0 56:1.74092 57:-2.61625 58:-2.70177 59:0.15708 60:-0.380482 61:0.174533 62:-2.02633 63:-1.42797 64:-0.0587514 65:-0.578793 66:-0.750787 67:-1.87919 68:2.00896 
-1 1:-0.958129 2:-0 3:0 4:0.286337 5:-0.299417 6:0.161674 7:0.0865 8:-0.998119 9:-0 10:0 11:0.0613008 12:0.285209 13:0.347481 14:0.0865 15:-0.97116 16:0 17:-0 18:-0.238427 19:-0.157848 20:0.375089 21:0.0865 22:0 23:0 24:0 25:0 26:0 27:0 28:0 29:0 30:0 31:0 32:0 33:0 34:0 35:0 36:1 37:0 38:0 39:4 40:0 41:6 42:0 43:0 44:0 45:1 46:0 47:0 48:0 49:1 50:3 51:7 52:5 53:0 54:2 55:0 56:1.74092 57:-2.61625 58:-2.70177 59:0.15708 60:-0.380482 61:0.174533 62:-2.02633 63:-1.42797 64:-0.0587514 65:-0.578793 66:-0.750787 67:-1.87919 68:2.00896 
-1 1:-0.958129 2:-0 3:0 4:0.286337 5:-0.299417 6:0.161674 7:0.0865 8:-0.998119 9:-0 10:0 11:0.0613008 12:0.285209 13:0.347481 14:0.0865 15:-0.97116 16:0 17:-0 18:-0.238427 19:-0.157848 20:0.375089 21:0.0865 22:0 23:0 24:0 25:0 26:0 27:0 28:0 29:0 30:0 31:0 32:0 33:0 34:0 35:0 36:1 37:0 38:0 39:4 40:6 41:0 42:0 43:0 44:0 45:0 46:1 47:0 48:0 49:0 50:3 51:0 52:5 53:0 54:2 55:0 56:2.96706 57:-2.61625 58:-2.70177 59:0.15708 60:-0.380482 61:0.174533 62:-2.02633 63:-1.34068 64:-0.180707 65:-0.920166 66:-0.112174 67:1.82865 68:-1.43754 
-1 1:-0.958129 2:-0 3:0 4:0.286337 5:-0.299417 6:0.161674 7:0.0865 8:-0.998119 9:-0 10:0 11:0.0613008 12:0.285209 13:0.347481 14:0.0865 15:-0.97116 16:0 17:-0 18:-0.238427 19:-0.157848 20:0.375089 21:0.0865 22:0 23:0 24:0 25:0 26:0 27:0 28:0 29:0 30:0 31:0 32:0 33:0 34:0 35:0 36:1 37:0 38:0 39:5 40:0 41:3 42:0 43:0 44:0 45:0 46:0 47:0 48:0 49:1 50:2 51:0 52:4 53:0 54:1 55:0 56:1.74092 57:-2.61625 58:-2.70177 59:0.15708 60:-0.380482 61:0.174533 62:-2.02633 63:-1.11842 64:-0.139057 65:0.178757 66:-0.59651 67:-1.88123 68:2.01782 
0.8694109952935114 1:-0.958129 2:-0 3:0 4:0.286337 5:-0.299417 6:0.161674 7:0.0865 8:-0.998119 9:-0 10:0 11:0.0613008 12:0.285209 13:0.347481 14:0.0865 15:-0.97116 16:0 17:-0 18:-0.238427 19:-0.157848 20:0.375089 21:0.0865 22:0 23:0 24:0 25:0 26:0 27:0 28:0 29:0 30:0 31:0 32:0 33:0 34:0 35:0 36:1 37:0 38:0 39:5 40:0 41:3 42:0 43:0 44:0 45:0 46:0 47:0 48:0 49:1 50:2 51:6 52:4 53:0 54:1 55:0 56:1.74092 57:-2.61625 58:-2.70177 59:0.15708 60:-0.380482 61:0.174533 62:-2.02633 63:-1.11842 64:-0.139057 65:0.178757 66:-0.59651 67:-1.88123 68:2.01782 
-1 1:-0.958129 2:-0 3:0 4:0.286337 5:-0.299417 6:0.161674 7:0.0865 8:-0.998119 9:-0 10:0 11:0.0613008 12:0.285209 13:0.347481 14:0.0865 15:-0.97116 16:0 17:-0 18:-0.238427 19:-0.157848 20:0.375089 21:0.0865 22:0 23:0 24:0 25:0 26:0 27:0 28:0 29:0 30:0 31:0 32:0 33:0 34:0 35:0 36:1 37:0 38:0 39:5 40:0 41:7 42:0 43:0 44:0 45:2 46:0 47:0 48:0 49:1 50:4 51:0 52:6 53:1 54:3 55:0 56:0 57:-2.61625 58:-2.70177 59:0.15708 60:-0.380482 61:0.174533 62:-2.02633 63:-2.61625 64:-2.70177 65:0.15708 66:-0.380482 67:0.174533 68:2.02633 
-1 1:-0.958129 2:-0 3:0 4:0.286337 5:-0.299417 6:0.161674 7:0.0865 8:-0.998119 9:-0 10:0 11:0.0613008 12:0.285209 13:0.347481 14:0.0865 15:-0.97116 16:0 17:-0 18:-0.238427 19:-0.157848 20:0.375089 21:0.0865 22:0 23:0 24:0 25:0 26:0 27:0 28:0 29:0 30:0 31:0 32:0 33:0 34:0 35:0 36:1 37:0 38:0 39:5 40:0 41:7 42:0 43:0 44:0 45:2 46:0 47:0 48:0 49:1 50:4 51:8 52:6 53:1 54:3 55:0 56:0 57:-2.61625 58:-2.70177 59:0.15708 60:-0.380482 61:0.174533 62:-2.02633 63:-2.61625 64:-2.70177 65:0.15708 66:-0.380482 67:0.174533 68:2.02633 
1 1:-0.958129 2:-0 3:0 4:0.286337 5:-0.299417 6:0.161674 7:0.0865 8:-0.998119 9:-0 10:0 11:0.0613008 12:0.285209 13:0.347481 14:0.0865 15:-0.97116 16:0 17:-0 18:-0.238427 19:-0.157848 20:0.375089 21:0.0865 22:0 23:0 24:0 25:0 26:0 27:0 28:0 29:0 30:0 31:0 32:0 33:0 34:0 35:0 36:1 37:0 38:0 39:5 40:3 41:0 42:0 43:0 44:0 45:0 46:0 47:0 48:0 49:1 50:2 51:0 52:4 53:0 54:1 55:0 56:2.58176 57:-2.61625 58:-2.70177 59:0.15708 60:-0.380482 61:0.174533 62:-2.02633 63:-1.05839 64:-0.430947 65:-0.884982 66:-0.403137 67:1.88164 68:-1.52623 
1 1:-0.958129 2:-0 3:0 4:0.286337 5:-0.299417 6:0.161674 7:0.0865 8:-0.998119 9:-0 10:0 11:0.0613008 12:0.285209 13:0.347481 14:0.0865 15:-0.97116 16:0 17:-0 18:-0.238427 19:-0.157848 20:0.375089 21:0.0865 22:0 23:0 24:0 25:0 26:0 27:0 28:0 29:0 30:0 31:0 32:0 33:0 34:0 35:0 36:1 37:0 38:0 39:5 40:3 41:0 42:0 43:0 44:0 45:0 46:0 47:0 48:0 49:1 50:2 51:6 52:4 53:0 54:1 55:0 56:2.58176 57:-2.61625 58:-2.70177 59:0.15708 60:-0.380482 61:0.174533 62:-2.02633 63:-1.05839 64:-0.430947 65:-0.884982 66:-0.403137 67:1.88164 68:-1.52623 
-1 1:-0.958129 2:-0 3:0 4:0.286337 5:-0.299417 6:0.161674 7:0.0865 8:-0.998119 9:-0 10:0 11:0.0613008 12:0.285209 13:0.347481 14:0.0865 15:-0.97116 16:0 17:-0 18:-0.238427 19:-0.157848 20:0.375089 21:0.0865 22:0 23:0 24:0 25:0 26:0 27:0 28:0 29:0 30:0 31:0 32:0 33:0 34:0 35:0 36:1 37:0 38:0 39:5 40:7 41:0 42:0 43:0 44:0 45:0 46:2 47:0 48:0 49:1 50:4 51:0 52:6 53:1 54:3 55:0 56:0 57:-2.61625 58:-2.70177 59:0.15708 60:-0.380482 61:0.174533 62:-2.02633 63:-2.61625 64:-2.70177 65:0.15708 66:-0.380482 67:0.174533 68:2.02633 
-1 1:-0.958129 2:-0 3:0 4:0.286337 5:-0.299417 6:0.161674 7:0.0865 8:-0.998119 9:-0 10:0 11:0.0613008 12:0.285209 13:0.347481 14:0.0865 15:-0.97116 16:0 17:-0 18:-0.238427 19:-0.157848 20:0.375089 21:0.0865 22:0 23:0 24:0 25:0 26:0 27:0 28:0 29:0 30:0 31:0 32:0 33:0 34:0 35:0 36:1 37:0 38:0 39:6 40:0 41:4 42:0 43:0 44:0 45:1 46:0 47:0 48:0 49:0 50:3 51:0 52:5 53:0 54:2 55:0 56:1.74092 57:-2.61625 58:-2.70177 59:0.15708 60:-0.380482 61:0.174533 62:-2.02633 63:-1.42797 64:-0.0587514 65:-0.578793 66:-0.750787 67:-1.87919 68:2.00896 
-1 1:-0.958129 2:-0 3:0 4:0.286337 5:-0.299417 6:0.161674 7:0.0865 8:-0.998119 9:-0 10:0 11:0.0613008 12:0.285209 13:0.347481 14:0.0865 15:-0.97116 16:0 17:-0 18:-0.238427 19:-0.157848 20:0.375089 21:0.0865 22:0 23:0 24:0 25:0 26:0 27:0 28:0 29:0 30:0 31:0 32:0 33:0 34:0 35:0 36:1 37:0 38:0 39:6 40:0 41:4 42:0 43:0 44:0 45:1 46:0 47:0 48:0 49:1 50:3 51:7 52:5 53:0 54:2 55:0 56:1.74092 57:-2.61625 58:-2.70177 59:0.15708 60:-0.380482 61:0.174533 62:-2.02633 63:-1.42797 64:-0.0587514 65:-0.578793 66:-0.750787 67:-1.87919 68:2.00896 
0.5595829232974908 1:-0.958129 2:-0 3:0 4:0.286337 5:-0.299417 6:0.161674 7:0.0865 8:-0.998119 9:-0 10:0 11:0.0613008 12:0.285209 13:0.347481 14:0.0865 15:-0.97116 16:0 17:-0 18:-0.238427 19:-0.157848 20:0.375089 21:0.0865 22:0 23:0 24:0 25:0 26:0 27:0 28:0 29:0 30:0 31:0 32:0 33:0 34:0 35:0 36:1 37:0 38:0 39:6 40:4 41:0 42:0 43:0 44:0 45:0 46:1 47:0 48:0 49:0 50:3 51:0 52:5 53:0 54:2 55:0 56:2.96706 57:-2.61625 58:-2.70177 59:0.15708 60:-0.380482 61:0.174533 62:-2.02633 63:-1.34068 64:-0.180707 65:-0.920166 66:-0.112174 67:1.82865 68:-1.43754 
-1 1:-0.958129 2:-0 3:0 4:0.286337 5:-0.299417 6:0.161674 7:0.0865 8:-0.998119 9:-0 10:0 11:0.0613008 12:0.285209 13:0.347481 14:0.0865 15:-0.97116 16:0 17:-0 18:-0.238427 19:-0.157848 20:0.375089 21:0.0865 22:0 23:0 24:0 25:0 26:0 27:0 28:0 29:0 30:0 31:0 32:0 33:0 34:0 35:0 36:1 37:0 38:0 39:7 40:0 41:5 42:0 43:0 44:0 45:2 46:0 47:0 48:0 49:1 50:4 51:0 52:6 53:1 54:3 55:0 56:0 57:-2.61625 58:-2.70177 59:0.15708 60:-0.380482 61:0.174533 62:-2.02633 63:-2.61625 64:-2.70177 65:0.15708 66:-0.380482 67:0.174533 68:2.02633 
-1 1:-0.958129 2:-0 3:0 4:0.286337 5:-0.299417 6:0.161674 7:0.0865 8:-0.998119 9:-0 10:0 11:0.0613008 12:0.285209 13:0.347481 14:0.0865 15:-0.97116 16:0 17:-0 18:-0.238427 19:-0.157848 20:0.375089 21:0.0865 22:0 23:0 24:0 25:0 26:0 27:0 28:0 29:0 30:0 31:0 32:0 33:0 34:0 35:0 36:1 37:0 38:0 39:7 40:0 41:5 42:0 43:0 44:0 45:2 46:0 47:0 48:0 49:1 50:4 51:8 52:6 53:1 54:3 55:0 56:0 57:-2.61625 58:-2.70177 59:0.15708 60:-0.380482 61:0.174533 62:-2.02633 63:-2.61625 64:-2.70177 65:0.15708 66:-0.380482 67:0.174533 68:2.02633 
1 1:-0.958129 2:-0 3:0 4:0.286337 5:-0.299417 6:0.161674 7:0.0865 8:-0.998119 9:-0 10:0 11:0.0613008 12:0.285209 13:0.347481 14:0.0865 15:-0.97116 16:0 17:-0 18:-0.238427 19:-0.157848 20:0.375089 21:0.0865 22:0 23:0 24:0 25:0 26:0 27:0 28:0 29:0 30:0 31:0 32:0 33:0 34:0 35:0 36:1 37:0 38:0 39:7 40:5 41:0 42:0 43:0 44:0 45:0 46:2 47:0 48:0 49:1 50:4 51:0 52:6 53:1 54:3 55:0 56:0 57:-2.61625 58:-2.70177 59:0.15708 60:-0.380482 61:0.174533 62:-2.02633 63:-2.61625 64:-2.70177 65:0.15708 66:-0.380482 67:0.174533 68:2.02633 
1 1:-0.958129 2:-0 3:0 4:0.286337 5:-0.299417 6:0.161674 7:0.0865 8:-0.998119 9:-0 10:0 11:0.0613008 12:0.285209 13:0.347481 14:0.0865 15:-0.97116 16:0 17:-0 18:-0.238427 19:-0.157848 20:0.375089 21:0.0865 22:0 23:0 24:0 25:0 26:0 27:0 28:0 29:0 30:0 31:0 32:0 33:0 34:0 35:0 36:1 37:0 38:0 39:7 40:5 41:0 42:0 43:0 44:0 45:0 46:2 47:0 48:0 49:1 50:4 51:8 52:6 53:1 54:3 55:0 56:0 57:-2.61625 58:-2.70177 59:0.15708 60:-0.380482 61:0.174533 62:-2.02633 63:-2.61625 64:-2.70177 65:0.15708 66:-0.380482 67:0.174533 68:2.02633 
0.8072713437339178 1:-0.958129 2:-0 3:0 4:0.286337 5:-0.299417 6:0.161674 7:0.0865 8:-0.998119 9:-0 10:0 11:0.0613008 12:0.285209 13:0.347481 14:0.0865 15:-0.97116 16:0 17:-0 18:-0.238427 19:-0.157848 20:0.375089 21:0.0865 22:0 23:0 24:0 25:0 26:0 27:0 28:0 29:0 30:0 31:0 32:0 33:0 34:0 35:0 36:1 37:0 38:1 39:0 40:0 41:1 42:0 43:0 44:0 45:0 46:0 47:0 48:0 49:0 50:0 51:0 52:0 53:0 54:0 55:0 56:0.884195 57:-1.262 58:-0.290367 59:1.0684 60:0.222657 61:-1.81839 62:1.38348 63:-2.61625 64:-2.70177 65:0.15708 66:-0.380482 67:0.174533 68:2.02633 
1 1:-0.958129 2:-0 3:0 4:0.286337 5:-0.299417 6:0.161674 7:0.0865 8:-0.998119 9:-0 10:0 11:0.0613008 12:0.285209 13:0.347481 14:0.0865 15:-0.97116 16:0 17:-0 18:-0.238427 19:-0.157848 20:0.375089 21:0.0865 22:0 23:0 24:0 25:0 26:0 27:0 28:0 29:0 30:0 31:0 32:0 33:0 34:0 35:0 36:1 37:0 38:1 39:0 40:1 41:0 42:0 43:0 44:0 45:0 46:0 47:0 48:0 49:0 50:0 51:0 52:0 53:0 54:0 55:0 56:0.138462 57:-0.969063 58:-0.450199 59:0.641553 60:-0.101255 61:-1.8781 62:1.38332 63:-2.61625 64:-2.70177 65:0.15708 66:-0.380482 67:0.174533 68:2.02633 
-1 1:-0.958129 2:-0 3:0 4:0.286337 5:-0.299417 6:0.161674 7:0.0865 8:-0.998119 9:-0 10:0 11:0.0613008 12:0.285209 13:0.347481 14:0.0865 15:1 16:0 17:0 18:0 19:0 20:0.49 21:0.0865 22:0 23:0 24:0 25:0 26:0 27:0 28:0 29:0 30:0 31:0 32:0 33:0 34:0 35:0 36:0 37:0 38:0 39:0 40:1 41:0 42:0 43:0 44:4 45:0 46:0 47:0 48:0 49:0 50:0 51:2 52:0 53:3 54:0 55:0 56:0.884195 57:-0.769957 58:-0.394881 59:-0.262602 60:-0.766728 61:2.03187 62:-2.17097 63:-2.61625 64:-2.70177 65:0.15708 66:-0.380482 67:0.174533 68:2.02633 
-1 1:-0.958129 2:-0 3:0 4:0.286337 5:-0.299417 6:0.161674 7:0.0865 8:-0.998119 9:-0 10:0 11:0.0613008 12:0.285209 13:0.347481 14:0.0865 15:1 16:0 17:0 18:0 19:0 20:0.49 21:0.0865 22:0 23:0 24:0 25:0 26:0 27:0 28:0 29:0 30:0 31:0 32:0 33:0 34:0 35:0 36:0 37:1 38:0 39:0 40:0 41:0 42:0 43:0 44:0 45:0 46:0 47:0 48:0 49:1 50:0 51:0 52:0 53:0 54:1 55:0 56:2.96706 57:-2.61625 58:-2.70177 59:0.15708 60:-0.380482 61:0.174533 62:-2.02633 63:-1.80384 64:0.449352 65:-0.601088 66:0.233735 67:-1.93913 68:1.71165 
1 1:-0.958129 2:-0 3:0 4:0.286337 5:-0.299417 6:0.161674 7:0.0865 8:-0.998119 9:-0 10:0 11:0.0613008 12:0.285209 13:0.347481 14:0.0865 15:1 16:0 17:0 18:0 19:0 20:0.49 21:0.0865 22:0 23:0 24:0 25:0 26:0 27:0 28:0 29:0 30:0 31:0 32:0 33:0 34:0 35:0 36:0 37:1 38:0 39:0 40:0 41:0 42:0 43:0 44:0 45:1 46:0 47:0 48:0 49:0 50:0 51:0 52:0 53:0 54:2 55:0 56:0.884195 57:-2.61625 58:-2.70177 59:0.15708 60:-0.380482 61:0.174533 62:-2.02633 63:-0.775726 64:-0.409996 65:0.231979 66:-0.872871 67:-2.05872 68:2.22855 
1 1:-0.958129 2:-0 3:0 4:0.286337 5:-0.299417 6:0.161674 7:0.0865 8:-0.998119 9:-0 10:0 11:0.0613008 12:0.285209 13:0.347481 14:0.0865 15:1 16:0 17:0 18:0 19:0 20:0.49 21:0.0865 22:0 23:0 24:0 25:0 26:0 27:0 28:0 29:0 30:0 31:0 32:0 33:0 34:0 35:0 36:0 37:1 38:0 39:0 40:0 41:0 42:0 43:0 44:0 45:3 46:0 47:0 48:0 49:1 50:0 51:1 52:0 53:2 54:0 55:0 56:0.884195 57:-1.43758 58:0.168122 59:-0.248973 60:0.638273 61:1.8614 62:-1.65594 63:-2.61625 64:-2.70177 65:0.15708 66:-0.380482 67:0.174533 68:2.02633 
-1 1:-0.958129 2:-0 3:0 4:0.286337 5:-0.299417 6:0.161674 7:0.0865 8:-0.998119 9:-0 10:0 11:0.0613008 12:0.285209 13:0.347481 14:0.0865 15:1 16:0 17:0 18:0 19:0 20:0.49 21:0.0865 22:0 23:0 24:0 25:0 26:0 27:0 28:0 29:0 30:0 31:0 32:0 33:0 34:0 35:0 36:0 37:1 38:0 39:0 40:0 41:0 42:0 43:0 44:3 45:0 46:0 47:0 48:0 49:1 50:0 51:1 52:0 53:2 54:0 55:0 56:0.884195 57:-1.35395 58:0.00828789 59:0.0889063 60:0.0480158 61:1.81103 62:-1.83075 63:-2.61625 64:-2.70177 65:0.15708 66:-0.380482 67:0.174533 68:2.02633 
1 1:-0.958129 2:-0 3:0 4:0.286337 5:-0.299417 6:0.161674 7:0.0865 8:-0.998119 9:-0 10:0 11:0.0613008 12:0.285209 13:0.347481 14:0.0865 15:1 16:0 17:0 18:0 19:0 20:0.49 21:0.0865 22:0 23:0 24:0 25:0 26:0 27:0 28:0 29:0 30:0 31:0 32:0 33:0 34:0 35:0 36:0 37:1 38:1 39:0 40:0 41:0 42:0 43:0 44:0 45:1 46:0 47:0 48:0 49:0 50:0 51:0 52:0 53:0 54:0 55:0 56:0.884195 57:-2.61625 58:-2.70177 59:0.15708 60:-0.380482 61:0.174533 62:-2.02633 63:-0.775726 64:-0.409996 65:0.231979 66:-0.872871 67:-2.05872 68:2.22855 
-0.6501884548990277 1:-0.958129 2:-0 3:0 4:0.286337 5:-0.299417 6:0.161674 7:0.0865 8:-0.998119 9:-0 10:0 11:0.0613008 12:0.285209 13:0.347481 14:0.0865 15:1 16:0 17:0 18:0 19:0 20:0.49 21:0.0865 22:0 23:0 24:0 25:0 26:0 27:0 28:0 29:0 30:0 31:0 32:0 33:0 34:0 35:0 36:1 37:0 38:0 39:0 40:0 41:0 42:0 43:0 44:0 45:0 46:0 47:0 48:0 49:1 50:0 51:0 52:1 53:0 54:0 55:0 56:0.884195 57:-1.43758 58:0.168122 59:-0.248973 60:0.638273 61:1.8614 62:-1.65594 63:-2.61625 64:-2.70177 65:0.15708 66:-0.380482 67:0.174533 68:2.02633 
-1 1:-0.958129 2:-0 3:0 4:0.286337 5:-0.299417 6:0.161674 7:0.0865 8:-0.998119 9:-0 10:0 11:0.0613008 12:0.285209 13:0.347481 14:0.0865 15:1 16:0 17:0 18:0 19:0 20:0.49 21:0.0865 22:0 23:0 24:0 25:0 26:0 27:0 28:0 29:0 30:0 31:0 32:0 33:0 34:0 35:0 36:1 37:0 38:0 39:0 40:0 41:0 42:0 43:0 44:0 45:0 46:0 47:0 48:0 49:1 50:1 51:0 52:0 53:0 54:0 55:0 56:2.58176 57:-2.61625 58:-2.70177 59:0.15708 60:-0.380482 61:0.174533 62:-2.02633 63:-2.61625 64:-2.70177 65:0.15708 66:-0.380482 67:0.174533 68:2.02633 
1 1:-0.958129 2:-0 3:0 4:0.286337 5:-0.299417 6:0.161674 7:0.0865 8:-0.998119 9:-0 10:0 11:0.0613008 12:0.285209 13:0.347481 14:0.0865 15:1 16:0 17:0 18:0 19:0 20:0.49 21:0.0865 22:0 23:0 24:0 25:0 26:0 27:0 28:0 29:0 30:0 31:0 32:0 33:0 34:0 35:0 36:1 37:0 38:0 39:0 40:1 41:0 42:0 43:0 44:0 45:0 46:0 47:0 48:0 49:0 50:0 51:2 52:0 53:0 54:0 55:0 56:0.884195 57:-0.769957 58:-0.394881 59:-0.262602 60:-0.766728 61:2.03187 62:-2.17097 63:-2.61625 64:-2.70177 65:0.15708 66:-0.380482 67:0.174533 68:2.02633 
-0.7870297467156885 1:-0.958129 2:-0 3:0 4:0.286337 5:-0.299417 6:0.161674 7:0.0865 8:-0.998119 9:-0 10:0 11:0.0613008 12:0.285209 13:0.347481 14:0.0865 15:1 16:0 17:0 18:0 19:0 20:0.49 21:0.0865 22:0 23:0 24:0 25:0 26:0 27:0 28:0 29:0 30:0 31:0 32:0 33:0 34:0 35:0 36:1 37:0 38:0 39:0 40:1 41:0 42:0 43:0 44:0 45:0 46:0 47:0 48:0 49:1 50:0 51:2 52:0 53:3 54:0 55:0 56:0.884195 57:-0.769957 58:-0.394881 59:-0.262602 60:-0.766728 61:2.03187 62:-2.17097 63:-2.61625 64:-2.70177 65:0.15708 66:-0.380482 67:0.174533 68:2.02633 
1 1:-0.958129 2:-0 3:0 4:0.286337 5:-0.299417 6:0.161674 7:0.0865 8:-0.998119 9:-0 10:0 11:0.0613008 12:0.285209 13:0.347481 14:0.0865 15:1 16:0 17:0 18:0 19:0 20:0.49 21:0.0865 22:0 23:0 24:0 25:0 26:0 27:0 28:0 29:0 30:0 31:0 32:0 33:0 34:0 35:0 36:1 37:0 38:0 39:0 40:2 41:0 42:0 43:0 44:0 45:0 46:0 47:0 48:0 49:0 50:0 51:0 52:1 53:0 54:0 55:0 56:0.884195 57:-1.43758 58:0.168122 59:-0.248973 60:0.638273 61:1.8614 62:-1.65594 63:-2.61625 64:-2.70177 65:0.15708 66:-0.380482 67:0.174533 68:2.02633 
1 1:-0.958129 2:-0 3:0 4:0.286337 5:-0.299417 6:0.161674 7:0.0865 8:-0.998119 9:-0 10:0 11:0.0613008 12:0.285209 13:0.347481 14:0.0865 15:1 16:0 17:0 18:0 19:0 20:0.49 21:0.0865 22:0 23:0 24:0 25:0 26:0 27:0 28:0 29:0 30:0 31:0 32:0 33:0 34:0 35:0 36:1 37:0 38:0 39:0 40:2 41:0 42:0 43:0 44:0 45:0 46:0 47:0 48:0 49:0 50:1 51:0 52:0 53:0 54:0 55:0 56:2.58176 57:-2.61625 58:-2.70177 59:0.15708 60:-0.380482 61:0.174533 62:-2.02633 63:-2.61625 64:-2.70177 65:0.15708 66:-0.380482 67:0.174533 68:2.02633 
1 1:-0.958129 2:-0 3:0 4:0.286337 5:-0.299417 6:0.161674 7:0.0865 8:-0.998119 9:-0 10:0 11:0.0613008 12:0.285209 13:0.347481 14:0.0865 15:1 16:0 17:0 18:0 19:0 20:0.49 21:0.0865 22:0 23:0 24:0 25:0 26:0 27:0 28:0 29:0 30:0 31:0 32:0 33:0 34:0 35:0 36:1 37:0 38:0 39:0 40:2 41:0 42:0 43:0 44:0 45:0 46:0 47:0 48:0 49:1 50:1 51:0 52:3 53:0 54:0 55:0 56:2.58176 57:-2.61625 58:-2.70177 59:0.15708 60:-0.380482 61:0.174533 62:-2.02633 63:-2.61625 64:-2.70177 65:0.15708 66:-0.380482 67:0.174533 68:2.02633 
1 1:-0.958129 2:-0 3:0 4:0.286337 5:-0.299417 6:0.161674 7:0.0865 8:-0.998119 9:-0 10:0 11:0.0613008 12:0.285209 13:0.347481 14:0.0865 15:1 16:0 17:0 18:0 19:0 20:0.49 21:0.0865 22:0 23:0 24:0 25:0 26:0 27:0 28:0 29:0 30:0 31:0 32:0 33:0 34:0 35:0 36:1 37:0 38:0 39:0 40:2 41:0 42:0 43:0 44:0 45:0 46:0 47:0 48:0 49:1 50:1 51:3 52:0 53:0 54:0 55:0 56:2.58176 57:-2.61625 58:-2.70177 59:0.15708 60:-0.380482 61:0.174533 62:-2.02633 63:-2.61625 64:-2.70177 65:0.15708 66:-0.380482 67:0.174533 68:2.02633 
1 1:-0.958129 2:-0 3:0 4:0.286337 5:-0.299417 6:0.161674 7:0.0865 8:-0.998119 9:-0 10:0 11:0.0613008 12:0.285209 13:0.347481 14:0.0865 15:1 16:0 17:0 18:0 19:0 20:0.49 21:0.0865 22:0 23:0 24:0 25:0 26:0 27:0 28:0 29:0 30:0 31:0 32:0 33:0 34:0 35:0 36:1 37:0 38:0 39:0 40:2 41:0 42:0 43:0 44:0 45:0 46:0 47:0 48:0 49:1 50:1 51:3 52:0 53:4 54:0 55:0 56:2.58176 57:-2.61625 58:-2.70177 59:0.15708 60:-0.380482 61:0.174533 62:-2.02633 63:-2.61625 64:-2.70177 65:0.15708 66:-0.380482 67:0.174533 68:2.02633 
1 1:-0.958129 2:-0 3:0 4:0.286337 5:-0.299417 6:0.161674 7:0.0865 8:-0.998119 9:-0 10:0 11:0.0613008 12:0.285209 13:0.347481 14:0.0865 15:1 16:0 17:0 18:0 19:0 20:0.49 21:0.0865 22:0 23:0 24:0 25:0 26:0 27:0 28:0 29:0 30:0 31:0 32:0 33:0 34:0 35:0 36:1 37:0 38:0 39:0 40:2 41:0 42:0 43:0 44:5 45:0 46:0 47:0 48:0 49:1 50:1 51:3 52:0 53:4 54:0 55:0 56:2.58176 57:-2.61625 58:-2.70177 59:0.15708 60:-0.380482 61:0.174533 62:-2.02633 63:-2.61625 64:-2.70177 65:0.15708 66:-0.380482 67:0.174533 68:2.02633 
-1 1:-0.958129 2:-0 3:0 4:0.286337 5:-0.299417 6:0.161674 7:0.0865 8:-0.998119 9:-0 10:0 11:0.0613008 12:0.285209 13:0.347481 14:0.0865 15:1 16:0 17:0 18:0 19:0 20:0.49 21:0.0865 22:0 23:0 24:0 25:0 26:0 27:0 28:0 29:0 30:0 31:0 32:0 33:0 34:0 35:0 36:1 37:0 38:0 39:1 40:0 41:0 42:0 43:0 44:0 45:0 46:0 47:0 48:0 49:0 50:0 51:0 52:2 53:0 54:0 55:0 56:2.58176 57:-1.01889 58:-0.239673 59:-0.0633068 60:-0.029033 61:-1.85171 62:1.31237 63:-2.61625 64:-2.70177 65:0.15708 66:-0.380482 67:0.174533 68:2.02633 
-1 1:-0.958129 2:-0 3:0 4:0.286337 5:-0.299417 6:0.161674 7:0.0865 8:-0.998119 9:-0 10:0 11:0.0613008 12:0.285209 13:0.347481 14:0.0865 15:1 16:0 17:0 18:0 19:0 20:0.49 21:0.0865 22:0 23:0 24:0 25:0 26:0 27:0 28:0 29:0 30:0 31:0 32:0 33:0 34:0 35:0 36:1 37:0 38:0 39:1 40:0 41:0 42:0 43:0 44:0 45:0 46:0 47:0 48:0 49:0 50:0 51:2 52:0 53:0 54:0 55:0 56:2.58176 57:-1.01889 58:-0.239673 59:-0.0633068 60:-0.029033 61:-1.85171 62:1.31237 63:-2.61625 64:-2.70177 65:0.15708 66:-0.380482 67:0.174533 68:2.02633 
-1 1:-0.958129 2:-0 3:0 4:0.286337 5:-0.299417 6:0.161674 7:0.0865 8:-0.998119 9:-0 10:0 11:0.0613008 12:0.285209 13:0.347481 14:0.0865 15:1 16:0 17:0 18:0 19:0 20:0.49 21:0.0865 22:0 23:0 24:0 25:0 26:0 27:0 28:0 29:0 30:0 31:0 32:0 33:0 34:0 35:0 36:1 37:0 38:0 39:1 40:0 41:0 42:0 43:0 44:0 45:0 46:0 47:0 48:0 49:1 50:0 51:2 52:0 53:3 54:0 55:0 56:2.58176 57:-1.01889 58:-0.239673 59:-0.0633068 60:-0.029033 61:-1.85171 62:1.31237 63:-2.61625 64:-2.70177 65:0.15708 66:-0.380482 67:0.174533 68:2.02633 
-0.1778672147064201 1:-0.958129 2:-0 3:0 4:0.286337 5:-0.299417 6:0.161674 7:0.0865 8:-0.998119 9:-0 10:0 11:0.0613008 12:0.285209 13:0.347481 14:0.0865 15:1 16:0 17:0 18:0 19:0 20:0.49 21:0.0865 22:0 23:0 24:0 25:0 26:0 27:0 28:0 29:0 30:0 31:0 32:0 33:0 34:0 35:0 36:1 37:0 38:0 39:2 40:0 41:0 42:0 43:0 44:0 45:0 46:0 47:0 48:0 49:0 50:0 51:0 52:1 53:0 54:0 55:0 56:0.884195 57:-1.35395 58:0.00828789 59:0.0889063 60:0.0480158 61:1.81103 62:-1.83075 63:-2.61625 64:-2.70177 65:0.15708 66:-0.380482 67:0.174533 68:2.02633 
-1 1:-0.958129 2:-0 3:0 4:0.286337 5:-0.299417 6:0.161674 7:0.0865 8:-0.998119 9:-0 10:0 11:0.0613008 12:0.285209 13:0.347481 14:0.0865 15:1 16:0 17:0 18:0 19:0 20:0.49 21:0.0865 22:0 23:0 24:0 25:0 26:0 27:0 28:0 29:0 30:0 31:0 32:0 33:0 34:0 35:0 36:1 37:0 38:0 39:2 40:0 41:0 42:0 43:0 44:0 45:0 46:0 47:0 48:0 49:0 50:1 51:0 52:0 53:0 54:0 55:0 56:2.58176 57:-2.61625 58:-2.70177 59:0.15708 60:-0.380482 61:0.174533 62:-2.02633 63:-2.61625 64:-2.70177 65:0.15708 66:-0.380482 67:0.174533 68:2.02633 
-1 1:-0.958129 2:-0 3:0 4:0.286337 5:-0.299417 6:0.161674 7:0.0865 8:-0.998119 9:-0 10:0 11:0.0613008 12:0.285209 13:0.347481 14:0.0865 15:1 16:0 17:0 18:0 19:0 20:0.49 21:0.0865 22:0 23:0 24:0 25:0 26:0 27:0 28:0 29:0 30:0 31:0 32:0 33:0 34:0 35:0 36:1 37:0 38:0 39:2 40:0 41:0 42:0 43:0 44:0 45:0 46:0 47:0 48:0 49:1 50:1 51:0 52:3 53:0 54:0 55:0 56:2.58176 57:-2.61625 58:-2.70177 59:0.15708 60:-0.380482 61:0.174533 62:-2.02633 63:-2.61625 64:-2.70177 65:0.15708 66:-0.380482 67:0.174533 68:2.02633 
-1 1:-0.958129 2:-0 3:0 4:0.286337 5:-0.299417 6:0.161674 7:0.0865 8:-0.998119 9:-0 10:0 11:0.0613008 12:0.285209 13:0.347481 14:0.0865 15:1 16:0 17:0 18:0 19:0 20:0.49 21:0.0865 22:0 23:0 24:0 25:0 26:0 27:0 28:0 29:0 30:0 31:0 32:0 33:0 34:0 35:0 36:1 37:0 38:0 39:2 40:0 41:0 42:0 43:0 44:0 45:0 46:0 47:0 48:0 49:1 50:1 51:3 52:0 53:0 54:0 55:0 56:2.58176 57:-2.61625 58:-2.70177 59:0.15708 60:-0.380482 61:0.174533 62:-2.02633 63:-2.61625 64:-2.70177 65:0.15708 66:-0.380482 67:0.174533 68:2.02633 
-1 1:-0.958129 2:-0 3:0 4:0.286337 5:-0.299417 6:0.161674 7:0.0865 8:-0.998119 9:-0 10:0 11:0.0613008 12:0.285209 13:0.347481 14:0.0865 15:1 16:0 17:0 18:0 19:0 20:0.49 21:0.0865 22:0 23:0 24:0 25:0 26:0 27:0 28:0 29:0 30:0 31:0 32:0 33:0 34:0 35:0 36:1 37:0 38:0 39:2 40:0 41:0 42:0 43:0 44:0 45:0 46:0 47:0 48:0 49:1 50:1 51:3 52:0 53:4 54:0 55:0 56:2.58176 57:-2.61625 58:-2.70177 59:0.15708 60:-0.380482 61:0.174533 62:-2.02633 63:-2.61625 64:-2.70177 65:0.15708 66:-0.380482 67:0.174533 68:2.02633 
-1 1:-0.958129 2:-0 3:0 4:0.286337 5:-0.299417 6:0.161674 7:0.0865 8:-0.998119 9:-0 10:0 11:0.0613008 12:0.285209 13:0.347481 14:0.0865 15:1 16:0 17:0 18:0 19:0 20:0.49 21:0.0865 22:0 23:0 24:0 25:0 26:0 27:0 28:0 29:0 30:0 31:0 32:0 33:0 34:0 35:0 36:1 37:0 38:0 39:2 40:0 41:0 42:0 43:0 44:0 45:5 46:0 47:0 48:0 49:1 50:1 51:3 52:0 53:4 54:0 55:0 56:2.58176 57:-2.61625 58:-2.70177 59:0.15708 60:-0.380482 61:0.174533 62:-2.02633 63:-2.61625 64:-2.70177 65:0.15708 66:-0.380482 67:0.174533 68:2.02633 
