FANN_FLO_2.1
num_layers=3
learning_rate=0.700000
connection_rate=1.000000
network_type=0
learning_momentum=0.000000
training_algorithm=2
train_error_function=1
train_stop_function=0
cascade_output_change_fraction=0.010000
quickprop_decay=-0.000100
quickprop_mu=1.750000
rprop_increase_factor=1.200000
rprop_decrease_factor=0.500000
rprop_delta_min=0.000000
rprop_delta_max=50.000000
rprop_delta_zero=0.100000
cascade_output_stagnation_epochs=12
cascade_candidate_change_fraction=0.010000
cascade_candidate_stagnation_epochs=12
cascade_max_out_epochs=150
cascade_min_out_epochs=50
cascade_max_cand_epochs=150
cascade_min_cand_epochs=50
cascade_num_candidate_groups=2
bit_fail_limit=3.49999994039535522461e-01
cascade_candidate_limit=1.00000000000000000000e+03
cascade_weight_multiplier=4.00000005960464477539e-01
cascade_activation_functions_count=10
cascade_activation_functions=3 5 7 8 10 11 14 15 16 17 
cascade_activation_steepnesses_count=4
cascade_activation_steepnesses=2.50000000000000000000e-01 5.00000000000000000000e-01 7.50000000000000000000e-01 1.00000000000000000000e+00 
layer_sizes=34 21 2 
scale_included=0
neurons (num_inputs, activation_function, activation_steepness)=(0, 0, 0.00000000000000000000e+00) (0, 0, 0.00000000000000000000e+00) (0, 0, 0.00000000000000000000e+00) (0, 0, 0.00000000000000000000e+00) (0, 0, 0.00000000000000000000e+00) (0, 0, 0.00000000000000000000e+00) (0, 0, 0.00000000000000000000e+00) (0, 0, 0.00000000000000000000e+00) (0, 0, 0.00000000000000000000e+00) (0, 0, 0.00000000000000000000e+00) (0, 0, 0.00000000000000000000e+00) (0, 0, 0.00000000000000000000e+00) (0, 0, 0.00000000000000000000e+00) (0, 0, 0.00000000000000000000e+00) (0, 0, 0.00000000000000000000e+00) (0, 0, 0.00000000000000000000e+00) (0, 0, 0.00000000000000000000e+00) (0, 0, 0.00000000000000000000e+00) (0, 0, 0.00000000000000000000e+00) (0, 0, 0.00000000000000000000e+00) (0, 0, 0.00000000000000000000e+00) (0, 0, 0.00000000000000000000e+00) (0, 0, 0.00000000000000000000e+00) (0, 0, 0.00000000000000000000e+00) (0, 0, 0.00000000000000000000e+00) (0, 0, 0.00000000000000000000e+00) (0, 0, 0.00000000000000000000e+00) (0, 0, 0.00000000000000000000e+00) (0, 0, 0.00000000000000000000e+00) (0, 0, 0.00000000000000000000e+00) (0, 0, 0.00000000000000000000e+00) (0, 0, 0.00000000000000000000e+00) (0, 0, 0.00000000000000000000e+00) (0, 0, 0.00000000000000000000e+00) (34, 6, 1.00000000000000000000e+00) (34, 6, 1.00000000000000000000e+00) (34, 6, 1.00000000000000000000e+00) (34, 6, 1.00000000000000000000e+00) (34, 6, 1.00000000000000000000e+00) (34, 6, 1.00000000000000000000e+00) (34, 6, 1.00000000000000000000e+00) (34, 6, 1.00000000000000000000e+00) (34, 6, 1.00000000000000000000e+00) (34, 6, 1.00000000000000000000e+00) (34, 6, 1.00000000000000000000e+00) (34, 6, 1.00000000000000000000e+00) (34, 6, 1.00000000000000000000e+00) (34, 6, 1.00000000000000000000e+00) (34, 6, 1.00000000000000000000e+00) (34, 6, 1.00000000000000000000e+00) (34, 6, 1.00000000000000000000e+00) (34, 6, 1.00000000000000000000e+00) (34, 6, 1.00000000000000000000e+00) (34, 6, 1.00000000000000000000e+00) (0, 6, 1.00000000000000000000e+00) (21, 6, 1.00000000000000000000e+00) (0, 6, 1.00000000000000000000e+00) 
connections (connected_to_neuron, weight)=(0, 1.46783947753906250000e+03) (1, -1.04953283691406250000e+03) (2, 1.50000000000000000000e+03) (3, 1.33962097167968750000e+03) (4, 6.47028137207031250000e+02) (5, 1.50000000000000000000e+03) (6, 1.35688447952270507812e+01) (7, -1.50000000000000000000e+03) (8, -1.37662315368652343750e+01) (9, 1.50000000000000000000e+03) (10, 1.44064404296875000000e+03) (11, -1.50000000000000000000e+03) (12, 1.49868408203125000000e+03) (13, -4.13401365280151367188e-01) (14, -1.47946228027343750000e+03) (15, 1.50000000000000000000e+03) (16, 1.50000000000000000000e+03) (17, 1.49789123535156250000e+03) (18, -8.22600097656250000000e+02) (19, 1.50000000000000000000e+03) (20, 1.50000000000000000000e+03) (21, 1.50000000000000000000e+03) (22, 1.50000000000000000000e+03) (23, -1.50000000000000000000e+03) (24, 1.50000000000000000000e+03) (25, 1.50000000000000000000e+03) (26, 1.50000000000000000000e+03) (27, 1.50000000000000000000e+03) (28, -1.50000000000000000000e+03) (29, 1.50000000000000000000e+03) (30, 1.50000000000000000000e+03) (31, 1.50000000000000000000e+03) (32, 1.50000000000000000000e+03) (33, -3.88729187011718750000e+02) (0, 1.49996435546875000000e+03) (1, 7.43288330078125000000e+02) (2, 1.50000000000000000000e+03) (3, 9.20006103515625000000e+01) (4, 1.22289855957031250000e+03) (5, 1.50000000000000000000e+03) (6, 1.11587257385253906250e+01) (7, -1.50000000000000000000e+03) (8, 1.44869970703125000000e+03) (9, 1.50000000000000000000e+03) (10, 1.50000000000000000000e+03) (11, -1.50000000000000000000e+03) (12, 4.78802856445312500000e+02) (13, 8.19785537719726562500e+01) (14, -1.48321545410156250000e+03) (15, 1.50000000000000000000e+03) (16, 1.50000000000000000000e+03) (17, -9.16443664550781250000e+02) (18, 8.66892517089843750000e+02) (19, 1.50000000000000000000e+03) (20, 1.49685742187500000000e+03) (21, 1.50000000000000000000e+03) (22, 1.50000000000000000000e+03) (23, -1.50000000000000000000e+03) (24, 1.50000000000000000000e+03) (25, 1.50000000000000000000e+03) (26, 1.50000000000000000000e+03) (27, 1.50000000000000000000e+03) (28, -1.50000000000000000000e+03) (29, 1.50000000000000000000e+03) (30, 1.50000000000000000000e+03) (31, 1.50000000000000000000e+03) (32, 1.50000000000000000000e+03) (33, 2.21528739929199218750e+01) (0, 1.22435266113281250000e+03) (1, -1.48463769531250000000e+03) (2, 6.45793090820312500000e+02) (3, 1.50000000000000000000e+03) (4, -1.48760437011718750000e+03) (5, -1.50000000000000000000e+03) (6, 1.11842632293701171875e+01) (7, 1.50000000000000000000e+03) (8, 1.43290759277343750000e+03) (9, -1.50000000000000000000e+03) (10, 1.23240966796875000000e+02) (11, 1.50000000000000000000e+03) (12, 9.48116882324218750000e+02) (13, -1.35212917327880859375e+01) (14, 8.71627502441406250000e+02) (15, -1.50000000000000000000e+03) (16, -1.50000000000000000000e+03) (17, 1.49351904296875000000e+03) (18, 1.09398315429687500000e+02) (19, -1.25423259735107421875e+01) (20, 1.26570068359375000000e+03) (21, -1.50000000000000000000e+03) (22, -1.50000000000000000000e+03) (23, 1.50000000000000000000e+03) (24, -1.50000000000000000000e+03) (25, -1.50000000000000000000e+03) (26, -9.05246337890625000000e+02) (27, -1.50000000000000000000e+03) (28, 1.50000000000000000000e+03) (29, -1.50000000000000000000e+03) (30, -1.50000000000000000000e+03) (31, -1.50000000000000000000e+03) (32, -1.50000000000000000000e+03) (33, 2.46454296112060546875e+01) (0, 7.81632568359375000000e+02) (1, 1.47363720703125000000e+03) (2, -2.78308044433593750000e+02) (3, -1.40824914550781250000e+03) (4, 1.49636694335937500000e+03) (5, 1.50000000000000000000e+03) (6, 5.04659385681152343750e+01) (7, -1.50000000000000000000e+03) (8, 1.22252856445312500000e+03) (9, 1.50000000000000000000e+03) (10, -2.26699905395507812500e+02) (11, -1.50000000000000000000e+03) (12, -9.92404098510742187500e+01) (13, 1.12796859741210937500e+02) (14, -1.25089819335937500000e+03) (15, 1.50000000000000000000e+03) (16, 1.50000000000000000000e+03) (17, -1.48115441894531250000e+03) (18, -2.12658157348632812500e+02) (19, -4.95281616210937500000e+02) (20, -1.29068786621093750000e+03) (21, 1.50000000000000000000e+03) (22, 1.50000000000000000000e+03) (23, -1.50000000000000000000e+03) (24, 1.50000000000000000000e+03) (25, 1.50000000000000000000e+03) (26, 1.04896716308593750000e+03) (27, 1.50000000000000000000e+03) (28, -1.37921765136718750000e+03) (29, 1.50000000000000000000e+03) (30, 1.50000000000000000000e+03) (31, 1.50000000000000000000e+03) (32, 1.50000000000000000000e+03) (33, 8.43647155761718750000e+01) (0, 2.31088104248046875000e+02) (1, 9.35528076171875000000e+02) (2, -1.08045800781250000000e+03) (3, 9.21692810058593750000e+02) (4, -5.27393859863281250000e+02) (5, 1.50000000000000000000e+03) (6, 5.88174247741699218750e+00) (7, -1.50000000000000000000e+03) (8, 1.44766394042968750000e+03) (9, 1.50000000000000000000e+03) (10, -1.25475341796875000000e+03) (11, -1.50000000000000000000e+03) (12, -2.35372943878173828125e+01) (13, 1.75597648620605468750e+01) (14, 1.33716613769531250000e+03) (15, 1.50000000000000000000e+03) (16, 1.50000000000000000000e+03) (17, 1.37708312988281250000e+03) (18, 1.45447607421875000000e+03) (19, -9.11762695312500000000e+02) (20, -1.29068786621093750000e+03) (21, 1.50000000000000000000e+03) (22, 1.50000000000000000000e+03) (23, -1.50000000000000000000e+03) (24, 1.50000000000000000000e+03) (25, 1.50000000000000000000e+03) (26, 1.08168286132812500000e+03) (27, 1.50000000000000000000e+03) (28, -1.37921765136718750000e+03) (29, 1.50000000000000000000e+03) (30, 1.50000000000000000000e+03) (31, 1.50000000000000000000e+03) (32, 1.50000000000000000000e+03) (33, 4.23269309997558593750e+01) (0, 1.32577624511718750000e+03) (1, 5.98448974609375000000e+02) (2, -6.32522155761718750000e+02) (3, 1.21928283691406250000e+03) (4, -3.47910156250000000000e+02) (5, -1.50000000000000000000e+03) (6, -1.09406604003906250000e+03) (7, 1.50000000000000000000e+03) (8, 4.74932373046875000000e+02) (9, -1.50000000000000000000e+03) (10, 1.44219213867187500000e+03) (11, 1.50000000000000000000e+03) (12, 4.95392089843750000000e+02) (13, -1.66400131225585937500e+02) (14, 9.74837112426757812500e+01) (15, -1.50000000000000000000e+03) (16, -1.50000000000000000000e+03) (17, 3.92267272949218750000e+02) (18, 1.17718920898437500000e+03) (19, 9.29783325195312500000e+02) (20, -6.65437988281250000000e+02) (21, -1.50000000000000000000e+03) (22, -1.50000000000000000000e+03) (23, 1.50000000000000000000e+03) (24, -1.50000000000000000000e+03) (25, -1.50000000000000000000e+03) (26, -1.50000000000000000000e+03) (27, -1.50000000000000000000e+03) (28, 1.50000000000000000000e+03) (29, -1.50000000000000000000e+03) (30, -1.50000000000000000000e+03) (31, -1.50000000000000000000e+03) (32, -1.50000000000000000000e+03) (33, 4.93496017456054687500e+01) (0, 1.49980065917968750000e+03) (1, 1.49816015625000000000e+03) (2, 8.58136596679687500000e+02) (3, -1.28213647460937500000e+03) (4, 1.28875012207031250000e+03) (5, 1.04965991210937500000e+03) (6, 1.08938121795654296875e+01) (7, -9.50355957031250000000e+02) (8, 1.46486535644531250000e+03) (9, 1.04965991210937500000e+03) (10, 1.43143542480468750000e+03) (11, -9.50355957031250000000e+02) (12, -1.40512829589843750000e+03) (13, -1.50789327621459960938e+01) (14, -2.19012832641601562500e+02) (15, 1.04965991210937500000e+03) (16, 1.04965991210937500000e+03) (17, -1.48258618164062500000e+03) (18, -4.35502227783203125000e+02) (19, 1.30891308593750000000e+03) (20, 1.49936108398437500000e+03) (21, 1.04965991210937500000e+03) (22, 1.04965991210937500000e+03) (23, -6.81600097656250000000e+02) (24, 1.04965991210937500000e+03) (25, 1.04965991210937500000e+03) (26, 1.34697692871093750000e+03) (27, 1.24999841308593750000e+03) (28, -1.29455456542968750000e+03) (29, 1.04965991210937500000e+03) (30, 1.08334619140625000000e+03) (31, 1.04965991210937500000e+03) (32, 1.04965991210937500000e+03) (33, 7.39845733642578125000e+01) (0, 1.05290502929687500000e+03) (1, -3.64490325927734375000e+02) (2, -1.49992041015625000000e+03) (3, 1.50000000000000000000e+03) (4, -1.33083288574218750000e+03) (5, -1.50000000000000000000e+03) (6, 1.10500574111938476562e+01) (7, 1.50000000000000000000e+03) (8, 1.06362707519531250000e+03) (9, -1.50000000000000000000e+03) (10, 5.01872497558593750000e+02) (11, 1.50000000000000000000e+03) (12, 1.49999914550781250000e+03) (13, -1.56824054718017578125e+01) (14, 1.50000000000000000000e+03) (15, -1.50000000000000000000e+03) (16, -1.50000000000000000000e+03) (17, 1.49591455078125000000e+03) (18, 1.50000000000000000000e+03) (19, -1.49100000000000000000e+03) (20, -1.48984265136718750000e+03) (21, -1.50000000000000000000e+03) (22, -1.50000000000000000000e+03) (23, 1.50000000000000000000e+03) (24, -1.50000000000000000000e+03) (25, -1.50000000000000000000e+03) (26, -1.50000000000000000000e+03) (27, -1.50000000000000000000e+03) (28, 1.50000000000000000000e+03) (29, -1.50000000000000000000e+03) (30, -1.50000000000000000000e+03) (31, -1.50000000000000000000e+03) (32, -1.50000000000000000000e+03) (33, 4.93147201538085937500e+01) (0, 1.02524536132812500000e+03) (1, 1.40464953613281250000e+03) (2, 1.50000000000000000000e+03) (3, -5.58182556152343750000e+02) (4, 1.49093823242187500000e+03) (5, 1.50000000000000000000e+03) (6, 4.45307779312133789062e+00) (7, -1.50000000000000000000e+03) (8, 1.47704321289062500000e+03) (9, 1.50000000000000000000e+03) (10, -1.12441479492187500000e+03) (11, -1.50000000000000000000e+03) (12, -1.18913305664062500000e+03) (13, -3.60437164306640625000e+01) (14, -1.18523826599121093750e+01) (15, 1.50000000000000000000e+03) (16, 1.50000000000000000000e+03) (17, -5.61102416992187500000e+02) (18, -1.23014892578125000000e+03) (19, 6.09733215332031250000e+02) (20, 6.42402648925781250000e+02) (21, 1.50000000000000000000e+03) (22, 1.50000000000000000000e+03) (23, -1.50000000000000000000e+03) (24, 1.50000000000000000000e+03) (25, 1.50000000000000000000e+03) (26, 1.50000000000000000000e+03) (27, 1.50000000000000000000e+03) (28, -1.50000000000000000000e+03) (29, 1.50000000000000000000e+03) (30, 1.50000000000000000000e+03) (31, 1.50000000000000000000e+03) (32, 1.50000000000000000000e+03) (33, 7.39967498779296875000e+01) (0, 6.81498107910156250000e+02) (1, 1.48801403808593750000e+03) (2, 4.60147918701171875000e+02) (3, -1.37243627929687500000e+03) (4, 1.31950256347656250000e+03) (5, 1.50000000000000000000e+03) (6, 1.22325019836425781250e+01) (7, -1.50000000000000000000e+03) (8, 1.55342664718627929688e+01) (9, 1.50000000000000000000e+03) (10, 1.33719677734375000000e+03) (11, -1.50000000000000000000e+03) (12, 1.34759252929687500000e+03) (13, 4.24480342864990234375e+00) (14, 1.02631677246093750000e+03) (15, 1.50000000000000000000e+03) (16, 1.50000000000000000000e+03) (17, -2.61910247802734375000e+02) (18, 1.69320449829101562500e+02) (19, -8.72303833007812500000e+02) (20, -9.37238708496093750000e+02) (21, 1.50000000000000000000e+03) (22, 1.50000000000000000000e+03) (23, -1.07656665039062500000e+03) (24, 1.50000000000000000000e+03) (25, 1.50000000000000000000e+03) (26, 8.41197692871093750000e+02) (27, 1.21839990234375000000e+03) (28, -9.15078735351562500000e+02) (29, 1.50000000000000000000e+03) (30, 1.50000000000000000000e+03) (31, 1.50000000000000000000e+03) (32, 1.50000000000000000000e+03) (33, 6.60881347656250000000e+01) (0, 5.54382873535156250000e+02) (1, -5.65415954589843750000e+02) (2, -1.50000000000000000000e+03) (3, 1.31975012207031250000e+03) (4, -8.97830993652343750000e+02) (5, -1.50000000000000000000e+03) (6, 1.20332212448120117188e+01) (7, 1.50000000000000000000e+03) (8, 1.47847143554687500000e+03) (9, -1.50000000000000000000e+03) (10, 1.45329895019531250000e+03) (11, 1.50000000000000000000e+03) (12, 1.49515795898437500000e+03) (13, 1.97017002105712890625e+01) (14, 1.50000000000000000000e+03) (15, -1.50000000000000000000e+03) (16, -1.50000000000000000000e+03) (17, 1.49834497070312500000e+03) (18, -1.19090408325195312500e+02) (19, -1.49100000000000000000e+03) (20, -1.48948486328125000000e+03) (21, -1.50000000000000000000e+03) (22, -1.50000000000000000000e+03) (23, 1.50000000000000000000e+03) (24, -1.50000000000000000000e+03) (25, -1.50000000000000000000e+03) (26, -1.50000000000000000000e+03) (27, -1.50000000000000000000e+03) (28, 1.50000000000000000000e+03) (29, -1.50000000000000000000e+03) (30, -1.50000000000000000000e+03) (31, -1.50000000000000000000e+03) (32, -1.50000000000000000000e+03) (33, 7.26968460083007812500e+01) (0, 1.30841760635375976562e+01) (1, 1.16126733398437500000e+03) (2, -1.13072668457031250000e+03) (3, 1.04716027832031250000e+03) (4, 1.38152038574218750000e+03) (5, 9.90800048828125000000e+02) (6, 9.51908206939697265625e+00) (7, -9.65800048828125000000e+02) (8, 1.11409472656250000000e+03) (9, 9.90800048828125000000e+02) (10, 7.71081176757812500000e+02) (11, -9.65800048828125000000e+02) (12, 6.03494033813476562500e+01) (13, -4.34069252014160156250e+01) (14, -1.36352380371093750000e+03) (15, 9.90800048828125000000e+02) (16, 9.90800048828125000000e+02) (17, -3.19525085449218750000e+02) (18, -9.15075195312500000000e+02) (19, -3.40973052978515625000e+02) (20, -2.22230930328369140625e+01) (21, 9.90800048828125000000e+02) (22, 9.90800048828125000000e+02) (23, -1.03577185058593750000e+03) (24, 9.90800048828125000000e+02) (25, 9.90800048828125000000e+02) (26, 1.07321179199218750000e+03) (27, 9.90800048828125000000e+02) (28, -1.21465881347656250000e+03) (29, 9.90800048828125000000e+02) (30, 9.90800048828125000000e+02) (31, 9.90800048828125000000e+02) (32, 9.90800048828125000000e+02) (33, 9.44618988037109375000e+01) (0, 1.34071630859375000000e+03) (1, 1.49801110839843750000e+03) (2, 1.45628344726562500000e+03) (3, -1.44650671386718750000e+03) (4, 1.48492114257812500000e+03) (5, 1.46040002441406250000e+03) (6, 1.06269178390502929688e+01) (7, -1.23903698730468750000e+03) (8, 1.48991687011718750000e+03) (9, 1.46040002441406250000e+03) (10, -6.22663696289062500000e+02) (11, -1.35040002441406250000e+03) (12, 1.32870605468750000000e+03) (13, -4.26382942199707031250e+01) (14, 1.96429092407226562500e+02) (15, 1.46040002441406250000e+03) (16, 1.46040002441406250000e+03) (17, -1.12586315917968750000e+03) (18, -1.00775317382812500000e+03) (19, 1.50000000000000000000e+03) (20, 1.49818652343750000000e+03) (21, 1.46040002441406250000e+03) (22, 1.46040002441406250000e+03) (23, -1.00913867187500000000e+03) (24, 1.46040002441406250000e+03) (25, 1.46040002441406250000e+03) (26, 1.27877856445312500000e+03) (27, 1.46040002441406250000e+03) (28, -9.94131896972656250000e+02) (29, 1.46040002441406250000e+03) (30, 1.46040002441406250000e+03) (31, 1.46040002441406250000e+03) (32, 1.46040002441406250000e+03) (33, 8.20838775634765625000e+01) (0, 1.36941430664062500000e+03) (1, -8.76683715820312500000e+02) (2, -1.29694665527343750000e+03) (3, 1.46901818847656250000e+03) (4, -3.19678363800048828125e+01) (5, -5.59199951171875000000e+02) (6, 3.91912341117858886719e+00) (7, 5.18399963378906250000e+02) (8, 1.45236755371093750000e+03) (9, -5.59199951171875000000e+02) (10, 1.39403332519531250000e+03) (11, 5.84199951171875000000e+02) (12, -1.77300704956054687500e+02) (13, 1.93746509552001953125e+01) (14, 1.44455468750000000000e+03) (15, -4.43399963378906250000e+02) (16, -4.43399963378906250000e+02) (17, 1.40654650878906250000e+03) (18, -1.17078332519531250000e+03) (19, 3.00094696044921875000e+02) (20, 1.49884167480468750000e+03) (21, -5.59199951171875000000e+02) (22, -5.59199951171875000000e+02) (23, 4.52599975585937500000e+02) (24, -5.59199951171875000000e+02) (25, -5.59199951171875000000e+02) (26, 3.74905029296875000000e+02) (27, -4.33999633789062500000e+01) (28, 2.14464981079101562500e+02) (29, -5.59199951171875000000e+02) (30, -4.43399963378906250000e+02) (31, -5.59199951171875000000e+02) (32, -5.59199951171875000000e+02) (33, -7.89432220458984375000e+01) (0, 1.18636352539062500000e+03) (1, 1.47246569824218750000e+03) (2, 1.13134692382812500000e+03) (3, -1.06571008300781250000e+03) (4, -3.27679168701171875000e+02) (5, -3.31600036621093750000e+02) (6, -4.69790878295898437500e+01) (7, 2.90800048828125000000e+02) (8, 1.49937792968750000000e+03) (9, -2.65800048828125000000e+02) (10, -7.72509033203125000000e+02) (11, 2.90800048828125000000e+02) (12, 3.20500274658203125000e+02) (13, -1.62388813495635986328e+00) (14, -7.00900421142578125000e+01) (15, -2.65800048828125000000e+02) (16, -2.65800048828125000000e+02) (17, 1.19185424804687500000e+02) (18, -2.76884185791015625000e+02) (19, 1.50000000000000000000e+03) (20, -1.75944614410400390625e+01) (21, -2.65800048828125000000e+02) (22, -2.65800048828125000000e+02) (23, 6.32061401367187500000e+02) (24, -2.65800048828125000000e+02) (25, -2.65800048828125000000e+02) (26, -4.35967041015625000000e+02) (27, -3.31600097656250000000e+02) (28, 8.27859680175781250000e+02) (29, -2.65800048828125000000e+02) (30, -2.65800048828125000000e+02) (31, -2.65800048828125000000e+02) (32, -2.65800048828125000000e+02) (33, 5.83039741516113281250e+01) (0, 1.49546594238281250000e+03) (1, 1.50000000000000000000e+03) (2, 1.50000000000000000000e+03) (3, -1.48913952636718750000e+03) (4, 1.38551147460937500000e+03) (5, 1.50000000000000000000e+03) (6, 1.31975393295288085938e+01) (7, -1.50000000000000000000e+03) (8, 1.46303283691406250000e+03) (9, 1.50000000000000000000e+03) (10, -6.11809387207031250000e+02) (11, -1.50000000000000000000e+03) (12, -1.49031921386718750000e+03) (13, 3.54074821472167968750e+01) (14, -1.49387902832031250000e+03) (15, 1.50000000000000000000e+03) (16, 1.50000000000000000000e+03) (17, -1.49994519042968750000e+03) (18, -1.48173815917968750000e+03) (19, 1.50000000000000000000e+03) (20, 1.50000000000000000000e+03) (21, 1.50000000000000000000e+03) (22, 1.50000000000000000000e+03) (23, -1.50000000000000000000e+03) (24, 1.50000000000000000000e+03) (25, 1.50000000000000000000e+03) (26, 1.50000000000000000000e+03) (27, 1.50000000000000000000e+03) (28, -1.50000000000000000000e+03) (29, 1.50000000000000000000e+03) (30, 1.50000000000000000000e+03) (31, 1.50000000000000000000e+03) (32, 1.50000000000000000000e+03) (33, 7.72024688720703125000e+01) (0, 1.19611352539062500000e+03) (1, 1.42605798339843750000e+03) (2, -9.28603881835937500000e+02) (3, -1.24836560058593750000e+03) (4, 1.11844494628906250000e+03) (5, -1.31940307617187500000e+02) (6, 8.48852825164794921875e+00) (7, 1.18465026855468750000e+02) (8, -3.23509490966796875000e+02) (9, -1.31940307617187500000e+02) (10, 1.46220581054687500000e+03) (11, 1.84265014648437500000e+02) (12, -4.86815521240234375000e+02) (13, -1.66529560089111328125e+01) (14, 1.07129431152343750000e+03) (15, -1.61403121948242187500e+01) (16, -1.61403121948242187500e+01) (17, 1.40815979003906250000e+02) (18, 1.49999182128906250000e+03) (19, -7.11716079711914062500e+01) (20, 1.49767846679687500000e+03) (21, -1.31940307617187500000e+02) (22, -1.31940307617187500000e+02) (23, -7.69964294433593750000e+01) (24, -1.31940307617187500000e+02) (25, -1.31940307617187500000e+02) (26, 4.75220428466796875000e+02) (27, 2.23574401855468750000e+02) (28, -4.09010314941406250000e+02) (29, -1.31940307617187500000e+02) (30, -1.61403198242187500000e+01) (31, -1.31940307617187500000e+02) (32, -1.31940307617187500000e+02) (33, 1.14869483947753906250e+02) (0, 9.02785339355468750000e+01) (1, 2.03351402282714843750e+01) (2, 4.53615753173828125000e+02) (3, 1.38684558105468750000e+03) (4, -9.54005676269531250000e+02) (5, -1.50000000000000000000e+03) (6, 2.05655937194824218750e+01) (7, 1.50000000000000000000e+03) (8, 7.64622985839843750000e+02) (9, -1.50000000000000000000e+03) (10, 7.50812683105468750000e+02) (11, 1.50000000000000000000e+03) (12, 1.07559899902343750000e+03) (13, 2.43721065521240234375e+01) (14, -1.61751617431640625000e+02) (15, -1.50000000000000000000e+03) (16, -1.50000000000000000000e+03) (17, 1.49673876953125000000e+03) (18, 1.41342443847656250000e+03) (19, 2.54227386474609375000e+02) (20, 1.23525711059570312500e+02) (21, -1.50000000000000000000e+03) (22, -1.50000000000000000000e+03) (23, 1.50000000000000000000e+03) (24, -1.50000000000000000000e+03) (25, -1.50000000000000000000e+03) (26, 2.18588409423828125000e+02) (27, -1.50000000000000000000e+03) (28, 1.50000000000000000000e+03) (29, -1.50000000000000000000e+03) (30, -1.50000000000000000000e+03) (31, -1.50000000000000000000e+03) (32, -1.50000000000000000000e+03) (33, 9.49509658813476562500e+01) (0, 5.19125610351562500000e+02) (1, -1.49916381835937500000e+03) (2, -1.50000000000000000000e+03) (3, 1.50000000000000000000e+03) (4, -1.45151208496093750000e+03) (5, -1.50000000000000000000e+03) (6, 1.47821325683593750000e+03) (7, 1.50000000000000000000e+03) (8, -1.12506994628906250000e+03) (9, -1.50000000000000000000e+03) (10, 1.39542663574218750000e+03) (11, 1.50000000000000000000e+03) (12, 1.49999841308593750000e+03) (13, 1.89140747070312500000e+02) (14, 1.50000000000000000000e+03) (15, -1.50000000000000000000e+03) (16, -1.50000000000000000000e+03) (17, 1.50000000000000000000e+03) (18, 1.50000000000000000000e+03) (19, -1.49100000000000000000e+03) (20, -1.42968041992187500000e+03) (21, -1.50000000000000000000e+03) (22, -1.50000000000000000000e+03) (23, 1.50000000000000000000e+03) (24, -1.50000000000000000000e+03) (25, -1.50000000000000000000e+03) (26, -1.50000000000000000000e+03) (27, -1.50000000000000000000e+03) (28, 1.50000000000000000000e+03) (29, -1.50000000000000000000e+03) (30, -1.50000000000000000000e+03) (31, -1.50000000000000000000e+03) (32, -1.50000000000000000000e+03) (33, 1.18100903320312500000e+03) (0, -3.69434020996093750000e+02) (1, 8.60385192871093750000e+02) (2, -1.50000000000000000000e+03) (3, 4.93041137695312500000e+02) (4, -1.13280810546875000000e+03) (5, -1.50000000000000000000e+03) (6, 3.42042961120605468750e+01) (7, 1.50000000000000000000e+03) (8, 1.00902343750000000000e+03) (9, -1.50000000000000000000e+03) (10, 2.16328063964843750000e+02) (11, 1.50000000000000000000e+03) (12, 1.49263806152343750000e+03) (13, 2.41716766357421875000e+01) (14, 1.17642517089843750000e+03) (15, -1.50000000000000000000e+03) (16, -1.50000000000000000000e+03) (17, 1.41012731933593750000e+03) (18, 1.49556188964843750000e+03) (19, -1.49100000000000000000e+03) (20, -1.48307141113281250000e+03) (21, -1.50000000000000000000e+03) (22, -1.50000000000000000000e+03) (23, 1.50000000000000000000e+03) (24, -1.50000000000000000000e+03) (25, -1.50000000000000000000e+03) (26, -1.50000000000000000000e+03) (27, -1.50000000000000000000e+03) (28, 1.50000000000000000000e+03) (29, -1.50000000000000000000e+03) (30, -1.50000000000000000000e+03) (31, -1.50000000000000000000e+03) (32, -1.50000000000000000000e+03) (33, 3.67520637512207031250e+01) (34, 2.03423872590065002441e-02) (35, 2.82515175640583038330e-02) (36, -4.54775989055633544922e-02) (37, 2.10384908132255077362e-03) (38, 9.25194025039672851562e-02) (39, -1.40985182952135801315e-03) (40, -6.96325441822409629822e-04) (41, -8.18670839071273803711e-02) (42, 3.34335565567016601562e-02) (43, 3.03987953811883926392e-02) (44, -9.03969183564186096191e-02) (45, -6.30670860409736633301e-02) (46, -8.09531135018914937973e-04) (47, -3.37390005588531494141e-02) (48, 4.90692518651485443115e-02) (49, 1.14634104073047637939e-01) (50, -1.20460446923971176147e-02) (51, -3.81218791007995605469e-02) (52, -3.39608917236328125000e+02) (53, -4.58859801292419433594e-02) (54, 3.40141357421875000000e+02) 
