FANN_FLO_2.1
num_layers=3
learning_rate=0.700000
connection_rate=1.000000
network_type=0
learning_momentum=0.000000
training_algorithm=2
train_error_function=1
train_stop_function=0
cascade_output_change_fraction=0.010000
quickprop_decay=-0.000100
quickprop_mu=1.750000
rprop_increase_factor=1.200000
rprop_decrease_factor=0.500000
rprop_delta_min=0.000000
rprop_delta_max=50.000000
rprop_delta_zero=0.100000
cascade_output_stagnation_epochs=12
cascade_candidate_change_fraction=0.010000
cascade_candidate_stagnation_epochs=12
cascade_max_out_epochs=150
cascade_min_out_epochs=50
cascade_max_cand_epochs=150
cascade_min_cand_epochs=50
cascade_num_candidate_groups=2
bit_fail_limit=3.49999994039535522461e-01
cascade_candidate_limit=1.00000000000000000000e+03
cascade_weight_multiplier=4.00000005960464477539e-01
cascade_activation_functions_count=10
cascade_activation_functions=3 5 7 8 10 11 14 15 16 17 
cascade_activation_steepnesses_count=4
cascade_activation_steepnesses=2.50000000000000000000e-01 5.00000000000000000000e-01 7.50000000000000000000e-01 1.00000000000000000000e+00 
layer_sizes=34 21 2 
scale_included=0
neurons (num_inputs, activation_function, activation_steepness)=(0, 0, 0.00000000000000000000e+00) (0, 0, 0.00000000000000000000e+00) (0, 0, 0.00000000000000000000e+00) (0, 0, 0.00000000000000000000e+00) (0, 0, 0.00000000000000000000e+00) (0, 0, 0.00000000000000000000e+00) (0, 0, 0.00000000000000000000e+00) (0, 0, 0.00000000000000000000e+00) (0, 0, 0.00000000000000000000e+00) (0, 0, 0.00000000000000000000e+00) (0, 0, 0.00000000000000000000e+00) (0, 0, 0.00000000000000000000e+00) (0, 0, 0.00000000000000000000e+00) (0, 0, 0.00000000000000000000e+00) (0, 0, 0.00000000000000000000e+00) (0, 0, 0.00000000000000000000e+00) (0, 0, 0.00000000000000000000e+00) (0, 0, 0.00000000000000000000e+00) (0, 0, 0.00000000000000000000e+00) (0, 0, 0.00000000000000000000e+00) (0, 0, 0.00000000000000000000e+00) (0, 0, 0.00000000000000000000e+00) (0, 0, 0.00000000000000000000e+00) (0, 0, 0.00000000000000000000e+00) (0, 0, 0.00000000000000000000e+00) (0, 0, 0.00000000000000000000e+00) (0, 0, 0.00000000000000000000e+00) (0, 0, 0.00000000000000000000e+00) (0, 0, 0.00000000000000000000e+00) (0, 0, 0.00000000000000000000e+00) (0, 0, 0.00000000000000000000e+00) (0, 0, 0.00000000000000000000e+00) (0, 0, 0.00000000000000000000e+00) (0, 0, 0.00000000000000000000e+00) (34, 6, 1.00000000000000000000e+00) (34, 6, 1.00000000000000000000e+00) (34, 6, 1.00000000000000000000e+00) (34, 6, 1.00000000000000000000e+00) (34, 6, 1.00000000000000000000e+00) (34, 6, 1.00000000000000000000e+00) (34, 6, 1.00000000000000000000e+00) (34, 6, 1.00000000000000000000e+00) (34, 6, 1.00000000000000000000e+00) (34, 6, 1.00000000000000000000e+00) (34, 6, 1.00000000000000000000e+00) (34, 6, 1.00000000000000000000e+00) (34, 6, 1.00000000000000000000e+00) (34, 6, 1.00000000000000000000e+00) (34, 6, 1.00000000000000000000e+00) (34, 6, 1.00000000000000000000e+00) (34, 6, 1.00000000000000000000e+00) (34, 6, 1.00000000000000000000e+00) (34, 6, 1.00000000000000000000e+00) (34, 6, 1.00000000000000000000e+00) (0, 6, 1.00000000000000000000e+00) (21, 6, 1.00000000000000000000e+00) (0, 6, 1.00000000000000000000e+00) 
connections (connected_to_neuron, weight)=(0, 5.38366027832031250000e+02) (1, 6.38798034667968750000e+02) (2, 1.09997082519531250000e+03) (3, 1.49813830566406250000e+03) (4, -1.06279089355468750000e+03) (5, -1.42102697753906250000e+03) (6, 1.50000000000000000000e+03) (7, 1.49482702636718750000e+03) (8, -4.35124893188476562500e+01) (9, 1.49050402832031250000e+03) (10, 1.48345397949218750000e+03) (11, 1.50000000000000000000e+03) (12, 1.48817126464843750000e+03) (13, 1.50000000000000000000e+03) (14, -7.69405212402343750000e+02) (15, 1.37777709960937500000e+03) (16, 1.37777709960937500000e+03) (17, -7.23858871459960937500e+01) (18, -6.39984436035156250000e+02) (19, 1.46512329101562500000e+03) (20, 1.37777709960937500000e+03) (21, -1.49265576171875000000e+03) (22, -1.39948522949218750000e+03) (23, 1.47884826660156250000e+03) (24, -6.24841430664062500000e+02) (25, -1.49999975585937500000e+03) (26, -4.58588943481445312500e+01) (27, 1.49999987792968750000e+03) (28, 1.42851013183593750000e+03) (29, 1.30434082031250000000e+03) (30, -6.88781555175781250000e+02) (31, -1.49420947265625000000e+03) (32, -1.49472827148437500000e+03) (33, -1.50000000000000000000e+03) (0, 3.79991073608398437500e+01) (1, 7.93513427734375000000e+02) (2, 6.69140075683593750000e+02) (3, 4.50847930908203125000e+02) (4, 1.49812988281250000000e+03) (5, 1.48911486816406250000e+03) (6, -1.29693054199218750000e+03) (7, 2.39421539306640625000e+02) (8, 1.42537243652343750000e+03) (9, -4.48398529052734375000e+02) (10, -7.23028320312500000000e+02) (11, -1.50000000000000000000e+03) (12, 9.34833618164062500000e+02) (13, -4.00050506591796875000e+02) (14, 1.40777661132812500000e+03) (15, 1.50000000000000000000e+03) (16, 1.50000000000000000000e+03) (17, 1.41823791503906250000e+03) (18, 7.02968933105468750000e+02) (19, 1.41628381347656250000e+03) (20, 1.50000000000000000000e+03) (21, 1.50000000000000000000e+03) (22, 1.49936254882812500000e+03) (23, -1.34434619140625000000e+03) (24, 6.31617309570312500000e+02) (25, 1.49999987792968750000e+03) (26, 1.49999987792968750000e+03) (27, 9.62826293945312500000e+02) (28, 6.30648742675781250000e+02) (29, -2.38207260131835937500e+02) (30, 1.36510046386718750000e+03) (31, 1.39394323730468750000e+03) (32, 1.49999987792968750000e+03) (33, 1.50000000000000000000e+03) (0, -7.51096313476562500000e+02) (1, -7.40759277343750000000e+02) (2, 1.08362316894531250000e+03) (3, 1.48557006835937500000e+03) (4, -9.25096069335937500000e+02) (5, -1.47399963378906250000e+03) (6, 1.50000000000000000000e+03) (7, 1.49112023925781250000e+03) (8, 6.58644226074218750000e+02) (9, 1.47918432617187500000e+03) (10, 1.34118408203125000000e+03) (11, 1.50000000000000000000e+03) (12, 5.83631958007812500000e+02) (13, 1.49364843750000000000e+03) (14, 5.00555389404296875000e+02) (15, -1.15252441406250000000e+03) (16, -1.15252441406250000000e+03) (17, 1.28698254394531250000e+03) (18, -7.18517944335937500000e+02) (19, -9.24928344726562500000e+02) (20, -1.15252441406250000000e+03) (21, 3.35820892333984375000e+02) (22, -1.46486169433593750000e+03) (23, 1.48712463378906250000e+03) (24, -4.67725524902343750000e+02) (25, -1.49999975585937500000e+03) (26, 1.92862045288085937500e+02) (27, 4.51647369384765625000e+02) (28, 1.41687817382812500000e+03) (29, 8.02591308593750000000e+02) (30, -6.03630493164062500000e+02) (31, -1.49654858398437500000e+03) (32, -1.49907409667968750000e+03) (33, -1.50000000000000000000e+03) (0, 1.38756506347656250000e+03) (1, 1.26283190917968750000e+03) (2, 9.04001770019531250000e+02) (3, 5.76390319824218750000e+02) (4, 1.49759045410156250000e+03) (5, 1.49668151855468750000e+03) (6, 5.10297454833984375000e+02) (7, -5.64529495239257812500e+01) (8, 1.49999987792968750000e+03) (9, 9.91834228515625000000e+02) (10, 1.28541406250000000000e+03) (11, -1.46194213867187500000e+03) (12, 1.34843017578125000000e+03) (13, 7.38729980468750000000e+02) (14, 1.46516992187500000000e+03) (15, 1.16142602539062500000e+03) (16, 1.16142602539062500000e+03) (17, 5.27876281738281250000e+02) (18, 1.33964367675781250000e+03) (19, -1.62567962646484375000e+02) (20, 1.16142602539062500000e+03) (21, 1.50000000000000000000e+03) (22, 1.48785791015625000000e+03) (23, 3.95777587890625000000e+01) (24, 9.36696228027343750000e+02) (25, 1.49999987792968750000e+03) (26, 9.63752136230468750000e+02) (27, 2.50476867675781250000e+02) (28, 8.85403137207031250000e+02) (29, -2.70699798583984375000e+02) (30, 1.41478393554687500000e+03) (31, 1.49868005371093750000e+03) (32, 1.49999987792968750000e+03) (33, 1.50000000000000000000e+03) (0, 6.64484481811523437500e+01) (1, 1.37320446777343750000e+03) (2, 1.43070202636718750000e+03) (3, 6.47132995605468750000e+02) (4, 1.12619946289062500000e+03) (5, 1.49476611328125000000e+03) (6, 8.97152099609375000000e+01) (7, 6.00470458984375000000e+02) (8, 1.49999987792968750000e+03) (9, 8.71317321777343750000e+02) (10, -1.88257675170898437500e+02) (11, 1.24155358886718750000e+03) (12, 1.21726074218750000000e+03) (13, 1.37224877929687500000e+03) (14, 1.45564294433593750000e+03) (15, 1.93327163696289062500e+02) (16, 1.93396987915039062500e+02) (17, 1.41061975097656250000e+03) (18, -2.62591003417968750000e+02) (19, 1.49176037597656250000e+03) (20, 1.93354263305664062500e+02) (21, 1.50000000000000000000e+03) (22, 1.49408569335937500000e+03) (23, -1.43729858398437500000e+03) (24, 1.23414404296875000000e+03) (25, 1.49999987792968750000e+03) (26, -1.95326980590820312500e+02) (27, 1.00480117797851562500e+02) (28, -3.79479248046875000000e+02) (29, 1.03911132812500000000e+03) (30, 1.43264758300781250000e+03) (31, 1.49861547851562500000e+03) (32, 1.49999987792968750000e+03) (33, 1.50000000000000000000e+03) (0, -1.36885656738281250000e+03) (1, 8.75846130371093750000e+02) (2, -4.07913787841796875000e+02) (3, 9.60261764526367187500e+01) (4, -2.19409606933593750000e+02) (5, -1.45732971191406250000e+03) (6, 1.50000000000000000000e+03) (7, -1.82266174316406250000e+02) (8, 1.17948999023437500000e+03) (9, 7.42049621582031250000e+02) (10, 1.43578759765625000000e+03) (11, 1.50000000000000000000e+03) (12, 2.19970283508300781250e+01) (13, 5.64911621093750000000e+02) (14, -1.75840423583984375000e+02) (15, 1.37609008789062500000e+03) (16, 1.37609008789062500000e+03) (17, 2.37672027587890625000e+02) (18, 1.34499389648437500000e+03) (19, 1.29579077148437500000e+03) (20, 1.37609008789062500000e+03) (21, -7.15296875000000000000e+02) (22, -1.49738916015625000000e+03) (23, 1.47222045898437500000e+03) (24, 8.02686309814453125000e+01) (25, -1.49999975585937500000e+03) (26, 2.62942077636718750000e+02) (27, 1.49999987792968750000e+03) (28, 1.41679016113281250000e+03) (29, 1.01959979248046875000e+03) (30, 9.71367370605468750000e+02) (31, -1.49656091308593750000e+03) (32, -1.49912780761718750000e+03) (33, -1.50000000000000000000e+03) (0, -3.20000885009765625000e+02) (1, -1.49606945800781250000e+03) (2, 1.49999987792968750000e+03) (3, 1.49873181152343750000e+03) (4, -9.71188293457031250000e+02) (5, -1.37643969726562500000e+03) (6, 1.50000000000000000000e+03) (7, 8.91457641601562500000e+02) (8, -1.45383117675781250000e+03) (9, 1.48477001953125000000e+03) (10, 1.49999987792968750000e+03) (11, 1.50000000000000000000e+03) (12, 1.43559948730468750000e+03) (13, 8.79153381347656250000e+02) (14, -2.83832397460937500000e+02) (15, 1.23654370117187500000e+03) (16, 1.23654370117187500000e+03) (17, 4.22974822998046875000e+02) (18, 2.35665451049804687500e+02) (19, -1.24390991210937500000e+03) (20, 1.23654370117187500000e+03) (21, -1.49934399414062500000e+03) (22, -1.45002612304687500000e+03) (23, 1.50000000000000000000e+03) (24, 9.82426025390625000000e+02) (25, -1.49831176757812500000e+03) (26, -9.97981506347656250000e+02) (27, 1.23019262695312500000e+03) (28, 1.41578393554687500000e+03) (29, 9.45676330566406250000e+02) (30, -1.29901867675781250000e+03) (31, -1.49632788085937500000e+03) (32, -1.46781018066406250000e+03) (33, -1.50000000000000000000e+03) (0, -1.02312701416015625000e+03) (1, 1.41916906738281250000e+03) (2, -7.71118103027343750000e+02) (3, 1.01369665527343750000e+03) (4, -1.23407910156250000000e+03) (5, -1.48500671386718750000e+03) (6, 1.50000000000000000000e+03) (7, 1.30593457031250000000e+03) (8, 5.19279785156250000000e+02) (9, 6.40454956054687500000e+02) (10, 1.49999987792968750000e+03) (11, 1.50000000000000000000e+03) (12, -1.08221240234375000000e+03) (13, -5.76076171875000000000e+02) (14, -1.21842956542968750000e+03) (15, 1.23513818359375000000e+03) (16, 1.23513818359375000000e+03) (17, -8.92378845214843750000e+02) (18, -6.48255493164062500000e+02) (19, -9.20632476806640625000e+01) (20, 1.23513818359375000000e+03) (21, -8.73203063964843750000e+02) (22, -1.34158129882812500000e+03) (23, 1.50000000000000000000e+03) (24, -2.51071197509765625000e+02) (25, -1.49999975585937500000e+03) (26, -2.03860473632812500000e+02) (27, 1.49999987792968750000e+03) (28, 1.48707763671875000000e+03) (29, 7.02985900878906250000e+02) (30, 9.34374572753906250000e+02) (31, -1.42563049316406250000e+03) (32, -1.49907409667968750000e+03) (33, -1.50000000000000000000e+03) (0, 5.75911193847656250000e+02) (1, -5.47622802734375000000e+02) (2, 1.45497229003906250000e+03) (3, 1.17467333984375000000e+03) (4, 1.49810388183593750000e+03) (5, 1.49469653320312500000e+03) (6, 8.54908081054687500000e+02) (7, 1.32486474609375000000e+03) (8, 1.73540939331054687500e+02) (9, 7.12284790039062500000e+02) (10, 5.03809143066406250000e+02) (11, -1.48392248535156250000e+03) (12, 9.92159362792968750000e+02) (13, -9.45188720703125000000e+02) (14, 1.05282531738281250000e+03) (15, 8.20264968872070312500e+01) (16, 8.20264968872070312500e+01) (17, 1.46050415039062500000e+03) (18, 1.37915466308593750000e+03) (19, 1.46931982421875000000e+03) (20, 8.20264968872070312500e+01) (21, 1.50000000000000000000e+03) (22, 1.49477929687500000000e+03) (23, -1.33328039550781250000e+03) (24, 1.34926342773437500000e+03) (25, 1.49999987792968750000e+03) (26, 1.49999987792968750000e+03) (27, 8.08949890136718750000e+02) (28, -1.04989892578125000000e+03) (29, 1.36709838867187500000e+03) (30, 1.40803100585937500000e+03) (31, 1.49847119140625000000e+03) (32, 1.49999987792968750000e+03) (33, 1.50000000000000000000e+03) (0, -8.22334957122802734375e+00) (1, 1.49567590332031250000e+03) (2, 1.38891577148437500000e+03) (3, 8.43398803710937500000e+02) (4, -3.03239269256591796875e+01) (5, 1.48970959472656250000e+03) (6, -5.28726196289062500000e+02) (7, -8.47679077148437500000e+02) (8, 1.48346630859375000000e+03) (9, 1.47008850097656250000e+03) (10, -2.04894882202148437500e+02) (11, -1.49478381347656250000e+03) (12, 5.70430908203125000000e+02) (13, -2.86979187011718750000e+02) (14, 1.44535742187500000000e+03) (15, 4.53727539062500000000e+02) (16, 4.53727539062500000000e+02) (17, 8.71476684570312500000e+02) (18, 1.19847119140625000000e+03) (19, 4.93240234375000000000e+02) (20, 4.53727539062500000000e+02) (21, 1.50000000000000000000e+03) (22, 1.49826513671875000000e+03) (23, -1.41546484375000000000e+03) (24, -9.20008544921875000000e+02) (25, 1.49999963378906250000e+03) (26, 1.34835424804687500000e+03) (27, 4.24605407714843750000e+02) (28, 4.32751892089843750000e+02) (29, -1.54302627563476562500e+02) (30, 6.80237731933593750000e+02) (31, 1.49843981933593750000e+03) (32, 1.49999987792968750000e+03) (33, 1.50000000000000000000e+03) (0, 1.28139709472656250000e+03) (1, 1.27159338378906250000e+03) (2, 1.01802313232421875000e+03) (3, 1.25914512634277343750e+02) (4, 1.32848876953125000000e+03) (5, -1.44422106933593750000e+03) (6, 1.50000000000000000000e+03) (7, 1.49637890625000000000e+03) (8, 1.18046411132812500000e+03) (9, 1.33094445800781250000e+03) (10, 1.49999987792968750000e+03) (11, 1.50000000000000000000e+03) (12, -6.39013488769531250000e+02) (13, -3.21906929016113281250e+01) (14, -7.94700866699218750000e+02) (15, 1.23616247558593750000e+03) (16, 1.23616247558593750000e+03) (17, 1.24916748046875000000e+03) (18, 3.56994140625000000000e+02) (19, 1.23679003906250000000e+03) (20, 1.23616247558593750000e+03) (21, 9.12827026367187500000e+02) (22, -1.46442639160156250000e+03) (23, 1.50000000000000000000e+03) (24, 1.33309375000000000000e+03) (25, -1.49999975585937500000e+03) (26, 1.30065026855468750000e+03) (27, 1.49999987792968750000e+03) (28, 1.34694360351562500000e+03) (29, -6.99958496093750000000e+02) (30, 4.78259582519531250000e+02) (31, -1.49655065917968750000e+03) (32, -1.49904858398437500000e+03) (33, -1.50000000000000000000e+03) (0, -6.66342285156250000000e+02) (1, -1.35904528808593750000e+03) (2, 5.02232849121093750000e+02) (3, 1.48526684570312500000e+03) (4, -1.49312145996093750000e+03) (5, -1.44513098144531250000e+03) (6, 1.50000000000000000000e+03) (7, 1.49722521972656250000e+03) (8, -5.16403625488281250000e+02) (9, 1.48250769042968750000e+03) (10, 1.47788427734375000000e+03) (11, 1.50000000000000000000e+03) (12, -5.11768890380859375000e+02) (13, 1.49270690917968750000e+03) (14, 1.29415942382812500000e+03) (15, -1.15080993652343750000e+03) (16, -1.15080993652343750000e+03) (17, 4.40264862060546875000e+02) (18, -6.03115112304687500000e+02) (19, -8.78802551269531250000e+02) (20, -1.15080993652343750000e+03) (21, -1.12956016540527343750e+02) (22, -1.49800561523437500000e+03) (23, 1.50000000000000000000e+03) (24, 9.02469238281250000000e+02) (25, -1.49999975585937500000e+03) (26, -8.58890914916992187500e+00) (27, 5.42372497558593750000e+02) (28, 1.42751708984375000000e+03) (29, 1.14589794921875000000e+03) (30, -8.00171997070312500000e+02) (31, -1.49667565917968750000e+03) (32, -1.46786938476562500000e+03) (33, -1.50000000000000000000e+03) (0, -7.43559814453125000000e+02) (1, -9.91619262695312500000e+02) (2, 9.48737304687500000000e+02) (3, 1.26303344726562500000e+03) (4, -7.29360961914062500000e+02) (5, 1.49455651855468750000e+03) (6, 1.75517333984375000000e+02) (7, 1.15760528564453125000e+02) (8, 1.49999987792968750000e+03) (9, 6.31789428710937500000e+02) (10, 1.22449926757812500000e+03) (11, 2.65057342529296875000e+02) (12, 4.27799865722656250000e+02) (13, 1.11951696777343750000e+03) (14, 1.41471936035156250000e+03) (15, 1.17463977050781250000e+03) (16, 1.17463977050781250000e+03) (17, 1.35485253906250000000e+03) (18, -1.81617462158203125000e+02) (19, 5.21752014160156250000e+01) (20, 1.17463977050781250000e+03) (21, 1.47769396972656250000e+03) (22, 1.49892736816406250000e+03) (23, 2.05428085327148437500e+02) (24, 4.03540649414062500000e+01) (25, 1.49999987792968750000e+03) (26, 1.49999987792968750000e+03) (27, -8.46794555664062500000e+02) (28, 1.40166857910156250000e+03) (29, 1.20908532714843750000e+03) (30, 1.43967456054687500000e+03) (31, 1.49633581542968750000e+03) (32, 1.49999987792968750000e+03) (33, 1.50000000000000000000e+03) (0, -2.70214691162109375000e+02) (1, 8.58250244140625000000e+02) (2, 1.49999987792968750000e+03) (3, 9.19367675781250000000e+02) (4, 6.88680786132812500000e+02) (5, -1.44697851562500000000e+03) (6, 1.48486572265625000000e+03) (7, -2.76060695648193359375e+01) (8, -1.08883166503906250000e+03) (9, 1.41230627441406250000e+03) (10, 1.49999987792968750000e+03) (11, 1.92857299804687500000e+02) (12, 6.43691162109375000000e+02) (13, 3.92990234375000000000e+02) (14, 6.00955139160156250000e+02) (15, 6.33463439941406250000e+02) (16, 6.33365661621093750000e+02) (17, 6.17140808105468750000e+02) (18, 1.49919042968750000000e+03) (19, 1.06209465026855468750e+02) (20, 6.33447692871093750000e+02) (21, 5.98425537109375000000e+02) (22, -1.38037426757812500000e+03) (23, -1.01376884460449218750e+02) (24, 1.01334814453125000000e+03) (25, -1.49999975585937500000e+03) (26, 5.40284851074218750000e+02) (27, 1.49999987792968750000e+03) (28, 1.39310290527343750000e+03) (29, 1.49253027343750000000e+03) (30, 9.68183105468750000000e+02) (31, -1.49657995605468750000e+03) (32, -1.49905029296875000000e+03) (33, -1.50000000000000000000e+03) (0, -5.28615234375000000000e+02) (1, 8.95929626464843750000e+02) (2, 1.49781115722656250000e+03) (3, 2.45688919067382812500e+02) (4, -1.21845385742187500000e+03) (5, -1.37606677246093750000e+03) (6, 1.50000000000000000000e+03) (7, 1.49636389160156250000e+03) (8, -6.80463684082031250000e+02) (9, 1.46009362792968750000e+03) (10, 1.24943664550781250000e+03) (11, 1.50000000000000000000e+03) (12, 2.48314266204833984375e+01) (13, 1.49853833007812500000e+03) (14, 1.04205883789062500000e+03) (15, 1.13310949707031250000e+03) (16, 1.13310949707031250000e+03) (17, -9.50542602539062500000e+02) (18, -6.01157165527343750000e+02) (19, 9.00792724609375000000e+02) (20, 1.13310949707031250000e+03) (21, -3.96320343017578125000e+01) (22, -1.49968664550781250000e+03) (23, 1.49991894531250000000e+03) (24, 5.94526916503906250000e+02) (25, -1.49927429199218750000e+03) (26, -5.33974670410156250000e+02) (27, -2.53743240356445312500e+02) (28, 1.41734814453125000000e+03) (29, 1.38814831542968750000e+03) (30, 5.22276306152343750000e+02) (31, -1.49656567382812500000e+03) (32, -1.49279895019531250000e+03) (33, -1.50000000000000000000e+03) (0, -5.19710731506347656250e+01) (1, 5.74593933105468750000e+02) (2, 1.37087695312500000000e+03) (3, 1.37020202636718750000e+03) (4, 1.49816589355468750000e+03) (5, 1.48959704589843750000e+03) (6, -1.47710534667968750000e+03) (7, 1.23622428894042968750e+02) (8, 8.88233642578125000000e+02) (9, 6.53677062988281250000e+02) (10, 1.12084777832031250000e+03) (11, -1.50000000000000000000e+03) (12, 5.96010986328125000000e+02) (13, 2.40076812744140625000e+02) (14, 1.37226708984375000000e+03) (15, 3.76932861328125000000e+02) (16, 3.76932861328125000000e+02) (17, -1.91882629394531250000e+01) (18, -4.25199005126953125000e+02) (19, 1.03601379394531250000e+03) (20, 3.76932861328125000000e+02) (21, 1.50000000000000000000e+03) (22, 1.49770141601562500000e+03) (23, -1.38662890625000000000e+03) (24, 6.53579406738281250000e+02) (25, 1.49999987792968750000e+03) (26, -8.81744018554687500000e+02) (27, 3.15834838867187500000e+02) (28, -7.79206848144531250000e+02) (29, 1.40820751953125000000e+03) (30, 1.85847183227539062500e+02) (31, 1.49868005371093750000e+03) (32, 1.49999987792968750000e+03) (33, 1.50000000000000000000e+03) (0, 3.75848602294921875000e+02) (1, 1.44124462890625000000e+03) (2, 1.37707287597656250000e+03) (3, 2.80247314453125000000e+02) (4, 1.49679602050781250000e+03) (5, 1.49636193847656250000e+03) (6, -9.47165649414062500000e+02) (7, 1.19315209960937500000e+03) (8, 1.47601281738281250000e+03) (9, -1.34874359130859375000e+02) (10, 1.22621325683593750000e+03) (11, -1.48608666992187500000e+03) (12, 1.49698730468750000000e+03) (13, 9.20816528320312500000e+02) (14, 1.37432116699218750000e+03) (15, 1.50000000000000000000e+03) (16, 1.50000000000000000000e+03) (17, 1.09679748535156250000e+03) (18, 1.46360095214843750000e+03) (19, 1.32766345214843750000e+03) (20, 1.50000000000000000000e+03) (21, 1.50000000000000000000e+03) (22, 1.48896545410156250000e+03) (23, -1.35346740722656250000e+03) (24, 1.32524890136718750000e+03) (25, 1.49999987792968750000e+03) (26, 1.49999987792968750000e+03) (27, 1.03174877929687500000e+03) (28, -9.37343872070312500000e+02) (29, -2.29064651489257812500e+02) (30, 1.40235070800781250000e+03) (31, 1.49865405273437500000e+03) (32, 1.49999987792968750000e+03) (33, 1.50000000000000000000e+03) (0, 2.26766418457031250000e+02) (1, 1.49876000976562500000e+03) (2, 1.40777551269531250000e+03) (3, -2.06107894897460937500e+02) (4, 1.49089587402343750000e+03) (5, 1.46674816894531250000e+03) (6, -1.17752514648437500000e+03) (7, 4.45834106445312500000e+02) (8, 1.49999987792968750000e+03) (9, 2.55080184936523437500e+02) (10, 1.36922985839843750000e+03) (11, -1.12632897949218750000e+03) (12, 3.57376495361328125000e+02) (13, 1.10113659667968750000e+03) (14, 1.38650683593750000000e+03) (15, 6.13284362792968750000e+02) (16, 6.13284362792968750000e+02) (17, -2.24188354492187500000e+02) (18, 1.34695458984375000000e+03) (19, 1.17087719726562500000e+03) (20, 6.13284362792968750000e+02) (21, 1.50000000000000000000e+03) (22, 1.49832775878906250000e+03) (23, -1.38945544433593750000e+03) (24, 9.31386413574218750000e+02) (25, 1.49999987792968750000e+03) (26, 1.49999987792968750000e+03) (27, 9.99088134765625000000e+02) (28, -7.16701049804687500000e+02) (29, 1.42012353515625000000e+03) (30, 1.42816076660156250000e+03) (31, 1.49870690917968750000e+03) (32, 1.49999987792968750000e+03) (33, 1.50000000000000000000e+03) (0, 1.59130081176757812500e+02) (1, -1.49569567871093750000e+03) (2, 1.49692089843750000000e+03) (3, 1.49851977539062500000e+03) (4, -7.21770263671875000000e+02) (5, -1.41063098144531250000e+03) (6, 1.50000000000000000000e+03) (7, 3.38917663574218750000e+02) (8, 5.91237731933593750000e+02) (9, 1.48418847656250000000e+03) (10, 1.16680187988281250000e+03) (11, 1.50000000000000000000e+03) (12, 1.36670104980468750000e+03) (13, 9.18301757812500000000e+02) (14, -1.26748376464843750000e+03) (15, 8.97513732910156250000e+02) (16, 8.97513732910156250000e+02) (17, -8.04930358886718750000e+02) (18, 1.17357934570312500000e+03) (19, -3.03567199707031250000e+02) (20, 8.97513732910156250000e+02) (21, -1.50000000000000000000e+03) (22, -1.48348522949218750000e+03) (23, 1.43895410156250000000e+03) (24, 3.13587005615234375000e+02) (25, -1.49835327148437500000e+03) (26, -1.08741406250000000000e+03) (27, 1.02615441894531250000e+03) (28, 1.43233007812500000000e+03) (29, 1.02701220703125000000e+03) (30, -1.25779809570312500000e+03) (31, -1.49564697265625000000e+03) (32, -1.43798291015625000000e+03) (33, -1.50000000000000000000e+03) (0, 5.75803833007812500000e+02) (1, 8.26451965332031250000e+02) (2, 1.14567260742187500000e+03) (3, 3.12942138671875000000e+02) (4, -1.03964208984375000000e+03) (5, -1.42919982910156250000e+03) (6, 1.50000000000000000000e+03) (7, 1.31009643554687500000e+03) (8, 1.10585607910156250000e+03) (9, 1.48368164062500000000e+03) (10, 1.31490954589843750000e+03) (11, 5.16624572753906250000e+02) (12, 1.45851733398437500000e+03) (13, 9.79071716308593750000e+02) (14, -2.85002258300781250000e+02) (15, 1.28130810546875000000e+03) (16, 1.28130810546875000000e+03) (17, 5.91113525390625000000e+02) (18, -1.42081909179687500000e+03) (19, 5.62590454101562500000e+02) (20, 1.28130810546875000000e+03) (21, -1.05799609375000000000e+03) (22, -1.49307336425781250000e+03) (23, 1.47905004882812500000e+03) (24, 1.69729782104492187500e+02) (25, -1.49999975585937500000e+03) (26, -1.56533538818359375000e+02) (27, 1.49999987792968750000e+03) (28, 1.31477258300781250000e+03) (29, 1.06087951660156250000e+03) (30, -1.27632678222656250000e+03) (31, -1.49662109375000000000e+03) (32, -1.49279895019531250000e+03) (33, -1.50000000000000000000e+03) (34, -1.49999975585937500000e+03) (35, 1.49593750000000000000e+03) (36, -1.50000000000000000000e+03) (37, 1.50000000000000000000e+03) (38, 1.49999987792968750000e+03) (39, -1.49999975585937500000e+03) (40, -1.49997314453125000000e+03) (41, -1.49999975585937500000e+03) (42, 1.50000000000000000000e+03) (43, 3.57352172851562500000e+02) (44, -1.49999975585937500000e+03) (45, -1.49999804687500000000e+03) (46, 1.21716186523437500000e+03) (47, -1.49999975585937500000e+03) (48, -1.49999975585937500000e+03) (49, 1.48009875488281250000e+03) (50, 1.50000000000000000000e+03) (51, 1.44922875976562500000e+03) (52, -1.49999975585937500000e+03) (53, -1.49999975585937500000e+03) (54, 1.50000000000000000000e+03) 
