FANN_FLO_2.1
num_layers=3
learning_rate=0.700000
connection_rate=1.000000
network_type=0
learning_momentum=0.000000
training_algorithm=2
train_error_function=1
train_stop_function=0
cascade_output_change_fraction=0.010000
quickprop_decay=-0.000100
quickprop_mu=1.750000
rprop_increase_factor=1.200000
rprop_decrease_factor=0.500000
rprop_delta_min=0.000000
rprop_delta_max=50.000000
rprop_delta_zero=0.100000
cascade_output_stagnation_epochs=12
cascade_candidate_change_fraction=0.010000
cascade_candidate_stagnation_epochs=12
cascade_max_out_epochs=150
cascade_min_out_epochs=50
cascade_max_cand_epochs=150
cascade_min_cand_epochs=50
cascade_num_candidate_groups=2
bit_fail_limit=3.49999994039535522461e-01
cascade_candidate_limit=1.00000000000000000000e+03
cascade_weight_multiplier=4.00000005960464477539e-01
cascade_activation_functions_count=10
cascade_activation_functions=3 5 7 8 10 11 14 15 16 17 
cascade_activation_steepnesses_count=4
cascade_activation_steepnesses=2.50000000000000000000e-01 5.00000000000000000000e-01 7.50000000000000000000e-01 1.00000000000000000000e+00 
layer_sizes=34 21 2 
scale_included=0
neurons (num_inputs, activation_function, activation_steepness)=(0, 0, 0.00000000000000000000e+00) (0, 0, 0.00000000000000000000e+00) (0, 0, 0.00000000000000000000e+00) (0, 0, 0.00000000000000000000e+00) (0, 0, 0.00000000000000000000e+00) (0, 0, 0.00000000000000000000e+00) (0, 0, 0.00000000000000000000e+00) (0, 0, 0.00000000000000000000e+00) (0, 0, 0.00000000000000000000e+00) (0, 0, 0.00000000000000000000e+00) (0, 0, 0.00000000000000000000e+00) (0, 0, 0.00000000000000000000e+00) (0, 0, 0.00000000000000000000e+00) (0, 0, 0.00000000000000000000e+00) (0, 0, 0.00000000000000000000e+00) (0, 0, 0.00000000000000000000e+00) (0, 0, 0.00000000000000000000e+00) (0, 0, 0.00000000000000000000e+00) (0, 0, 0.00000000000000000000e+00) (0, 0, 0.00000000000000000000e+00) (0, 0, 0.00000000000000000000e+00) (0, 0, 0.00000000000000000000e+00) (0, 0, 0.00000000000000000000e+00) (0, 0, 0.00000000000000000000e+00) (0, 0, 0.00000000000000000000e+00) (0, 0, 0.00000000000000000000e+00) (0, 0, 0.00000000000000000000e+00) (0, 0, 0.00000000000000000000e+00) (0, 0, 0.00000000000000000000e+00) (0, 0, 0.00000000000000000000e+00) (0, 0, 0.00000000000000000000e+00) (0, 0, 0.00000000000000000000e+00) (0, 0, 0.00000000000000000000e+00) (0, 0, 0.00000000000000000000e+00) (34, 6, 1.00000000000000000000e+00) (34, 6, 1.00000000000000000000e+00) (34, 6, 1.00000000000000000000e+00) (34, 6, 1.00000000000000000000e+00) (34, 6, 1.00000000000000000000e+00) (34, 6, 1.00000000000000000000e+00) (34, 6, 1.00000000000000000000e+00) (34, 6, 1.00000000000000000000e+00) (34, 6, 1.00000000000000000000e+00) (34, 6, 1.00000000000000000000e+00) (34, 6, 1.00000000000000000000e+00) (34, 6, 1.00000000000000000000e+00) (34, 6, 1.00000000000000000000e+00) (34, 6, 1.00000000000000000000e+00) (34, 6, 1.00000000000000000000e+00) (34, 6, 1.00000000000000000000e+00) (34, 6, 1.00000000000000000000e+00) (34, 6, 1.00000000000000000000e+00) (34, 6, 1.00000000000000000000e+00) (34, 6, 1.00000000000000000000e+00) (0, 6, 1.00000000000000000000e+00) (21, 6, 1.00000000000000000000e+00) (0, 6, 1.00000000000000000000e+00) 
connections (connected_to_neuron, weight)=(0, 1.50000000000000000000e+03) (1, 1.50000000000000000000e+03) (2, 1.50000000000000000000e+03) (3, -1.50000000000000000000e+03) (4, 1.45220788574218750000e+03) (5, 1.50000000000000000000e+03) (6, 1.50000000000000000000e+03) (7, 1.50000000000000000000e+03) (8, 1.50000000000000000000e+03) (9, -1.50000000000000000000e+03) (10, -1.50000000000000000000e+03) (11, 1.50000000000000000000e+03) (12, 1.50000000000000000000e+03) (13, 1.50000000000000000000e+03) (14, 1.49170019531250000000e+03) (15, 1.50000000000000000000e+03) (16, -1.50000000000000000000e+03) (17, 4.01471679687500000000e+02) (18, 1.50000000000000000000e+03) (19, 4.55177215576171875000e+02) (20, 1.38658361816406250000e+03) (21, 1.50000000000000000000e+03) (22, 1.50000000000000000000e+03) (23, -2.48190246582031250000e+02) (24, -1.50000000000000000000e+03) (25, 1.50000000000000000000e+03) (26, 1.50000000000000000000e+03) (27, 1.50000000000000000000e+03) (28, 1.08750219726562500000e+03) (29, 1.50000000000000000000e+03) (30, 1.50000000000000000000e+03) (31, 1.50000000000000000000e+03) (32, 1.50000000000000000000e+03) (33, 1.50000000000000000000e+03) (0, 1.50000000000000000000e+03) (1, 1.50000000000000000000e+03) (2, 1.50000000000000000000e+03) (3, -1.50000000000000000000e+03) (4, 1.45222485351562500000e+03) (5, 1.50000000000000000000e+03) (6, 1.50000000000000000000e+03) (7, 1.50000000000000000000e+03) (8, 1.50000000000000000000e+03) (9, -1.50000000000000000000e+03) (10, -1.50000000000000000000e+03) (11, 1.50000000000000000000e+03) (12, 1.50000000000000000000e+03) (13, 1.50000000000000000000e+03) (14, 9.21993408203125000000e+02) (15, 1.50000000000000000000e+03) (16, -1.50000000000000000000e+03) (17, 4.01471679687500000000e+02) (18, 1.50000000000000000000e+03) (19, 9.57013671875000000000e+02) (20, 1.25732104492187500000e+03) (21, 1.50000000000000000000e+03) (22, 1.50000000000000000000e+03) (23, -2.27913635253906250000e+02) (24, -1.50000000000000000000e+03) (25, 1.50000000000000000000e+03) (26, 1.50000000000000000000e+03) (27, 1.50000000000000000000e+03) (28, 1.08750219726562500000e+03) (29, 1.50000000000000000000e+03) (30, 1.50000000000000000000e+03) (31, 1.50000000000000000000e+03) (32, 1.50000000000000000000e+03) (33, 1.50000000000000000000e+03) (0, 1.50000000000000000000e+03) (1, 1.50000000000000000000e+03) (2, 1.50000000000000000000e+03) (3, -1.50000000000000000000e+03) (4, 1.45222460937500000000e+03) (5, 1.50000000000000000000e+03) (6, 1.50000000000000000000e+03) (7, 1.50000000000000000000e+03) (8, 1.50000000000000000000e+03) (9, -1.50000000000000000000e+03) (10, -1.50000000000000000000e+03) (11, 1.50000000000000000000e+03) (12, 1.50000000000000000000e+03) (13, 1.50000000000000000000e+03) (14, 1.50000000000000000000e+03) (15, 1.50000000000000000000e+03) (16, -1.50000000000000000000e+03) (17, 4.01471679687500000000e+02) (18, 1.50000000000000000000e+03) (19, 4.55171264648437500000e+02) (20, 1.34014941406250000000e+03) (21, 1.50000000000000000000e+03) (22, 1.50000000000000000000e+03) (23, -2.48171325683593750000e+02) (24, -1.50000000000000000000e+03) (25, 1.50000000000000000000e+03) (26, 1.50000000000000000000e+03) (27, 1.50000000000000000000e+03) (28, 1.08750219726562500000e+03) (29, 1.50000000000000000000e+03) (30, 1.50000000000000000000e+03) (31, 1.50000000000000000000e+03) (32, 1.50000000000000000000e+03) (33, 1.50000000000000000000e+03) (0, 1.50000000000000000000e+03) (1, 1.50000000000000000000e+03) (2, 1.50000000000000000000e+03) (3, -1.50000000000000000000e+03) (4, 1.45222387695312500000e+03) (5, 1.50000000000000000000e+03) (6, 1.50000000000000000000e+03) (7, 1.50000000000000000000e+03) (8, 1.50000000000000000000e+03) (9, -1.50000000000000000000e+03) (10, -1.50000000000000000000e+03) (11, 1.50000000000000000000e+03) (12, 1.50000000000000000000e+03) (13, 1.50000000000000000000e+03) (14, 1.50000000000000000000e+03) (15, 1.50000000000000000000e+03) (16, -1.50000000000000000000e+03) (17, 4.01471679687500000000e+02) (18, 1.50000000000000000000e+03) (19, 4.55171691894531250000e+02) (20, 1.25046789550781250000e+03) (21, 1.50000000000000000000e+03) (22, 1.50000000000000000000e+03) (23, -2.48190124511718750000e+02) (24, -1.50000000000000000000e+03) (25, 1.50000000000000000000e+03) (26, 1.50000000000000000000e+03) (27, 1.50000000000000000000e+03) (28, 1.08750219726562500000e+03) (29, 1.50000000000000000000e+03) (30, 1.50000000000000000000e+03) (31, 1.50000000000000000000e+03) (32, 1.50000000000000000000e+03) (33, 1.50000000000000000000e+03) (0, 1.50000000000000000000e+03) (1, 1.50000000000000000000e+03) (2, 1.50000000000000000000e+03) (3, -1.50000000000000000000e+03) (4, 1.43989050292968750000e+03) (5, 1.50000000000000000000e+03) (6, 4.22102241516113281250e+01) (7, 1.50000000000000000000e+03) (8, 1.50000000000000000000e+03) (9, -1.50000000000000000000e+03) (10, -1.50000000000000000000e+03) (11, 1.50000000000000000000e+03) (12, 1.50000000000000000000e+03) (13, 4.95538970947265625000e+02) (14, 2.54197120666503906250e+01) (15, 1.50000000000000000000e+03) (16, -1.50000000000000000000e+03) (17, 4.01471679687500000000e+02) (18, 1.50000000000000000000e+03) (19, 9.40769042968750000000e+02) (20, 4.11009368896484375000e+01) (21, 1.50000000000000000000e+03) (22, 1.50000000000000000000e+03) (23, 1.25192670822143554688e+01) (24, -1.50000000000000000000e+03) (25, 1.50000000000000000000e+03) (26, 1.50000000000000000000e+03) (27, 1.50000000000000000000e+03) (28, 1.08750219726562500000e+03) (29, 1.50000000000000000000e+03) (30, 1.50000000000000000000e+03) (31, 1.50000000000000000000e+03) (32, 1.50000000000000000000e+03) (33, 4.21489639282226562500e+01) (0, 1.49886474609375000000e+03) (1, 1.50000000000000000000e+03) (2, 1.50000000000000000000e+03) (3, 1.50000000000000000000e+03) (4, 8.83806945800781250000e+02) (5, 1.49883642578125000000e+03) (6, -3.06534004211425781250e+01) (7, 1.29848022460937500000e+03) (8, -1.50000000000000000000e+03) (9, 1.50000000000000000000e+03) (10, 1.50000000000000000000e+03) (11, -1.50000000000000000000e+03) (12, 1.49880603027343750000e+03) (13, 3.48897552490234375000e+02) (14, -2.34181995391845703125e+01) (15, -1.50000000000000000000e+03) (16, 1.49643688964843750000e+03) (17, 1.41850720214843750000e+03) (18, -1.49362060546875000000e+03) (19, 3.34275390625000000000e+02) (20, -3.07635059356689453125e+01) (21, -1.50000000000000000000e+03) (22, -1.50000000000000000000e+03) (23, 1.36739547729492187500e+02) (24, 1.50000000000000000000e+03) (25, -1.50000000000000000000e+03) (26, 1.40526904296875000000e+03) (27, -1.50000000000000000000e+03) (28, 3.28133544921875000000e+02) (29, -1.50000000000000000000e+03) (30, 1.18981530761718750000e+03) (31, -1.50000000000000000000e+03) (32, -1.50000000000000000000e+03) (33, -3.07515125274658203125e+01) (0, -1.49129321289062500000e+03) (1, 1.50000000000000000000e+03) (2, 1.50000000000000000000e+03) (3, 1.50000000000000000000e+03) (4, -1.29426635742187500000e+03) (5, -1.49999987792968750000e+03) (6, 1.39137011718750000000e+03) (7, 8.33688842773437500000e+02) (8, -1.50000000000000000000e+03) (9, 1.50000000000000000000e+03) (10, 1.50000000000000000000e+03) (11, -1.50000000000000000000e+03) (12, -1.15802343750000000000e+03) (13, 1.38260180664062500000e+03) (14, 8.03135864257812500000e+02) (15, -1.50000000000000000000e+03) (16, 1.50000000000000000000e+03) (17, 2.68272827148437500000e+02) (18, -1.46627685546875000000e+03) (19, 1.34852673339843750000e+03) (20, 8.67642089843750000000e+02) (21, -1.50000000000000000000e+03) (22, -1.50000000000000000000e+03) (23, 6.60009094238281250000e+02) (24, 1.50000000000000000000e+03) (25, -1.50000000000000000000e+03) (26, 1.39681994628906250000e+03) (27, -1.50000000000000000000e+03) (28, 1.66324172973632812500e+02) (29, -1.50000000000000000000e+03) (30, -1.20929618835449218750e+02) (31, -1.50000000000000000000e+03) (32, -1.50000000000000000000e+03) (33, 1.39137011718750000000e+03) (0, 1.50000000000000000000e+03) (1, 1.50000000000000000000e+03) (2, 1.50000000000000000000e+03) (3, -1.50000000000000000000e+03) (4, 1.21840954589843750000e+03) (5, 6.33346984863281250000e+02) (6, 4.55811309814453125000e+01) (7, 2.56103878021240234375e+01) (8, 1.50000000000000000000e+03) (9, -1.50000000000000000000e+03) (10, -1.50000000000000000000e+03) (11, 1.50000000000000000000e+03) (12, 1.06930627441406250000e+03) (13, 1.10937210083007812500e+02) (14, 3.31276054382324218750e+01) (15, 1.49999780273437500000e+03) (16, -7.52214111328125000000e+02) (17, -1.04169799804687500000e+03) (18, 1.09624194335937500000e+03) (19, 6.11047485351562500000e+02) (20, 4.57326545715332031250e+01) (21, 1.50000000000000000000e+03) (22, 1.50000000000000000000e+03) (23, 1.50000000000000000000e+03) (24, -1.50000000000000000000e+03) (25, 1.50000000000000000000e+03) (26, 8.62817687988281250000e+01) (27, 1.50000000000000000000e+03) (28, 1.08750219726562500000e+03) (29, 1.50000000000000000000e+03) (30, 9.39530578613281250000e+02) (31, 1.50000000000000000000e+03) (32, 1.50000000000000000000e+03) (33, 4.54892616271972656250e+01) (0, -1.48624975585937500000e+03) (1, 1.50000000000000000000e+03) (2, 1.50000000000000000000e+03) (3, 1.50000000000000000000e+03) (4, -1.31622766113281250000e+03) (5, -1.48628637695312500000e+03) (6, 1.38868444824218750000e+03) (7, -2.64354919433593750000e+02) (8, -1.50000000000000000000e+03) (9, 1.50000000000000000000e+03) (10, 1.50000000000000000000e+03) (11, -1.50000000000000000000e+03) (12, -1.48047509765625000000e+03) (13, 1.09949877929687500000e+03) (14, 6.62512451171875000000e+02) (15, -1.50000000000000000000e+03) (16, 1.50000000000000000000e+03) (17, 6.85427246093750000000e+01) (18, 2.11110244750976562500e+02) (19, 1.49887866210937500000e+03) (20, 8.59496337890625000000e+02) (21, -1.50000000000000000000e+03) (22, -1.50000000000000000000e+03) (23, 6.60014709472656250000e+02) (24, 1.50000000000000000000e+03) (25, -1.50000000000000000000e+03) (26, 1.47111926269531250000e+03) (27, -1.50000000000000000000e+03) (28, 9.37154998779296875000e+01) (29, -1.50000000000000000000e+03) (30, -4.50339202880859375000e+01) (31, -1.50000000000000000000e+03) (32, -1.50000000000000000000e+03) (33, 1.38868444824218750000e+03) (0, 1.50000000000000000000e+03) (1, 1.50000000000000000000e+03) (2, 1.50000000000000000000e+03) (3, -1.50000000000000000000e+03) (4, 1.45210864257812500000e+03) (5, 1.50000000000000000000e+03) (6, 1.50000000000000000000e+03) (7, 1.50000000000000000000e+03) (8, 1.50000000000000000000e+03) (9, -1.50000000000000000000e+03) (10, -1.50000000000000000000e+03) (11, 1.50000000000000000000e+03) (12, 1.50000000000000000000e+03) (13, 1.50000000000000000000e+03) (14, 1.50000000000000000000e+03) (15, 1.50000000000000000000e+03) (16, -1.50000000000000000000e+03) (17, 4.27280578613281250000e+02) (18, 1.50000000000000000000e+03) (19, 4.55169311523437500000e+02) (20, 1.26229211425781250000e+03) (21, 1.50000000000000000000e+03) (22, 1.50000000000000000000e+03) (23, -2.48178863525390625000e+02) (24, -1.50000000000000000000e+03) (25, 1.50000000000000000000e+03) (26, 1.50000000000000000000e+03) (27, 1.50000000000000000000e+03) (28, 1.08750219726562500000e+03) (29, 1.50000000000000000000e+03) (30, 1.50000000000000000000e+03) (31, 1.50000000000000000000e+03) (32, 1.50000000000000000000e+03) (33, 1.50000000000000000000e+03) (0, 1.50000000000000000000e+03) (1, 1.50000000000000000000e+03) (2, 1.50000000000000000000e+03) (3, -1.50000000000000000000e+03) (4, 1.44043969726562500000e+03) (5, 1.50000000000000000000e+03) (6, 1.50000000000000000000e+03) (7, 1.50000000000000000000e+03) (8, 1.50000000000000000000e+03) (9, -1.50000000000000000000e+03) (10, -1.50000000000000000000e+03) (11, 1.50000000000000000000e+03) (12, 1.50000000000000000000e+03) (13, 1.50000000000000000000e+03) (14, 1.24604833984375000000e+03) (15, 1.50000000000000000000e+03) (16, -1.50000000000000000000e+03) (17, 6.33966064453125000000e+02) (18, 1.50000000000000000000e+03) (19, 4.00676971435546875000e+02) (20, 1.28323669433593750000e+03) (21, 1.50000000000000000000e+03) (22, 1.50000000000000000000e+03) (23, -2.48192779541015625000e+02) (24, -1.50000000000000000000e+03) (25, 1.50000000000000000000e+03) (26, 1.50000000000000000000e+03) (27, 1.50000000000000000000e+03) (28, 1.08750219726562500000e+03) (29, 1.50000000000000000000e+03) (30, 1.50000000000000000000e+03) (31, 1.50000000000000000000e+03) (32, 1.50000000000000000000e+03) (33, 1.50000000000000000000e+03) (0, 1.50000000000000000000e+03) (1, 1.50000000000000000000e+03) (2, 1.50000000000000000000e+03) (3, -1.50000000000000000000e+03) (4, 1.43380163574218750000e+03) (5, 1.50000000000000000000e+03) (6, 6.28018379211425781250e+00) (7, 1.50000000000000000000e+03) (8, 1.50000000000000000000e+03) (9, -1.50000000000000000000e+03) (10, -1.50000000000000000000e+03) (11, 1.50000000000000000000e+03) (12, 1.50000000000000000000e+03) (13, 1.64488555908203125000e+02) (14, -7.30977249145507812500e+00) (15, 1.50000000000000000000e+03) (16, -1.50000000000000000000e+03) (17, 4.01471679687500000000e+02) (18, 1.50000000000000000000e+03) (19, 7.65744750976562500000e+02) (20, 5.89005422592163085938e+00) (21, 1.50000000000000000000e+03) (22, 1.50000000000000000000e+03) (23, 1.50000000000000000000e+03) (24, -1.50000000000000000000e+03) (25, 1.50000000000000000000e+03) (26, 1.50000000000000000000e+03) (27, 1.50000000000000000000e+03) (28, 1.08750219726562500000e+03) (29, 1.50000000000000000000e+03) (30, 1.50000000000000000000e+03) (31, 1.50000000000000000000e+03) (32, 1.50000000000000000000e+03) (33, 6.20548820495605468750e+00) (0, 1.50000000000000000000e+03) (1, 1.50000000000000000000e+03) (2, 1.50000000000000000000e+03) (3, -1.50000000000000000000e+03) (4, 1.44881518554687500000e+03) (5, 1.50000000000000000000e+03) (6, 1.50000000000000000000e+03) (7, 1.50000000000000000000e+03) (8, 1.50000000000000000000e+03) (9, -1.50000000000000000000e+03) (10, -1.50000000000000000000e+03) (11, 1.50000000000000000000e+03) (12, 1.50000000000000000000e+03) (13, 1.50000000000000000000e+03) (14, 1.19574890136718750000e+03) (15, 1.50000000000000000000e+03) (16, -1.50000000000000000000e+03) (17, 4.01471679687500000000e+02) (18, 1.50000000000000000000e+03) (19, 4.55168060302734375000e+02) (20, 1.24961621093750000000e+03) (21, 1.50000000000000000000e+03) (22, 1.50000000000000000000e+03) (23, -2.48196960449218750000e+02) (24, -1.50000000000000000000e+03) (25, 1.50000000000000000000e+03) (26, 1.50000000000000000000e+03) (27, 1.50000000000000000000e+03) (28, 1.08750219726562500000e+03) (29, 1.50000000000000000000e+03) (30, 1.50000000000000000000e+03) (31, 1.50000000000000000000e+03) (32, 1.50000000000000000000e+03) (33, 1.50000000000000000000e+03) (0, 1.50000000000000000000e+03) (1, 1.50000000000000000000e+03) (2, 1.50000000000000000000e+03) (3, -1.50000000000000000000e+03) (4, 1.45222485351562500000e+03) (5, 1.50000000000000000000e+03) (6, 1.50000000000000000000e+03) (7, 1.50000000000000000000e+03) (8, 1.50000000000000000000e+03) (9, -1.50000000000000000000e+03) (10, -1.50000000000000000000e+03) (11, 1.50000000000000000000e+03) (12, 1.50000000000000000000e+03) (13, 1.50000000000000000000e+03) (14, 1.50000000000000000000e+03) (15, 1.50000000000000000000e+03) (16, -1.50000000000000000000e+03) (17, 4.01471679687500000000e+02) (18, 1.50000000000000000000e+03) (19, 6.64604736328125000000e+02) (20, 1.28800866699218750000e+03) (21, 1.50000000000000000000e+03) (22, 1.50000000000000000000e+03) (23, -2.48084289550781250000e+02) (24, -1.50000000000000000000e+03) (25, 1.50000000000000000000e+03) (26, 1.50000000000000000000e+03) (27, 1.50000000000000000000e+03) (28, 1.08750219726562500000e+03) (29, 1.50000000000000000000e+03) (30, 1.50000000000000000000e+03) (31, 1.50000000000000000000e+03) (32, 1.50000000000000000000e+03) (33, 1.50000000000000000000e+03) (0, 1.50000000000000000000e+03) (1, 1.50000000000000000000e+03) (2, 1.50000000000000000000e+03) (3, -1.50000000000000000000e+03) (4, 1.46222216796875000000e+03) (5, 1.50000000000000000000e+03) (6, 2.82767364501953125000e+02) (7, 1.50000000000000000000e+03) (8, 1.50000000000000000000e+03) (9, -1.50000000000000000000e+03) (10, -1.50000000000000000000e+03) (11, 1.50000000000000000000e+03) (12, 1.50000000000000000000e+03) (13, 7.71915283203125000000e+02) (14, 2.76402587890625000000e+02) (15, 1.50000000000000000000e+03) (16, -1.50000000000000000000e+03) (17, 4.01471679687500000000e+02) (18, 1.50000000000000000000e+03) (19, 1.83306320190429687500e+02) (20, 2.82014312744140625000e+02) (21, 1.50000000000000000000e+03) (22, 1.50000000000000000000e+03) (23, 1.52431991577148437500e+02) (24, -1.50000000000000000000e+03) (25, 1.50000000000000000000e+03) (26, 1.50000000000000000000e+03) (27, 1.50000000000000000000e+03) (28, 1.08750219726562500000e+03) (29, 1.50000000000000000000e+03) (30, 1.50000000000000000000e+03) (31, 1.50000000000000000000e+03) (32, 1.50000000000000000000e+03) (33, 2.82683837890625000000e+02) (0, 1.50000000000000000000e+03) (1, 1.50000000000000000000e+03) (2, 1.50000000000000000000e+03) (3, -1.50000000000000000000e+03) (4, 1.44235949707031250000e+03) (5, 1.50000000000000000000e+03) (6, 1.50000000000000000000e+03) (7, 1.50000000000000000000e+03) (8, 1.50000000000000000000e+03) (9, -1.50000000000000000000e+03) (10, -1.50000000000000000000e+03) (11, 1.50000000000000000000e+03) (12, 1.50000000000000000000e+03) (13, 1.50000000000000000000e+03) (14, 1.50000000000000000000e+03) (15, 1.50000000000000000000e+03) (16, -1.50000000000000000000e+03) (17, 4.01471679687500000000e+02) (18, 1.50000000000000000000e+03) (19, 4.55168548583984375000e+02) (20, 1.25770666503906250000e+03) (21, 1.50000000000000000000e+03) (22, 1.50000000000000000000e+03) (23, -2.48111145019531250000e+02) (24, -1.50000000000000000000e+03) (25, 1.50000000000000000000e+03) (26, 1.50000000000000000000e+03) (27, 1.50000000000000000000e+03) (28, 1.08750219726562500000e+03) (29, 1.50000000000000000000e+03) (30, 1.50000000000000000000e+03) (31, 1.50000000000000000000e+03) (32, 1.50000000000000000000e+03) (33, 1.50000000000000000000e+03) (0, 1.50000000000000000000e+03) (1, 1.50000000000000000000e+03) (2, 1.50000000000000000000e+03) (3, -1.50000000000000000000e+03) (4, 1.44581530761718750000e+03) (5, 1.50000000000000000000e+03) (6, -1.41463680267333984375e+01) (7, 4.31036804199218750000e+02) (8, 1.24179284667968750000e+03) (9, -1.50000000000000000000e+03) (10, -1.50000000000000000000e+03) (11, 1.50000000000000000000e+03) (12, 1.50000000000000000000e+03) (13, 8.47669555664062500000e+02) (14, -2.07492408752441406250e+01) (15, 1.50000000000000000000e+03) (16, -1.50000000000000000000e+03) (17, -1.25009399414062500000e+03) (18, 1.47463607788085937500e+02) (19, -9.36349258422851562500e+01) (20, -1.43811864852905273438e+01) (21, 1.50000000000000000000e+03) (22, 1.50000000000000000000e+03) (23, 1.13412158203125000000e+03) (24, -1.43671264648437500000e+03) (25, 1.50000000000000000000e+03) (26, 1.50000000000000000000e+03) (27, 1.50000000000000000000e+03) (28, 1.36385278320312500000e+03) (29, 1.50000000000000000000e+03) (30, 1.50000000000000000000e+03) (31, 1.50000000000000000000e+03) (32, 1.50000000000000000000e+03) (33, -1.41823177337646484375e+01) (0, -1.48625219726562500000e+03) (1, 1.50000000000000000000e+03) (2, 1.50000000000000000000e+03) (3, 1.50000000000000000000e+03) (4, -1.30157543945312500000e+03) (5, -1.48628564453125000000e+03) (6, 1.42856616210937500000e+03) (7, 6.61302429199218750000e+02) (8, -1.50000000000000000000e+03) (9, 1.50000000000000000000e+03) (10, 1.50000000000000000000e+03) (11, -1.50000000000000000000e+03) (12, -1.48047363281250000000e+03) (13, 1.26279418945312500000e+03) (14, 7.36519531250000000000e+02) (15, -1.50000000000000000000e+03) (16, 1.50000000000000000000e+03) (17, 5.59419631958007812500e+01) (18, -1.46627685546875000000e+03) (19, 1.49887866210937500000e+03) (20, 9.67478088378906250000e+02) (21, -1.50000000000000000000e+03) (22, -1.50000000000000000000e+03) (23, 4.82459869384765625000e+02) (24, 1.50000000000000000000e+03) (25, -1.50000000000000000000e+03) (26, 1.45605688476562500000e+03) (27, -1.50000000000000000000e+03) (28, -4.33375427246093750000e+02) (29, -1.50000000000000000000e+03) (30, 1.08444433593750000000e+03) (31, -1.50000000000000000000e+03) (32, -1.50000000000000000000e+03) (33, 1.42856616210937500000e+03) (0, 1.50000000000000000000e+03) (1, 1.50000000000000000000e+03) (2, 1.50000000000000000000e+03) (3, -1.50000000000000000000e+03) (4, 1.45222485351562500000e+03) (5, 1.50000000000000000000e+03) (6, 1.50000000000000000000e+03) (7, 1.50000000000000000000e+03) (8, 1.50000000000000000000e+03) (9, -1.50000000000000000000e+03) (10, -1.50000000000000000000e+03) (11, 1.50000000000000000000e+03) (12, 1.50000000000000000000e+03) (13, 1.50000000000000000000e+03) (14, 1.50000000000000000000e+03) (15, 1.50000000000000000000e+03) (16, -1.50000000000000000000e+03) (17, 3.92532531738281250000e+02) (18, 1.50000000000000000000e+03) (19, 7.12553955078125000000e+02) (20, 1.25938818359375000000e+03) (21, 1.50000000000000000000e+03) (22, 1.50000000000000000000e+03) (23, -2.48124084472656250000e+02) (24, -1.50000000000000000000e+03) (25, 1.50000000000000000000e+03) (26, 1.50000000000000000000e+03) (27, 1.50000000000000000000e+03) (28, 1.08750219726562500000e+03) (29, 1.50000000000000000000e+03) (30, 1.50000000000000000000e+03) (31, 1.50000000000000000000e+03) (32, 1.50000000000000000000e+03) (33, 1.50000000000000000000e+03) (0, -1.42485180664062500000e+03) (1, 1.50000000000000000000e+03) (2, 1.50000000000000000000e+03) (3, 1.50000000000000000000e+03) (4, -5.35779235839843750000e+02) (5, -1.42424047851562500000e+03) (6, 1.42815942382812500000e+03) (7, -7.91314941406250000000e+02) (8, -1.50000000000000000000e+03) (9, 1.50000000000000000000e+03) (10, 1.50000000000000000000e+03) (11, -1.50000000000000000000e+03) (12, -1.39436413574218750000e+03) (13, 1.37514990234375000000e+03) (14, 9.14574035644531250000e+02) (15, -1.27806921386718750000e+03) (16, 4.23846954345703125000e+02) (17, 1.49999987792968750000e+03) (18, -1.44570996093750000000e+03) (19, 1.49886560058593750000e+03) (20, 1.07394226074218750000e+03) (21, -1.50000000000000000000e+03) (22, -1.50000000000000000000e+03) (23, -1.01309082031250000000e+03) (24, 1.50000000000000000000e+03) (25, -1.50000000000000000000e+03) (26, 1.35387817382812500000e+03) (27, -1.50000000000000000000e+03) (28, 8.91351684570312500000e+02) (29, -1.50000000000000000000e+03) (30, 6.22214904785156250000e+02) (31, -1.50000000000000000000e+03) (32, -1.50000000000000000000e+03) (33, 1.42815942382812500000e+03) (34, 3.18431644439697265625e+01) (35, 2.27717304229736328125e+01) (36, 1.72117889404296875000e+02) (37, 6.72351455688476562500e+01) (38, 1.05604705810546875000e+01) (39, -1.53042480468750000000e+02) (40, -1.49298608398437500000e+03) (41, 1.06473051011562347412e-01) (42, -1.49238037109375000000e+03) (43, 1.01558471679687500000e+02) (44, 2.75257606506347656250e+01) (45, 1.02825880050659179688e+01) (46, 1.14595794677734375000e+02) (47, 1.14249588012695312500e+02) (48, 3.39032897949218750000e+02) (49, 1.29929611206054687500e+02) (50, 9.91804885864257812500e+00) (51, -1.01283026123046875000e+03) (52, 1.50000000000000000000e+03) (53, -2.13925451040267944336e-01) (54, 1.50000000000000000000e+03) 
